{"version":"0.7.0","architecture":"SlimmableContainer","config":{"submodels":[{"max_value":0.5,"model":{"version":"0.7.0","metadata":{"date":{"year":2026,"month":6,"day":1,"hour":22,"minute":59,"second":23},"loudness":-17.796499252319336,"gain":0.7317323207766621},"architecture":"WaveNet","config":{"layers":[{"input_size":1,"condition_size":1,"head":{"out_channels":1,"kernel_size":16,"bias":true},"channels":3,"kernel_sizes":[6,6,6,6,6,6,6,6,6,6,6,6,6,6,15,15,6,6,6,6,6,6,6],"dilations":[1,3,7,17,41,101,239,1,3,7,17,41,101,239,1,13,1,3,7,17,41,101,239],"activation":[{"type":"LeakyReLU","negative_slope":0.01},{"type":"LeakyReLU","negative_slope":0.01},{"type":"LeakyReLU","negative_slope":0.01},{"type":"LeakyReLU","negative_slope":0.01},{"type":"LeakyReLU","negative_slope":0.01},{"type":"LeakyReLU","negative_slope":0.01},{"type":"LeakyReLU","negative_slope":0.01},{"type":"LeakyReLU","negative_slope":0.01},{"type":"LeakyReLU","negative_slope":0.01},{"type":"LeakyReLU","negative_slope":0.01},{"type":"LeakyReLU","negative_slope":0.01},{"type":"LeakyReLU","negative_slope":0.01},{"type":"LeakyReLU","negative_slope":0.01},{"type":"LeakyReLU","negative_slope":0.01},{"type":"LeakyReLU","negative_slope":0.01},{"type":"LeakyReLU","negative_slope":0.01},{"type":"LeakyReLU","negative_slope":0.01},{"type":"LeakyReLU","negative_slope":0.01},{"type":"LeakyReLU","negative_slope":0.01},{"type":"LeakyReLU","negative_slope":0.01},{"type":"LeakyReLU","negative_slope":0.01},{"type":"LeakyReLU","negative_slope":0.01},{"type":"LeakyReLU","negative_slope":0.01}],"bottleneck":3,"head1x1":{"active":false,"out_channels":1,"groups":1},"layer1x1":{"active":true,"groups":1},"groups_input":1,"groups_input_mixin":1,"conv_pre_film":{"active":false,"shift":true,"groups":1},"conv_post_film":{"active":false,"shift":true,"groups":1},"input_mixin_pre_film":{"active":false,"shift":true,"groups":1},"input_mixin_post_film":{"active":false,"shift":true,"groups":1},"activation_pre_film":{"active":false,"shift":true,"groups":1},"activation_post_film":{"active":false,"shift":true,"groups":1},"layer1x1_post_film":{"active":false,"shift":true,"groups":1},"head1x1_post_film":{"active":false,"shift":true,"groups":1},"gating_mode":["none","none","none","none","none","none","none","none","none","none","none","none","none","none","none","none","none","none","none","none","none","none","none"],"secondary_activation":[null,null,null,null,null,null,null,null,null,null,null,null,null,null,null,null,null,null,null,null,null,null,null],"slimmable":null}],"head":null,"head_scale":0.008629673480948098},"weights":[1.6198173761367798,1.6123861074447632,-3.619420051574707,0.22565880417823792,0.10431026667356491,-0.16162613034248352,0.13875459134578705,-0.12630462646484375,-0.34873735904693604,0.5103259086608887,0.21122035384178162,-0.11008152365684509,0.1124168336391449,-0.29846471548080444,-0.37495672702789307,-0.23344019055366516,-0.19737105071544647,-0.14592459797859192,-0.0544055812060833,0.07487291842699051,0.4115007519721985,0.45439213514328003,0.41095900535583496,-0.2077612280845642,0.06000258028507233,-1.3602961301803589,-1.34260094165802,0.5593823194503784,0.5046439170837402,-0.2632591724395752,0.06408200412988663,-1.446716547012329,-1.5566831827163696,-0.7155901193618774,-0.44901707768440247,0.22617000341415405,0.029015883803367615,2.1811776161193848,2.2165756225585938,-0.3069702684879303,-0.26730817556381226,0.07126660645008087,-0.1868525594472885,0.6123344302177429,0.6322450637817383,-0.20755045115947723,-0.22723199427127838,-0.12829147279262543,-0.3872465491294861,0.9077335596084595,0.6282215118408203,0.5076573491096497,0.4510834813117981,-0.17108219861984253,0.11592574417591095,-0.7448461651802063,-0.7168322801589966,0.337468683719635,2.1091606616973877,0.5764275193214417,-0.9394060373306274,-1.1223738193511963,-0.030071845278143883,0.29496997594833374,0.24279296398162842,0.3303832411766052,0.20101062953472137,-0.7823829650878906,0.06313355267047882,1.3094595670700073,0.9392094016075134,-1.506266713142395,-0.24703048169612885,-0.3628667891025543,0.5106714963912964,0.5532569885253906,0.4856390058994293,0.4559602439403534,0.36975666880607605,-0.07644350081682205,-1.2390553951263428,0.17958153784275055,0.4073900282382965,0.167408749461174,-0.15728777647018433,0.1891966164112091,0.7873862981796265,-0.08559809625148773,-0.24296237528324127,-0.26618725061416626,0.029120294377207756,0.07030738145112991,0.5087267160415649,0.5957549810409546,0.4249891936779022,0.06338464468717575,0.3808467388153076,0.12817248702049255,-0.5331622362136841,0.3726207911968231,0.023268675431609154,0.24470701813697815,0.15511499345302582,0.05669151991605759,-0.10829178243875504,0.06578123569488525,-0.11196302622556686,-0.009492630138993263,-0.05586753040552139,-0.003894388908520341,0.5308728218078613,0.16955092549324036,0.11930886656045914,0.18193212151527405,0.09044108539819717,0.37691494822502136,0.6104996800422668,-0.2530231773853302,-0.12398837506771088,-0.3915046453475952,-0.3786807954311371,-0.2896564304828644,0.2048298567533493,0.23930393159389496,0.39697855710983276,0.4284919798374176,0.21841441094875336,0.03841245546936989,-0.40591034293174744,0.08572431653738022,-0.35912346839904785,0.4940689504146576,-0.5905255675315857,-0.25586771965026855,0.8970701098442078,0.6098248958587646,-0.6621617078781128,-0.18114151060581207,-0.7004079818725586,0.9671023488044739,0.3425092399120331,0.8577548861503601,-1.427612066268921,-0.3392283320426941,0.32084032893180847,0.42657339572906494,0.041946541517972946,-0.028029240667819977,-0.0920129045844078,0.031208807602524757,0.08790966123342514,0.04293335601687431,-0.0914853885769844,0.08735933154821396,-0.0188578050583601,0.044276826083660126,0.12050766497850418,0.11879150569438934,0.33299580216407776,0.06980760395526886,0.03229714184999466,0.02727344073355198,0.056378163397312164,0.048233456909656525,-0.5604064464569092,0.020739316940307617,0.07555589079856873,0.1211576983332634,-0.30975404381752014,-0.16005350649356842,-0.4309197664260864,-0.09382285922765732,-0.024599598720669746,0.0051240683533251286,-0.07075788825750351,0.02151014469563961,0.30291470885276794,-0.07521529495716095,-0.08232878893613815,-0.06439633667469025,-0.04345843940973282,-0.01567218266427517,-0.3302759826183319,0.037356991320848465,0.12354305386543274,0.24693381786346436,0.24626196920871735,0.3721061050891876,-0.4071404039859772,0.038558054715394974,0.002791446866467595,0.10349079966545105,0.14772745966911316,-0.06583208590745926,0.10037402808666229,0.0047460380010306835,-0.04801957309246063,-0.059625957161188126,0.02181367017328739,-0.15129151940345764,0.6409868597984314,-0.43524640798568726,0.04098663851618767,0.2882475256919861,-0.16518858075141907,-0.5598188042640686,-1.7121739387512207,-0.2563174366950989,0.49773070216178894,0.7428750395774841,-0.6032342910766602,-0.17976997792720795,-1.1339740753173828,0.9297699332237244,0.2862243354320526,0.9361163377761841,0.09534058719873428,0.31158915162086487,-0.25365006923675537,-0.05029028281569481,0.0018121292814612389,-0.017185233533382416,0.07950249314308167,-0.08000616729259491,-0.19122272729873657,0.04524268954992294,0.0017177339177578688,-0.029345601797103882,0.11776988953351974,0.2523549795150757,1.104627013206482,0.05750483274459839,0.048539258539676666,0.01575113832950592,0.10278522968292236,0.32312801480293274,-0.8817886114120483,0.08999335765838623,-0.051233891397714615,0.07648923248052597,-0.16913250088691711,-0.154983788728714,-0.11113225668668747,0.08200375735759735,0.05961167812347412,0.09935463219881058,0.04091999679803848,0.2906455099582672,0.4301014840602875,0.026610221713781357,0.015278481878340244,0.037956561893224716,0.04042961448431015,0.18332317471504211,-0.7594029903411865,0.18533477187156677,0.0708097368478775,0.038223087787628174,-0.050319548696279526,-0.14445795118808746,-0.2498389482498169,-0.011443596333265305,-0.07009976357221603,0.04179765656590462,-0.024292439222335815,0.005431532859802246,0.5362445712089539,-0.1343933641910553,-0.16146740317344666,-0.0823289304971695,0.04326716065406799,0.022965921089053154,-0.481814444065094,0.5529462099075317,0.27233821153640747,0.18611766397953033,0.7485396265983582,0.56492018699646,0.12332884967327118,-0.00233597494661808,0.06754811108112335,0.4899137616157532,-0.37422600388526917,0.21939747035503387,-0.30445989966392517,-1.244394302368164,-0.9707064032554626,-0.3410787284374237,-0.09275694936513901,0.2769245207309723,0.03051893785595894,-0.0975770354270935,-0.2099975347518921,-0.2065104991197586,-0.06931445747613907,-0.2058320790529251,0.5711172819137573,0.055814553052186966,-0.04878023639321327,0.0038823438808321953,-0.014149409718811512,0.10416235774755478,-0.19804315268993378,0.037429943680763245,0.06439931690692902,0.07245597243309021,0.0689810961484909,0.06868091225624084,-0.1284400373697281,0.20154321193695068,0.21511200070381165,0.30122122168540955,0.015180298127233982,0.19503991305828094,-0.6687403321266174,0.16921067237854004,0.26713573932647705,0.27544137835502625,0.1133188009262085,-0.097579725086689,0.2011488676071167,0.004403229802846909,-0.054550498723983765,-0.04030849039554596,-0.048284947872161865,-0.11881178617477417,0.13459458947181702,-0.03555675968527794,-0.19824856519699097,-0.21583233773708344,-0.14858980476856232,-0.21621564030647278,-0.34384989738464355,-0.02925245650112629,-0.09545072168111801,-0.06918472051620483,-0.06570589542388916,0.017187295481562614,0.25928786396980286,-0.013816817663609982,-0.03988060727715492,-0.03994964808225632,-0.03866497799754143,-0.04747321084141731,-0.3850921094417572,0.07532452046871185,-0.0464506559073925,0.3104505240917206,0.4118122458457947,-0.6743876338005066,0.180696502327919,-0.7289958596229553,0.8079831600189209,0.24689482152462006,0.09969383478164673,-0.22577214241027832,0.24842830002307892,-0.0623919777572155,0.08627253770828247,-0.47316861152648926,-0.07689988613128662,-0.5874953866004944,-0.23649655282497406,0.17317254841327667,0.03470750153064728,0.22108568251132965,0.3613649308681488,0.4069511294364929,-0.5021551847457886,-0.04224855825304985,-0.10147615522146225,-0.002143549732863903,0.04708084091544151,-0.008743851445615292,0.06468000262975693,-0.025163594633340836,-0.039191994816064835,-0.029891250655055046,-0.040736328810453415,-0.05138513445854187,-0.1428704708814621,-0.1324501931667328,-0.07098748534917831,-0.1257847547531128,-0.17228063941001892,-0.1411689668893814,-0.12712548673152924,-0.045875415205955505,-0.017652202397584915,-0.08363592624664307,-0.05571598932147026,-0.025087954476475716,0.8629576563835144,-0.009614844806492329,-0.0012621110072359443,-0.012454976327717304,0.00348107423633337,0.004659233149141073,-0.480909138917923,-0.12353426218032837,0.10912270843982697,0.00883669126778841,-0.0961390808224678,-0.29395973682403564,-0.2464745193719864,0.4766359329223633,0.5081799030303955,0.4475051760673523,0.21917645633220673,0.3176845610141754,0.18552237749099731,0.10108596831560135,0.11542654782533646,0.13783685863018036,0.09183914214372635,0.08591405302286148,-0.38895276188850403,0.35811740159988403,-0.5427789688110352,-0.6103001832962036,-0.40275469422340393,-0.8630130887031555,0.07784269750118256,0.6822859048843384,0.15806500613689423,-0.03372885659337044,-0.10392648726701736,-0.5994541049003601,0.8656044602394104,0.08003140240907669,0.7275399565696716,0.8665133714675903,-0.09755077213048935,-0.192927286028862,0.19628886878490448,-0.0018994349520653486,0.020087819546461105,-0.02048412896692753,-0.09648682922124863,0.08329562097787857,0.2181265652179718,0.205326646566391,0.20146675407886505,0.18099698424339294,0.12115571647882462,0.1686614751815796,-0.04842822998762131,-0.004945781547576189,0.018682735040783882,-0.007178233005106449,-0.0027696331962943077,0.012811758555471897,0.05005686357617378,0.2535000443458557,0.08027096837759018,-0.2632044851779938,0.12453482300043106,0.33079347014427185,-0.40883901715278625,0.18024374544620514,0.09514650702476501,0.0029902455862611532,0.08404549211263657,0.07171031832695007,0.34172460436820984,0.019130246713757515,0.10902434587478638,-0.03948467969894409,0.029874466359615326,0.07660278677940369,0.040280554443597794,-0.048140235245227814,0.29327160120010376,0.09266796708106995,0.3197654187679291,0.10467452555894852,0.5291976928710938,-0.10402678698301315,-0.04064163938164711,-0.1126776859164238,-0.09255216270685196,-0.10875732451677322,-0.3235187232494354,-0.08057614415884018,0.06737872213125229,-0.018096107989549637,0.04992540180683136,0.028589598834514618,0.13886171579360962,0.6045454144477844,-0.04199517145752907,-0.0007799111772328615,-0.6079468727111816,-0.04765860736370087,0.5607548952102661,-0.14938803017139435,-0.13939984142780304,-0.3668823838233948,-0.9555835127830505,0.36617138981819153,0.33468708395957947,0.3730245530605316,-0.2416256219148636,0.23220719397068024,-0.08536262810230255,-0.2702743113040924,-0.060690537095069885,-0.22749440371990204,-0.0679980143904686,-0.04101375490427017,-0.07986815273761749,-0.019953321665525436,-0.05441226810216904,-0.3106090724468231,-0.11387026309967041,-0.13713862001895905,0.07651547342538834,-0.23043563961982727,-0.33072713017463684,-0.0036132833920419216,-0.05458052456378937,0.09014908224344254,-0.2614988088607788,0.10740911960601807,0.16670601069927216,-0.05585726350545883,-0.07547163963317871,-0.11855018138885498,-0.1027437075972557,-0.01804223842918873,0.10723280906677246,-0.016982117667794228,0.021491898223757744,0.12893451750278473,0.26923054456710815,-0.029902372509241104,0.204469233751297,-0.25675085186958313,-0.12994684278964996,0.10655009746551514,0.160904198884964,0.17416256666183472,-0.19275668263435364,-0.05659627541899681,-0.23401257395744324,-0.05214562267065048,-0.10796777158975601,-0.06962616741657257,-0.4174627363681793,-0.6604980826377869,0.03069089911878109,0.18348073959350586,-0.04131200909614563,-0.4997938871383667,-0.515076220035553,0.21896882355213165,-0.2410178929567337,-0.29720234870910645,-0.39908286929130554,-0.19907554984092712,-0.03404688835144043,-0.15369974076747894,0.19849026203155518,-0.04472535103559494,-0.2270428091287613,0.19767391681671143,-0.25854986906051636,0.13032490015029907,0.17675426602363586,0.06691084802150726,0.24375374615192413,-0.25990334153175354,0.35448935627937317,0.5242725610733032,0.5886308550834656,-0.7350415587425232,-0.036717403680086136,-0.857115626335144,-0.15630117058753967,0.024444805458188057,-0.11794261634349823,-0.23760898411273956,0.0584554485976696,-0.024612106382846832,-0.02275053784251213,-0.32327747344970703,-0.06721947342157364,-0.37368887662887573,-0.06871155649423599,0.10309378057718277,-0.16349589824676514,0.03154333680868149,0.10919149219989777,0.2509228587150574,-0.026738492771983147,-0.3706282079219818,0.13185174763202667,-0.1818085014820099,-0.09981437027454376,0.06607318669557571,-0.06012346222996712,0.04063577950000763,0.34216630458831787,-0.12170757353305817,-0.18224456906318665,0.07480887323617935,0.10236930847167969,-0.17959848046302795,-0.15452204644680023,-0.035259611904621124,-0.007689977530390024,-0.0677088126540184,0.3031201660633087,0.4437602460384369,-0.23962122201919556,0.1722410023212433,0.2138950377702713,0.06889476627111435,0.20121245086193085,-0.04946550726890564,0.23803198337554932,-0.1992170214653015,-0.14689753949642181,-0.16302350163459778,-0.41473230719566345,-0.15742497146129608,-0.026404980570077896,-0.12366443872451782,0.03246084228157997,-0.09370184689760208,-0.2058907449245453,0.02677229233086109,0.06940476596355438,0.440125048160553,0.42239198088645935,0.5027403235435486,-0.210709348320961,0.5147131681442261,-0.6005334258079529,-0.031187092885375023,-0.36951929330825806,-0.05954097583889961,-0.08953987061977386,-0.27565860748291016,-0.5184231996536255,-0.3596256673336029,0.35499754548072815,0.27632761001586914,-0.8276220560073853,0.031211230903863907,-0.1991155594587326,-0.4304531216621399,-0.5881938338279724,-0.36014440655708313,-0.34860333800315857,-0.12006529420614243,0.14071883261203766,0.03337494283914566,0.050199247896671295,-0.10410956293344498,-0.029565520584583282,-0.05231938511133194,-0.18822939693927765,-0.033380474895238876,-0.020599620416760445,0.0340072438120842,0.05341850966215134,-0.06217197701334953,0.07954084873199463,-0.3442169725894928,-0.192969411611557,-0.21656160056591034,-0.24722948670387268,0.15692152082920074,0.05728685483336449,0.1997167319059372,0.1532522439956665,0.02914843149483204,-0.007979532703757286,-0.056634463369846344,0.38277578353881836,0.021236535161733627,0.06248557195067406,0.11135879158973694,-0.04327896237373352,-0.1924760341644287,-0.4382941424846649,0.35436320304870605,0.21837620437145233,0.12689249217510223,0.1934160590171814,0.06900662183761597,-0.19611799716949463,0.07389844208955765,-0.18078289926052094,0.0666499137878418,0.22722387313842773,0.014159997925162315,-0.15669631958007812,-0.35493043065071106,0.09538004547357559,0.34483665227890015,0.24480649828910828,0.11680974811315536,0.022976787760853767,0.3131209909915924,-0.07574190944433212,-0.055574335157871246,0.6323760151863098,-0.1451374739408493,-0.002602128079161048,-0.23936165869235992,0.10094224661588669,-0.07107605040073395,0.2624928057193756,0.2074468731880188,0.18289458751678467,-0.46823248267173767,-0.2853052318096161,-0.03414742276072502,-0.9013416171073914,-0.018555136397480965,-0.0629906952381134,-0.04772299900650978,0.022669462487101555,0.025817109271883965,-0.082635797560215,-0.07176126539707184,0.4664132297039032,0.07396844774484634,0.07375616580247879,0.06421959400177002,0.07045351713895798,0.27997878193855286,-0.1731559783220291,-0.00855816900730133,0.023588741198182106,0.01728157512843609,-0.009420430287718773,0.05355800315737724,-0.39136096835136414,0.1403946876525879,0.1013626977801323,0.02926596812903881,0.052635859698057175,0.06335722655057907,0.030589312314987183,0.018570758402347565,0.22006474435329437,-0.020426422357559204,0.17861786484718323,-0.23053540289402008,0.5089375972747803,0.028291989117860794,0.05554649606347084,-0.02199060469865799,0.10610752552747726,-0.018374048173427582,-0.4553702473640442,0.028178751468658447,0.10254772752523422,0.23214447498321533,0.13226301968097687,-0.02858891524374485,-0.23883411288261414,-0.08290339261293411,-0.12648232281208038,-0.1674932986497879,0.09661725163459778,0.2837129235267639,0.5914631485939026,0.01674259640276432,0.044449515640735626,-0.011525752022862434,0.02674940787255764,0.4099711775779724,0.060291439294815063,-0.2626109719276428,-0.37432196736335754,0.03363441303372383,-0.12113488465547562,-0.09937901049852371,-0.35672280192375183,-0.05287420377135277,0.058646444231271744,0.31845128536224365,0.34478604793548584,-0.15921655297279358,-0.6354771256446838,0.8976910710334778,0.6517174243927002,0.10629697144031525,-0.6805110573768616,-0.2004254013299942,-0.14830036461353302,0.061845168471336365,0.1215665191411972,0.07251744717359543,0.07189207524061203,0.07249009609222412,-0.6011328101158142,-0.0033118033315986395,-0.08205664902925491,-0.043664224445819855,-0.03704860806465149,-0.11280184984207153,-0.2521626949310303,0.012140418402850628,-0.027149787172675133,-0.01463994663208723,-0.03415693715214729,-0.009106935001909733,0.3534116744995117,0.05904791131615639,0.09453994780778885,0.05919104069471359,-0.013449721969664097,0.10161291062831879,0.10676570236682892,-0.058060549199581146,-0.01631692238152027,0.020153699442744255,0.03408531844615936,-0.009296711534261703,-0.19362053275108337,0.0025360947474837303,0.018129942938685417,0.015397638082504272,0.0010284166783094406,0.00432203896343708,0.4415595531463623,0.05654078722000122,-0.15924417972564697,-0.01999538578093052,-0.053464390337467194,-0.16833306849002838,0.09336911886930466,0.09820657223463058,0.20461446046829224,0.15922696888446808,0.25637343525886536,0.22785288095474243,-0.8320536017417908,0.06261295080184937,0.06809127330780029,0.062441445887088776,0.09984299540519714,0.02055356092751026,-0.034823495894670486,0.06448190659284592,-0.34272944927215576,0.032966841012239456,-0.29885953664779663,0.23932486772537231,0.36614423990249634,0.36952292919158936,0.04198382422327995,-0.16844165325164795,0.054354727268218994,0.25097841024398804,0.6204027533531189,0.4901409149169922,-1.4613739252090454,0.12204030901193619,-0.13065028190612793,0.18905486166477203,0.2976137697696686,0.17446956038475037,0.11356839537620544,-0.02405998669564724,9.349605534225702e-05,-0.18620234727859497,-0.0013230150798335671,-0.07889390736818314,-0.03301018849015236,0.11219032853841782,0.06803420186042786,0.06050622835755348,0.5333832502365112,0.004451962653547525,0.01590532436966896,0.03282551094889641,0.02232331410050392,-0.009737188927829266,-0.23571351170539856,-0.07802990823984146,-0.06007872149348259,-0.026435287669301033,-0.10603856295347214,-0.05920165032148361,-0.05200602859258652,-0.008146136067807674,0.06658792495727539,0.2300533503293991,0.1011725589632988,-0.050963062793016434,-0.43810340762138367,-0.007496197707951069,-0.031214870512485504,-0.006987834814935923,-0.022911591455340385,-0.0329245962202549,-0.6387324333190918,0.09173009544610977,0.09593226760625839,0.03076104074716568,0.07956527918577194,-0.254569411277771,-0.3620772659778595,0.09213888645172119,-0.0037200869992375374,-0.20426476001739502,-0.07715699821710587,0.2280394732952118,-0.0001157695078290999,0.0026248935610055923,0.05385671928524971,0.04221309348940849,0.04523119702935219,0.028078801929950714,-0.4495304524898529,-0.09352521598339081,-0.08934986591339111,0.3391464650630951,0.23448452353477478,-0.2309277504682541,0.30168789625167847,0.3270057141780853,0.13595859706401825,-0.14397664368152618,-0.285358190536499,0.27353987097740173,0.5112584233283997,0.7256765365600586,-0.5063980221748352,-0.20297831296920776,-0.8226885795593262,-0.775708019733429,0.0230343546718359,-0.1322886049747467,0.1787732094526291,0.017519867047667503,0.11629587411880493,0.15851594507694244,0.007440030109137297,-0.22209717333316803,-0.29407334327697754,0.014912004582583904,-0.08799237012863159,0.15082263946533203,-0.09616047888994217,-0.10745841264724731,-0.09209795296192169,0.021295957267284393,-0.011057312600314617,0.11160796880722046,-0.21598908305168152,-0.09621985256671906,-0.05221208930015564,0.052351173013448715,0.25809329748153687,-0.08060348778963089,0.06392741948366165,-0.07477046549320221,-0.021440643817186356,0.05325886979699135,-0.2878243327140808,0.10724730044603348,-0.25178009271621704,-0.0440981388092041,0.015815550461411476,0.00840827263891697,-0.01051455456763506,0.042305268347263336,-0.1138380840420723,-0.12118179351091385,0.16261063516139984,-0.14567939937114716,-0.05565247684717178,-0.026005029678344727,-0.3325507640838623,0.33180952072143555,-0.023677760735154152,0.20927761495113373,0.20834282040596008,0.04641847312450409,-0.4536135196685791,0.07310998439788818,0.010789230465888977,0.05521206185221672,0.04571468383073807,0.006895164959132671,-0.4660613536834717,0.05674104392528534,0.1086578220129013,0.09069937467575073,-0.1261163055896759,0.38718846440315247,0.3563016355037689,-0.30390214920043945,-0.37696099281311035,-0.0640048086643219,0.44072240591049194,0.5344148874282837,0.4989219009876251,-0.07653547078371048,-0.11485472321510315,-0.052936505526304245,-0.8862655758857727,-0.70260089635849,-0.5388841032981873,0.2024298459291458,0.1491173505783081,0.016550930216908455,0.12910893559455872,0.1626477837562561,0.24643291532993317,0.1820431649684906,0.2769462764263153,0.21009591221809387,0.08080344647169113,-0.06841668486595154,0.01096290536224842,-0.08601727336645126,0.17355714738368988,0.25834065675735474,-0.11114846915006638,-0.1039750799536705,-0.07046514004468918,-0.096390001475811,-0.04482816532254219,0.05572371184825897,0.05206769332289696,0.13876700401306152,0.07123735547065735,-0.099942646920681,-0.33826425671577454,-0.2678670287132263,-0.2136574536561966,0.020192507654428482,-0.01138225942850113,0.2063109278678894,-0.1009504571557045,-0.32968729734420776,0.1583682894706726,0.04616371542215347,0.25140345096588135,0.2734930217266083,-0.07290265709161758,-0.2981780767440796,0.3526810109615326,0.9117149114608765,0.959441065788269,0.6079424023628235,0.0430409237742424,-0.3453223705291748,0.031988829374313354,0.06012623384594917,-0.10805986076593399,-0.026373129338026047,-0.206095889210701,-0.18813462555408478,-0.21190929412841797,-0.3765394985675812,-0.19809256494045258,-0.1415422558784485,-0.28901582956314087,-0.05498853325843811,-0.17939245700836182,0.026517856866121292,-0.11923347413539886,-0.06753518432378769,-0.27844417095184326,-0.16175144910812378,-0.2193247228860855,-0.08125787228345871,-0.19728617370128632,-0.3930225670337677,-0.5464006066322327,-0.30835363268852234,-0.3150855600833893,-0.14594097435474396,-0.2708689272403717,-0.1341789960861206,-0.33987030386924744,-0.39108261466026306,-0.018507737666368484,-0.04537628963589668,-0.11065065860748291,-0.10960842669010162,-0.04482352361083031,-0.2701241374015808,0.05491515249013901,0.3177690804004669,0.2880594730377197,0.3644033968448639,0.31583747267723083,-0.0876178964972496,-0.22825022041797638,-0.1433330923318863,-0.03233407437801361,-0.1654396802186966,-0.2502858638763428,-0.1437615007162094,-0.22194528579711914,-0.2915152311325073,-0.19581912457942963,-0.1635679006576538,-0.10586318373680115,-0.09862560033798218,0.06290829181671143,-0.09607524424791336,0.04731406271457672,-0.02672882191836834,-0.07917698472738266,-0.10896433889865875,-0.4884077310562134,-0.322431355714798,-0.2955961227416992,-0.42985162138938904,-0.5626082420349121,-0.2802598774433136,-0.37649914622306824,-0.29826897382736206,-0.3218872547149658,-0.1944299191236496,-0.12103934586048126,-0.21487636864185333,-0.07252316921949387,-0.03756846860051155,-0.21525838971138,-0.11677899211645126,0.010518382303416729,-0.06703044474124908,0.2679520547389984,0.42312949895858765,0.00822762306779623,-0.031904514878988266,-0.10879195481538773,-0.15323278307914734,0.004747131839394569,-0.17065443098545074,0.01927749253809452,-0.03583170473575592,-0.11423127353191376,0.062045514583587646,-0.3276865482330322,0.3723071813583374,0.12148770689964294,-0.3145403265953064,0.4542825222015381,-0.6425256133079529,0.6033419966697693,-0.7770385146141052,0.33862924575805664,-0.097162626683712,0.36890843510627747,-0.39387738704681396,-0.38560953736305237,0.1078740805387497,0.1391136348247528,0.17923253774642944,-0.19270962476730347,-0.23832450807094574,-0.02748502977192402,-0.06778892874717712,-0.08051162213087082,-0.034134745597839355,-0.04621049389243126,-0.07246259599924088,-0.14110329747200012,-0.16092871129512787,-0.12395503371953964,-0.1460942029953003,0.09083852171897888,-0.05423690378665924,-0.09914000332355499,-0.1722748577594757,0.2263871431350708,-0.04790421202778816,-0.03855092450976372,-0.14607395231723785,-0.10227924585342407,-0.07124816626310349,0.034914758056402206,-0.04089820012450218,0.01366132777184248,-0.21358364820480347,-0.1324414312839508,-0.1346118301153183,-0.11796113848686218,-0.099256731569767,0.31283578276634216,-0.08266403526067734,0.08447441458702087,0.013705388642847538,-0.08924082666635513,0.04849396273493767,0.011864520609378815,0.06944074481725693,-0.031442027539014816,0.10666307061910629,-0.020982451736927032,-0.048304732888936996,-0.04182751104235649,-0.055875129997730255,-0.10104900598526001,-0.07892799377441406,-0.13847507536411285,0.008848541416227818,0.0549827478826046,-0.042611997574567795,-0.038449663668870926,-0.06425368040800095,-0.0620129220187664,-0.06383456289768219,0.0033263673540204763,-0.012948652729392052,-0.023519663140177727,0.03781711682677269,-0.04228236526250839,-0.021685989573597908,0.0030299026984721422,-0.11762404441833496,0.08346593379974365,0.11632882803678513,-0.0792284682393074,0.04022129252552986,-0.3649672269821167,-0.04161640629172325,-0.07888513803482056,0.09022980183362961,-0.11733904480934143,-0.19533732533454895,-0.2832314372062683,0.1843981146812439,-0.38375821709632874,0.09282071888446808,-0.2720524072647095,-0.1465509682893753,0.033438291400671005,-0.03357819467782974,-0.18790867924690247,-0.12604378163814545,-0.23669905960559845,-0.10741106420755386,-0.03530362993478775,-0.11686933785676956,-0.27598074078559875,-0.01656273938715458,-0.31639817357063293,-0.03783265873789787,-0.21540839970111847,0.37120914459228516,0.09640631079673767,0.0778203085064888,0.026842577382922173,0.10760913789272308,0.08544743806123734,0.053497713059186935,-0.010313020087778568,-0.00424741068854928,0.06341300159692764,-0.008149305358529091,0.17349126935005188,-0.0627940371632576,-0.11843438446521759,-0.14277321100234985,-0.1658143401145935,0.1102827787399292,0.17931830883026123,0.023424392566084862,0.1917053759098053,0.1534097045660019,0.17524966597557068,0.08819244801998138,0.0469156950712204,0.07770511507987976,0.10240057855844498,0.08723505586385727,-0.10245919227600098,-0.1025891900062561,-0.15955884754657745,-0.4455544352531433,0.13414861261844635,0.08703330159187317,0.046936798840761185,0.145168274641037,0.16202175617218018,0.09807184338569641,0.05969735607504845,0.06553369015455246,0.09860926121473312,-0.0698259249329567,-0.046535369008779526,-0.062146931886672974,0.06331529468297958,-0.29978281259536743,0.10044436901807785,0.14140571653842926,0.1343027800321579,0.24302755296230316,-0.7510051131248474,0.570216178894043,-0.020429622381925583,0.03826186805963516,0.2226318120956421,-0.10752708464860916,-0.5242338180541992,-0.20931391417980194,0.1129666268825531,-0.1449916809797287,-0.03810153901576996,-0.42895662784576416,-0.23915919661521912,-0.4447075426578522,-0.25336384773254395,-0.20360617339611053,-0.15083596110343933,-0.2510468065738678,-0.11119840294122696,-0.0029303450137376785,0.21204987168312073,0.3266466557979584,0.5024234652519226,0.4064311385154724,-0.061376411467790604,-0.08312144875526428,-0.4034324884414673,-0.05590418353676796,0.135056272149086,0.0331416018307209,-0.035357516258955,0.011634627357125282,0.08616570383310318,-0.036161188036203384,-0.03731430694460869,-0.2573179602622986,-0.2782095670700073,-0.23843035101890564,-0.029265614226460457,-0.11103983223438263,-0.059171516448259354,0.11445455253124237,-0.21063043177127838,0.0013799960725009441,0.20919537544250488,0.32620903849601746,0.2396947741508484,-0.1904231756925583,0.07846877723932266,0.0008765448583289981,-0.01550257671624422,-0.22229017317295074,0.10490995645523071,0.04822329059243202,0.17175151407718658,-0.02548634633421898,-0.12962473928928375,0.1160488948225975,-0.03279183804988861,0.029310237616300583,-0.14266154170036316,-0.20246680080890656,0.05546438321471214,-0.45072248578071594,-0.0689811259508133,-0.16918060183525085,-0.04111093655228615,0.3318321704864502,-0.16839711368083954,-0.07716947793960571,0.2564280033111572,0.2721828818321228,-0.01588406041264534,0.3239476978778839,-0.11222219467163086,0.05576711520552635,-0.17231576144695282,0.38376179337501526,-0.043602243065834045,-0.09167160093784332,-0.15436623990535736,-0.07749799638986588,0.4628222584724426,-0.41851240396499634,-0.014493471942842007,0.3488572835922241,0.007452958729118109,0.14327408373355865,-0.0932268276810646,-0.3715178966522217,-0.06787076592445374,0.07970140874385834,-0.08831502497196198,-0.19395634531974792,-0.08990161120891571,0.24489478766918182,0.12359894812107086,-0.13443556427955627,-0.14548063278198242,0.07693810760974884,0.17599700391292572,-0.10397068411111832,-0.33986896276474,-0.3279944956302643,-0.22455833852291107,0.027158508077263832,0.04147087037563324,-0.11124496161937714,0.1539715975522995,-0.09968461096286774,0.524642825126648,0.137435182929039,-0.06369292736053467,0.08981900662183762,-0.07620279490947723,0.4307931363582611,0.04736802354454994,0.2242416888475418,-0.11018098145723343,0.04581631347537041,-0.09014647454023361,-0.23883993923664093,-0.14218275249004364,-0.058421541005373,-0.2336319237947464,-0.4166576564311981,-0.24591878056526184,0.012702727690339088,-0.25598248839378357,0.040803488343954086,-0.3050130009651184,0.07335038483142853,0.5525767207145691,-0.396034836769104,-0.20571354031562805,-0.31545302271842957,-0.07479961216449738,-0.0018070106161758304,-0.10091088712215424,-0.14730696380138397,0.15609648823738098,-0.020213019102811813,0.29558661580085754,0.16422335803508759,-0.2992633879184723,0.5733729600906372,-0.08946940302848816,0.1387360692024231,-0.4045129120349884,0.006444070488214493,0.05688168853521347,-0.7066368460655212,0.03183507174253464,-0.2047857940196991,0.6288169622421265,-0.6317474246025085,-0.4553978443145752,-0.22383305430412292,0.08003530651330948,-0.07420983165502548,-0.12495623528957367,0.15426857769489288,-0.10202072560787201,-0.15007978677749634,0.04740847647190094,-0.26358917355537415,-0.3622487783432007,-0.3442942798137665,-0.23341351747512817,-0.16383096575737,0.15025191009044647,0.06528022140264511,0.07099767029285431,0.0868002325296402,0.14726783335208893,-0.0369146466255188,-0.10278242826461792,-0.010557521134614944,-0.10617855936288834,-0.13044442236423492,0.03908199816942215,0.5376927852630615,-0.2761748433113098,-0.02291206270456314,-0.07783270627260208,0.057333819568157196,0.003992832265794277,-0.3937174379825592,0.5643936395645142,-0.004535970278084278,-0.14548568427562714,-0.10243052989244461,0.12735702097415924,0.1458614468574524,0.12286631017923355,-0.22820508480072021,-0.09689628332853317,-0.03706024959683418,0.2620355188846588,-0.49498188495635986,-0.11658921092748642,-0.5240142941474915,-0.48850181698799133,-0.5406840443611145,0.09570933878421783,0.1580016016960144,-0.216382697224617,-0.2328832447528839,0.4571719467639923,0.1539638638496399,-0.5108981132507324,-0.08869700133800507,-0.25243648886680603,0.03913157060742378,0.20413453876972198,0.410739928483963,-0.23615296185016632,0.30181142687797546,-0.10412375628948212,-0.09475438296794891,-0.2657352089881897,0.45770037174224854,-0.47645866870880127,0.031097980216145515,-0.4145749509334564,0.3019740581512451,0.18295574188232422,-0.1342695653438568,-0.22436243295669556,-0.4604438543319702,-0.03835804760456085,-0.05628832429647446,-0.2456142157316208,-0.24579045176506042,-0.32803261280059814,0.10002675652503967,-0.2096303403377533,-0.5677147507667542,-0.44681236147880554,-0.14417988061904907,-0.1953423172235489,-0.14619266986846924,0.09497237950563431,0.11225442588329315,0.4076026380062103,0.16103395819664001,-0.022778978571295738,-0.05445633456110954,-0.23795445263385773,-0.0024747259449213743,-0.03199022635817528,0.027330422773957253,0.023164525628089905,-0.050248272716999054,0.26255741715431213,-0.027546197175979614,-0.08770723640918732,-0.06489042937755585,-0.06188998371362686,-0.01715805009007454,0.32176482677459717,0.05100493133068085,0.04505166411399841,0.0072470782324671745,0.07107702642679214,-0.012311691418290138,0.07049774378538132,-0.07241049408912659,0.032502446323633194,0.11212682723999023,0.13711224496364594,-0.20621132850646973,0.2309647500514984,-0.07177423685789108,-0.21452696621418,-0.10060413181781769,-0.23797300457954407,-0.3983776271343231,0.0632561668753624,0.036746349185705185,0.02648654393851757,0.11550328135490417,0.24495109915733337,0.30793261528015137,-0.5066817402839661,0.09726402908563614,0.022585967555642128,-0.07966910302639008,-0.330030620098114,0.05472676828503609,0.18504607677459717,-0.0500800646841526,0.0716102346777916,-0.4119222164154053,-0.3249879479408264,0.018568210303783417,-0.2975468933582306,-0.010384824126958847,0.12199679762125015,0.8022720217704773,0.13644905388355255,0.1566932648420334,-0.30885595083236694,-0.18167002499103546,-0.05985792726278305,0.021124400198459625,-0.031091434881091118,0.21125829219818115,0.15278594195842743,-0.21151100099086761,-0.040575798600912094,-0.02685479074716568,-0.0005133773083798587,0.19181911647319794,0.2736465036869049,-0.05438514053821564,0.023461177945137024,0.13144908845424652,0.11511537432670593,0.0342523418366909,-0.13332536816596985,-0.05643468722701073,-0.014099161140620708,-0.07636043429374695,-0.1344192624092102,-0.24495328962802887,-0.3497501313686371,0.09489711374044418,0.173411026597023,0.03926156088709831,0.10719737410545349,0.006313710007816553,-0.22756990790367126,-0.16750018298625946,-0.16190855205059052,-0.12045993655920029,-0.20169392228126526,-0.20399561524391174,-0.25411200523376465,0.03287418931722641,-0.08710646629333496,-0.38666409254074097,-0.2608442008495331,-0.33783355355262756,1.0755031108856201,0.06007055193185806,-0.08241897821426392,-0.44766077399253845,-0.3246085047721863,-0.38026145100593567,-0.14352868497371674,-0.08752322196960449,-0.018183773383498192,0.26687148213386536,0.1289871484041214,0.050247061997652054,-0.3710753321647644,-0.19717957079410553,0.04094642028212547,0.21362927556037903,-0.1000460535287857,0.06459388136863708,0.17004378139972687,-0.680738091468811,0.807638943195343,-0.6176695227622986,0.29122111201286316,-0.5482268333435059,-0.06705901026725769,-0.06138747185468674,-0.5098134875297546,-0.04679429158568382,-0.045673612505197525,0.008858922868967056,-0.15872372686862946,-0.1528431624174118,-0.1747862994670868,-0.1990964710712433,-0.04640748351812363,-0.19919466972351074,0.022307803854346275,0.1197391003370285,0.02829725481569767,0.10864309221506119,0.06654255092144012,-0.06981582939624786,0.1835474818944931,-0.06408008933067322,0.12186750024557114,0.14722241461277008,0.37937676906585693,0.4935969412326813,-0.13258278369903564,-0.09247934818267822,-0.15065814554691315,-0.14134922623634338,-0.3697609603404999,0.0537111759185791,-0.17439334094524384,-0.019774826243519783,-0.10676327347755432,-0.11216282844543457,-0.055760301649570465,0.31807640194892883,-0.04812662675976753,-0.005389755126088858,0.23896542191505432,0.22042684257030487,0.018174799159169197,-0.26912280917167664,0.25139644742012024,0.272865891456604,0.21687428653240204,0.13696274161338806,-0.16977457702159882,-0.35256484150886536,0.14693202078342438,-0.014740364626049995,0.008988928981125355,-0.12273474782705307,-0.03164409473538399,0.007905220612883568,-0.700986385345459,0.04382297396659851,-0.04479675367474556,-0.0071704331785440445,-0.155446395277977,-0.1921812891960144,-0.3037913143634796,0.06541337817907333,0.15377633273601532,0.4673694968223572,-0.05601586028933525,0.3180835247039795,0.40158137679100037,-0.04145384579896927,0.3981676399707794,-1.0193055868148804,0.1568945199251175,0.27214089035987854,0.7205083966255188,0.7560970187187195,-0.4408837854862213,0.16766805946826935,-0.11195425689220428,-0.059571653604507446,0.24293489754199982,-0.15358437597751617,0.26488906145095825,-0.21927453577518463,0.05115000158548355,0.3655308783054352,0.16713957488536835,0.24521209299564362,-0.3576775789260864,0.03592553362250328,0.3109499216079712,-0.17663361132144928,0.033604446798563004,0.07323669642210007,-0.1516326367855072,0.2134064882993698,0.08743451535701752,-0.22269374132156372,-0.1677166223526001,0.09926653653383255,-0.17091554403305054,0.15753869712352753,-0.028098823502659798,-0.26666751503944397,-0.1338832974433899,-0.228370800614357,0.2393869012594223,-0.05760554224252701,-0.30260080099105835,0.14198671281337738,0.06555184721946716,-0.09043236821889877,0.12519879639148712,-0.17902898788452148,-0.0712619498372078,0.16684994101524353,0.20974333584308624,-0.09411796182394028,-0.019838042557239532,-0.11537757515907288,-0.1449386328458786,-0.015775959938764572,0.18071791529655457,0.13020005822181702,0.07887733727693558,0.19441232085227966,-0.20507334172725677,0.06993961334228516,-0.49994686245918274,-0.04597567766904831,-0.06237419322133064,0.0027706504333764315,-0.09334081411361694,-0.11842945963144302,-0.4072376787662506,-0.07029712945222855,0.20655407011508942,0.14899010956287384,0.0025078237522393465,0.5566728115081787,-0.10099407285451889,-1.5451902366146252e-38,-1.25434835813662e-38,1.9671687082407682e-38,-9.907488428438608e-39,2.6021439859248977e-39,-7.684460136842932e-39,1.063549521052003e-38,6.965623451912052e-39,1.5355717239554996e-38,-1.186414109235385e-38,7.321081024268078e-39,5.74260518471096e-39,-0.0031531676650047302,-0.009865869767963886,-0.020153220742940903,-0.031002018600702286,-0.03919249773025513,-0.04251860827207565,-0.04087906703352928,-0.03629354014992714,-0.0318203903734684,-0.028508298099040985,-0.025921424850821495,-0.022626958787441254,-0.017729558050632477,-0.011775967665016651,-0.006122652906924486,-0.0022077085450291634,0.006222842261195183,0.01840408332645893,0.03676048293709755,0.056522078812122345,0.07162318378686905,0.077384814620018,0.07166565209627151,0.05754201114177704,0.03967193886637688,0.023100072517991066,0.011020001024007797,0.003938303329050541,0.0009101431351155043,0.00016989042342174798,0.00017684363410808146,0.0002523312286939472,-0.0033831025939434767,-0.009617282077670097,-0.018645547330379486,-0.027552790939807892,-0.033100150525569916,-0.03261326998472214,-0.025233084335923195,-0.012635189108550549,0.0013260780833661556,0.012779063545167446,0.018965011462569237,0.019581640139222145,0.015834040939807892,0.010236766189336777,0.00504159415140748,0.0016624293057247996,0.08725818246603012,0.008629673160612583],"sample_rate":48000.0}},{"max_value":1.0,"model":{"version":"0.7.0","metadata":{"date":{"year":2026,"month":6,"day":1,"hour":23,"minute":18,"second":23},"loudness":-17.842466354370117,"gain":0.7216303999653914},"architecture":"WaveNet","config":{"layers":[{"input_size":1,"condition_size":1,"head":{"out_channels":1,"kernel_size":16,"bias":true},"channels":8,"kernel_sizes":[6,6,6,6,6,6,6,6,6,6,6,6,6,6,15,15,6,6,6,6,6,6,6],"dilations":[1,3,7,17,41,101,239,1,3,7,17,41,101,239,1,13,1,3,7,17,41,101,239],"activation":[{"type":"LeakyReLU","negative_slope":0.01},{"type":"LeakyReLU","negative_slope":0.01},{"type":"LeakyReLU","negative_slope":0.01},{"type":"LeakyReLU","negative_slope":0.01},{"type":"LeakyReLU","negative_slope":0.01},{"type":"LeakyReLU","negative_slope":0.01},{"type":"LeakyReLU","negative_slope":0.01},{"type":"LeakyReLU","negative_slope":0.01},{"type":"LeakyReLU","negative_slope":0.01},{"type":"LeakyReLU","negative_slope":0.01},{"type":"LeakyReLU","negative_slope":0.01},{"type":"LeakyReLU","negative_slope":0.01},{"type":"LeakyReLU","negative_slope":0.01},{"type":"LeakyReLU","negative_slope":0.01},{"type":"LeakyReLU","negative_slope":0.01},{"type":"LeakyReLU","negative_slope":0.01},{"type":"LeakyReLU","negative_slope":0.01},{"type":"LeakyReLU","negative_slope":0.01},{"type":"LeakyReLU","negative_slope":0.01},{"type":"LeakyReLU","negative_slope":0.01},{"type":"LeakyReLU","negative_slope":0.01},{"type":"LeakyReLU","negative_slope":0.01},{"type":"LeakyReLU","negative_slope":0.01}],"bottleneck":8,"head1x1":{"active":false,"out_channels":1,"groups":1},"layer1x1":{"active":true,"groups":1},"groups_input":1,"groups_input_mixin":1,"conv_pre_film":{"active":false,"shift":true,"groups":1},"conv_post_film":{"active":false,"shift":true,"groups":1},"input_mixin_pre_film":{"active":false,"shift":true,"groups":1},"input_mixin_post_film":{"active":false,"shift":true,"groups":1},"activation_pre_film":{"active":false,"shift":true,"groups":1},"activation_post_film":{"active":false,"shift":true,"groups":1},"layer1x1_post_film":{"active":false,"shift":true,"groups":1},"head1x1_post_film":{"active":false,"shift":true,"groups":1},"gating_mode":["none","none","none","none","none","none","none","none","none","none","none","none","none","none","none","none","none","none","none","none","none","none","none"],"secondary_activation":[null,null,null,null,null,null,null,null,null,null,null,null,null,null,null,null,null,null,null,null,null,null,null],"slimmable":null}],"head":null,"head_scale":0.008629673480948098},"weights":[1.2764294147491455,0.8057801127433777,-0.8104735016822815,-1.5608434677124023,-1.6275458335876465,-1.8900047540664673,1.4088166952133179,1.5024957656860352,-0.10151573270559311,0.03210613131523132,0.010057379491627216,0.05590090528130531,-0.2677924633026123,-0.3241101801395416,-0.08530183136463165,0.010899664834141731,0.024868018925189972,0.040029752999544144,-0.22362731397151947,-0.2546333372592926,0.09446742385625839,-0.013324571773409843,-0.004825570620596409,-0.046097271144390106,0.26598215103149414,0.26954102516174316,0.15219661593437195,0.01444700825959444,0.03887306898832321,-0.10234759002923965,0.3928326964378357,0.42786553502082825,0.09151171892881393,0.0378321073949337,0.0512787327170372,-0.11327016353607178,0.32701271772384644,0.4396074116230011,0.18856531381607056,0.012763114646077156,0.007306442596018314,-0.031350284814834595,0.43488267064094543,0.37751802802085876,-0.1413281410932541,0.05994478985667229,0.04694260284304619,0.04116736352443695,-0.35183992981910706,-0.3179396390914917,-0.16019771993160248,0.046270933002233505,0.048464611172676086,0.013232787139713764,-0.40068477392196655,-0.3652184307575226,-0.0978659838438034,-0.15804137289524078,-0.08769174665212631,-0.1685263216495514,0.23104453086853027,0.37673163414001465,-0.13744986057281494,-0.13420112431049347,-0.06690774112939835,-0.14155925810337067,0.23156966269016266,0.2600892186164856,0.09681864827871323,0.17205482721328735,0.07491271197795868,0.09750960022211075,-0.2679717242717743,-0.3316052258014679,0.10562507063150406,0.31473180651664734,0.14941971004009247,0.24578428268432617,-0.3294057250022888,-0.4765793979167938,0.1815890073776245,0.32915276288986206,0.13694408535957336,0.12515728175640106,-0.3171212375164032,-0.41656097769737244,0.23777201771736145,0.2939150333404541,0.02973230928182602,0.12200520187616348,-0.2916865646839142,-0.39246103167533875,-0.09283524751663208,-0.15717799961566925,-0.005106491968035698,-0.23233257234096527,0.20959164202213287,0.4401106536388397,-0.05429648607969284,-0.29630962014198303,-0.13707640767097473,-0.12023059278726578,0.3720294237136841,0.4005165696144104,0.046748995780944824,0.18846231698989868,0.09621444344520569,0.2186908721923828,-0.3102690279483795,-0.32533442974090576,0.0708041563630104,0.1392725259065628,0.08453403413295746,0.1861170083284378,-0.24963992834091187,-0.2405283898115158,-0.07381715625524521,-0.18364055454730988,-0.09501850605010986,-0.16367781162261963,0.2860286831855774,0.2525251805782318,-0.09796178340911865,-0.20702522993087769,-0.11859507858753204,-0.2850663363933563,0.3445678949356079,0.41257473826408386,-0.1436847746372223,-0.17260131239891052,-0.18228206038475037,-0.1738215982913971,0.35766902565956116,0.363875150680542,-0.10223981738090515,-0.24146990478038788,-0.09520702064037323,-0.2858119010925293,0.43525853753089905,0.3745683431625366,0.13122966885566711,0.24478287994861603,0.07000385969877243,0.2621362507343292,-0.2970294952392578,-0.33344802260398865,0.12384499609470367,0.2047789990901947,0.1894795000553131,0.2780829966068268,-0.3936384320259094,-0.34065765142440796,0.04264037683606148,0.1430126279592514,0.0597863532602787,0.16532737016677856,-0.20270395278930664,-0.22588954865932465,0.03973239287734032,0.1042870432138443,0.045931559056043625,0.1263391524553299,-0.15543986856937408,-0.182325080037117,-0.12609434127807617,-0.1558804214000702,-0.024086223915219307,-0.09851828962564468,0.17844128608703613,0.2015562653541565,-0.07953085750341415,-0.1672298163175583,-0.030184291303157806,-0.2064494639635086,0.24685563147068024,0.3395330011844635,-0.1488581746816635,-0.2164333462715149,-0.11668209731578827,-0.12509067356586456,0.31147176027297974,0.35102683305740356,-0.253106027841568,-0.2723921537399292,-0.11220357567071915,-0.21917077898979187,0.30999746918678284,0.36216798424720764,0.18264362215995789,0.15449710190296173,0.05437326803803444,0.21138343214988708,-0.19794532656669617,-0.3912692368030548,0.16107994318008423,0.2424355298280716,0.0638592541217804,0.20069299638271332,-0.22653275728225708,-0.4050627052783966,-0.05830749124288559,-0.24670575559139252,-0.07818270474672318,-0.14135734736919403,0.16752982139587402,0.29509830474853516,-0.09723237156867981,-0.1710791438817978,-0.05009479820728302,-0.12319643050432205,0.16752883791923523,0.2463119477033615,0.04935604706406593,0.24047474563121796,0.08049575984477997,0.1497166007757187,-0.1573750078678131,-0.3062746822834015,0.1128506064414978,0.3270215094089508,0.16256791353225708,0.0820961594581604,-0.28662142157554626,-0.38488638401031494,0.14905573427677155,0.19706618785858154,0.12857483327388763,0.07078737020492554,-0.2400243878364563,-0.321132093667984,0.10444126278162003,0.23424240946769714,0.10967894643545151,0.23690538108348846,-0.21190792322158813,-0.38761600852012634,-0.119845911860466,-0.31687143445014954,-0.11451683938503265,-0.060921844094991684,0.16415773332118988,0.40256544947624207,-0.14878810942173004,-0.20747998356819153,-0.039337750524282455,-0.0901763066649437,0.1728505641222,0.3576418459415436,0.015034684911370277,0.11550696194171906,0.05050802230834961,0.13209962844848633,-0.1423492133617401,-0.17462843656539917,-0.001867176964879036,0.05452596768736839,0.04896699637174606,0.0933370366692543,-0.09657995402812958,-0.130327507853508,0.0023368895053863525,-0.08217474818229675,-0.03274703398346901,-0.05765463039278984,0.14293323457241058,0.14390167593955994,-0.04254861921072006,-0.1489928960800171,-0.12277655303478241,-0.10465168207883835,0.15609049797058105,0.22089500725269318,-0.06600401550531387,-0.09487076848745346,-0.08204717934131622,-0.1471765637397766,0.20275487005710602,0.2509072422981262,-0.053671713918447495,-0.08989502489566803,-0.10165046900510788,-0.09743104130029678,0.12333638221025467,0.26534461975097656,0.09707392752170563,0.0773569718003273,0.0009191842982545495,0.11099687963724136,-0.17197127640247345,-0.18770790100097656,0.045071959495544434,0.1984681934118271,0.043588604778051376,0.14881807565689087,-0.12650026381015778,-0.20029771327972412,0.041760679334402084,0.0392690934240818,-0.0230079498142004,0.036278463900089264,0.20388498902320862,0.30785566568374634,0.042951665818691254,0.03922784700989723,-0.025495296344161034,0.03760049492120743,0.13240092992782593,0.21232418715953827,-0.03107592463493347,-0.05405585840344429,0.00988710392266512,-0.06687923520803452,-0.15364350378513336,-0.22196751832962036,-0.0987427607178688,-0.022886184975504875,-0.029337774962186813,-0.0576946847140789,-0.20901693403720856,-0.37178462743759155,-0.024744026362895966,-0.04262268543243408,-0.02124723419547081,-0.1386028230190277,-0.2988607883453369,-0.3445865213871002,-0.054173409938812256,-0.08642800897359848,0.01416471041738987,-0.08341801911592484,-0.26253044605255127,-0.3551660180091858,0.11409275233745575,0.06636407971382141,0.002894623903557658,0.10592890530824661,0.19703294336795807,0.3129228353500366,0.03199832886457443,0.04211902990937233,-0.009229055605828762,0.08944391459226608,0.19934575259685516,0.29398107528686523,0.09854700416326523,0.19329017400741577,0.0038227662444114685,0.11275796592235565,-0.1775936484336853,-0.21459242701530457,0.12372102588415146,0.10536064207553864,0.06362155079841614,0.07179760187864304,-0.19969193637371063,-0.1786283403635025,-0.07081937789916992,-0.20004892349243164,0.03537660464644432,-0.07912042737007141,0.17679715156555176,0.13802215456962585,-0.23420165479183197,-0.28144288063049316,-0.016024768352508545,-0.002838193206116557,0.2640376687049866,0.289570689201355,-0.23697853088378906,-0.2777402400970459,0.062748983502388,-0.052200622856616974,0.2976115942001343,0.2733164131641388,-0.14082562923431396,-0.25404098629951477,0.06017674133181572,-0.08967053890228271,0.15637165307998657,0.2719637453556061,0.08032853156328201,0.20555299520492554,0.12009470909833908,0.020103150978684425,-0.273046612739563,-0.22968631982803345,0.13253159821033478,0.19187426567077637,0.017330145463347435,0.15134334564208984,-0.18901625275611877,-0.22973082959651947,0.10089865326881409,0.35528135299682617,0.2803512215614319,0.2537729740142822,0.09206635504961014,0.2626306116580963,-0.0936800166964531,0.040172044187784195,-0.6113628149032593,0.09759456664323807,-0.42795419692993164,-0.6909077167510986,0.7151368856430054,-0.3741447329521179,0.4990624487400055,-0.22953402996063232,-0.35897156596183777,0.2895510494709015,-0.31479698419570923,-0.18476387858390808,0.3603070378303528,-0.10677573084831238,0.7469282746315002,-0.4309641420841217,-0.4038746953010559,0.019786527380347252,-0.1503731608390808,-0.09547685086727142,0.23989121615886688,-0.016265496611595154,0.30780667066574097,0.1600511074066162,-0.060110948979854584,0.4204363524913788,-0.56297367811203,-0.4386546313762665,0.3070022761821747,-0.12449879944324493,0.07962033152580261,-0.634705662727356,0.01297609880566597,-0.2210577130317688,0.05954964458942413,-0.16364845633506775,-0.604026198387146,-0.15138182044029236,0.020862173289060593,0.357716828584671,0.28099286556243896,-0.06170198321342468,0.010267226956784725,-0.10319813340902328,-0.13853570818901062,0.10813921689987183,-0.02585509791970253,0.21131275594234467,0.3041350841522217,-0.25643569231033325,0.19275520741939545,0.30012667179107666,-0.7836238145828247,0.2778880000114441,-0.1823381632566452,0.6145278811454773,-0.40335163474082947,0.042468562722206116,0.13409198820590973,0.1584610641002655,0.05186162143945694,0.08471986651420593,0.3290342688560486,-0.15372209250926971,-0.09456539154052734,0.1634979546070099,-0.2473205178976059,-0.16442053020000458,0.027041617780923843,0.009434978477656841,0.36400946974754333,-0.4277329742908478,0.20791666209697723,-0.18565747141838074,-0.08245919644832611,-0.052878692746162415,0.17754510045051575,-0.01777242124080658,0.10107090324163437,0.3761853873729706,0.06109454482793808,0.11601835489273071,0.05570588260889053,0.050677187740802765,0.0900820791721344,-0.30634593963623047,-0.05168319493532181,0.04430047422647476,-0.04949314892292023,0.18280592560768127,-0.07739697396755219,-0.21485498547554016,-0.13836249709129333,-0.14921647310256958,-0.0535886213183403,-0.35754138231277466,-0.030485335737466812,-0.020365707576274872,-0.08713920414447784,-0.07728230953216553,-0.07069120556116104,-0.12273605912923813,-0.05949912592768669,0.21459592878818512,-0.05967516824603081,-0.06770249456167221,-0.05032900720834732,-0.0662693902850151,0.0867513120174408,0.2345307171344757,-0.013176844455301762,-0.09275133162736893,-0.15576426684856415,-0.2054675668478012,0.14294055104255676,0.45735257863998413,0.2117842733860016,0.12244991213083267,0.10552097856998444,0.2340843677520752,-0.02426092140376568,-0.31318795680999756,0.05819680541753769,0.09518098086118698,0.047242533415555954,0.10917319357395172,0.042011361569166183,0.07043511420488358,-0.07231751829385757,0.06602206826210022,-0.14269864559173584,-0.04427111893892288,0.03367564082145691,0.027143994346261024,0.021120093762874603,0.06778884679079056,-0.023310784250497818,-0.037263039499521255,0.009629490785300732,0.03134085610508919,0.001053050858899951,0.1562412679195404,-0.17020896077156067,-0.04293345287442207,0.004711356479674578,0.021751711145043373,-0.05211424455046654,-0.0900382474064827,0.013976284302771091,-0.017610393464565277,-0.006149965804070234,0.018001917749643326,-0.04200340062379837,-0.07430528849363327,0.018704593181610107,0.05277634784579277,0.017914416268467903,0.006285068113356829,-0.06700903177261353,-0.2002047449350357,0.11885317414999008,0.06247352063655853,-0.013378034345805645,-0.020238017663359642,-0.005217589903622866,0.010938659310340881,0.004192171152681112,-0.03397336229681969,-0.0066197882406413555,-0.015639405697584152,-0.0741841048002243,0.01277197990566492,-0.10657089203596115,-0.04034510999917984,0.018206177279353142,0.018537612631917,-0.0185841154307127,-0.09703673422336578,-0.09640076756477356,-0.04920663312077522,0.007044271565973759,0.03999939560890198,0.03234870731830597,-0.0209365114569664,-0.061958152800798416,-0.03505280241370201,0.07901354879140854,0.08966714888811111,-0.031030109152197838,-0.036396414041519165,0.03722064942121506,0.15664160251617432,0.05118292197585106,0.03377237543463707,0.015865383669734,0.013153367675840855,0.031115341931581497,0.009493864141404629,-0.04501347616314888,0.05148807540535927,-0.03708125278353691,-0.014734393917024136,0.039565134793519974,0.009791570715606213,-0.09562096744775772,-0.09842090308666229,0.017617378383874893,0.04188951104879379,0.056223172694444656,-0.04197010025382042,-0.12602806091308594,-0.07618747651576996,0.03520229831337929,-0.010867186821997166,-0.08842574805021286,-0.08590415120124817,0.056426919996738434,0.0719493106007576,-0.010491530410945415,-0.0500454381108284,-0.041276805102825165,-0.0340888537466526,-0.0292672012001276,0.0285456832498312,-0.07731126248836517,-0.12149737030267715,-0.10754511505365372,-0.0238035898655653,0.12521536648273468,0.1385875791311264,-0.06269440054893494,-0.07203871011734009,-0.036092359572649,0.003622822230681777,0.10257761925458908,0.13859562575817108,0.040899138897657394,-0.03032791055738926,-0.08774717897176743,0.20576131343841553,0.13307856023311615,0.1495683342218399,-0.02106984332203865,0.025830768048763275,-0.04739666357636452,-0.017619570717215538,-0.06753652542829514,0.005942337214946747,0.008838116191327572,0.050880640745162964,0.02317466028034687,0.03702324628829956,-0.08633089065551758,-0.12089092284440994,0.02074805274605751,0.1226343959569931,0.10603750497102737,-0.028245847672224045,-0.1449776440858841,-0.1525871753692627,-0.0879865437746048,-0.06487182527780533,-0.055639032274484634,-0.10568675398826599,0.040280479937791824,0.06834059208631516,-0.04202329367399216,-0.06911879777908325,-0.09778536111116409,-0.03744049370288849,0.06629619747400284,0.10934998095035553,-0.03647426888346672,-0.048935458064079285,-0.00801508966833353,-0.06050809100270271,-0.0496988408267498,0.07228821516036987,0.025728479027748108,0.00936278235167265,0.04820451885461807,0.007148498669266701,0.009060495533049107,0.09047681093215942,0.06585080921649933,-0.010340806096792221,0.05993648245930672,0.03657720610499382,0.015329146757721901,0.05669068545103073,-0.009166466072201729,-0.0019567094277590513,0.020302902907133102,0.10927405953407288,0.06500693410634995,-0.1305481642484665,-0.019847065210342407,-0.007643561344593763,-0.03316846489906311,0.0012475319672375917,0.0006993725546635687,-0.07756900787353516,-0.024188661947846413,0.011902302503585815,-0.03391982987523079,0.03535301983356476,0.030524680390954018,-0.121117003262043,-0.054772987961769104,-0.04186469689011574,-0.027492133900523186,-0.06261119246482849,-0.04835448041558266,0.03598684072494507,-0.09014634788036346,-0.09367216378450394,-0.06865032017230988,-0.07742863893508911,-0.07219458371400833,-0.012601559981703758,-0.04685748741030693,-0.04187557473778725,-0.09634878486394882,-0.12419874221086502,0.032992538064718246,0.20139099657535553,0.007727723103016615,-0.026334278285503387,0.011850759387016296,-0.03352046385407448,0.058393120765686035,0.15824592113494873,0.032948754727840424,0.038531843572854996,-0.07214488834142685,-0.020931851118803024,0.015751199796795845,0.09221089631319046,-0.06061401590704918,-0.008343861438333988,-0.06519211828708649,0.07645370066165924,0.006090851034969091,-0.1228725016117096,0.017020173370838165,0.025693379342556,0.02153312787413597,0.05384628102183342,-0.010813450440764427,-0.11605562269687653,-0.016010019928216934,-0.0018333771731704473,0.0544222928583622,0.11218053847551346,-0.041471607983112335,-0.19938790798187256,-0.05401352420449257,-0.06232156604528427,-0.02171442285180092,-0.09554140269756317,-0.03520824760198593,0.07756483554840088,-0.0419013537466526,-0.0498553067445755,-0.0747859925031662,-0.11844242364168167,0.0022621939424425364,0.0832483246922493,0.19970767199993134,0.12607890367507935,0.26565003395080566,0.10061942785978317,-0.0954660177230835,-0.22532087564468384,0.04189297929406166,0.1334957778453827,0.1408187597990036,0.060786180198192596,-0.0656198188662529,-0.2030867487192154,-0.18492385745048523,-0.02997000329196453,-0.03032860718667507,-0.14277859032154083,-0.24989521503448486,0.1466970145702362,0.05597551912069321,-0.07680796831846237,-0.07625587284564972,-0.011351888068020344,0.1409439593553543,0.3028836250305176,-0.115916907787323,-0.05964251607656479,-0.07290682196617126,-0.055822305381298065,0.1544395387172699,0.2609907388687134,0.0015470507787540555,-0.10779519379138947,-0.1482071578502655,0.024429017677903175,0.224210724234581,0.4918232262134552,0.11457838863134384,0.16284866631031036,0.10116857290267944,0.04722656309604645,-0.08909930288791656,-0.2277679741382599,0.07591213285923004,0.09656200557947159,0.08992715924978256,0.1256677210330963,-0.0875229686498642,0.09407595545053482,0.037542447447776794,-0.06710488349199295,-0.037522949278354645,-0.09005562961101532,0.0077363429591059685,0.04775318503379822,-0.1285245567560196,-0.14157624542713165,-0.211419478058815,-0.3187306821346283,-0.2049824595451355,-0.09556479752063751,-0.1282922774553299,-0.1260627657175064,-0.0020883905235677958,-0.0031003847252577543,-0.17077089846134186,-0.12890566885471344,-0.1399698108434677,-0.04735216125845909,0.0031045745126903057,-0.049133043736219406,-0.07728972285985947,-0.04244563356041908,0.10076288878917694,0.10589008778333664,0.06865355372428894,0.18734043836593628,-0.0212565828114748,-0.15388721227645874,-0.09498624503612518,0.08935340493917465,-0.024676233530044556,0.07232791185379028,-0.19316035509109497,-0.3420259356498718,-0.02281823381781578,0.0006702099344693124,-0.03770017251372337,-0.07462887465953827,0.12663696706295013,0.19943098723888397,0.05269724130630493,-0.041801560670137405,0.04784350469708443,0.0834273248910904,-0.04544324800372124,0.009319586679339409,0.12080473452806473,0.006226025987416506,-0.023082630708813667,-0.06736268848180771,-0.17080901563167572,-0.02956286258995533,0.14898909628391266,0.06328123062849045,-0.5218121409416199,0.00946764275431633,0.014968030154705048,0.0279376283288002,0.028567805886268616,0.02327660657465458,-0.7595208287239075,0.3777652680873871,-0.2497425675392151,-0.15943314135074615,0.10510169714689255,0.08445387333631516,-0.2150663584470749,-0.046927161514759064,0.04952824488282204,0.20085954666137695,0.021387193351984024,0.2600925862789154,-0.08677942305803299,-0.048708535730838776,-0.23978854715824127,-0.16810831427574158,0.0789409726858139,0.2379566729068756,0.05739026144146919,0.040960643440485,0.09985464811325073,0.11178981512784958,-0.0819515511393547,0.06908044219017029,-0.3825778663158417,0.3201483190059662,0.12079750746488571,-0.17763002216815948,-0.11180514842271805,-0.28343266248703003,0.03701518103480339,-0.16416685283184052,0.16471520066261292,0.18985961377620697,-0.056751128286123276,-0.1128825694322586,0.1081768274307251,-0.19853122532367706,0.0427754782140255,-0.0959244892001152,0.1706703007221222,-0.19488684833049774,-0.09764401614665985,-0.11436227709054947,-0.10015267878770828,-0.2510482370853424,0.1790088564157486,-0.16535624861717224,0.3056279420852661,0.043614234775304794,0.032028887420892715,-0.11299571394920349,-0.04881959781050682,0.02613409236073494,-0.18457816541194916,-0.02261759527027607,0.01723707653582096,-0.14989276230335236,-0.3488313853740692,-0.016479382291436195,0.2964628338813782,-0.015486241318285465,-0.1479036509990692,0.22168081998825073,-0.2571204900741577,0.06397204101085663,-0.07859130948781967,-0.028146540746092796,0.12025359272956848,-0.11827301234006882,0.04821474105119705,-0.06942486017942429,-0.10693880170583725,-0.02182239666581154,-0.03756014257669449,0.08934555947780609,0.15513038635253906,0.09916890412569046,-0.0846685916185379,-0.33696451783180237,0.0015405177837237716,0.15854670107364655,0.08498064428567886,0.014300694689154625,-0.09889671951532364,-0.21695466339588165,-0.052326545119285583,-0.05817141383886337,-0.06031106039881706,0.07969257980585098,0.1289447396993637,-0.011541628278791904,-0.09735995531082153,-0.050844669342041016,-0.061711233109235764,-0.000725773221347481,0.0818302258849144,-0.002544559072703123,0.0040278309024870396,-0.09979730099439621,-0.05270211026072502,0.03942258656024933,-0.09338542073965073,0.18544749915599823,0.0457608662545681,-0.04128510132431984,0.03535313159227371,0.03135930001735687,-0.05408521369099617,0.342087984085083,0.11505560576915741,0.07017973065376282,0.22534936666488647,0.08012073487043381,-0.05053897574543953,-0.1355385184288025,0.04444431513547897,-0.05702856928110123,0.11897768825292587,0.09383460134267807,0.07708902657032013,-0.13385921716690063,-0.05387904867529869,-0.05859270319342613,0.03924793750047684,-0.03460489213466644,0.13736501336097717,0.032728035002946854,-0.041794005781412125,-0.025293836370110512,-0.013119790703058243,-0.005745038855820894,0.07722780108451843,0.03883625566959381,0.041734728962183,-0.03545023128390312,-0.026705950498580933,-0.059594813734292984,0.11473296582698822,0.008274403400719166,0.06170021742582321,0.04800107702612877,0.07500705122947693,0.03738991171121597,-0.07127940654754639,0.07079090178012848,0.02535032108426094,-0.029861772432923317,0.03997880592942238,-0.06169697642326355,-0.08667798340320587,-0.030298756435513496,0.01067563146352768,0.05912291631102562,0.05816942825913429,0.030191460624337196,-0.15542107820510864,0.037386730313301086,-0.029643554240465164,-0.004334728233516216,-0.03522264212369919,0.01535577792674303,0.024231215938925743,0.004511508159339428,0.031989503651857376,0.018886197358369827,0.08408883959054947,-0.030867446213960648,0.10855664312839508,0.12011980265378952,0.09350799024105072,0.038608141243457794,-0.048760998994112015,0.014177474193274975,0.1022874191403389,0.19099648296833038,-0.034029655158519745,0.030763566493988037,-0.0696515440940857,-0.031830813735723495,-0.16999462246894836,0.012854496948421001,-0.13740506768226624,0.054048143327236176,0.05483507737517357,0.13816028833389282,0.16598227620124817,0.1269685924053192,-0.06166938319802284,-0.0645790845155716,-0.08851797878742218,0.008085908368229866,-0.0829073041677475,0.1056104525923729,0.0478542260825634,0.06556826829910278,0.18501688539981842,0.20299386978149414,0.08293753862380981,0.02057710289955139,-0.059470221400260925,0.045347660779953,0.06189017742872238,0.16390502452850342,0.03524308651685715,-0.1881846934556961,-0.08628160506486893,-0.06930704414844513,-0.08392021805047989,-0.1676454395055771,-0.17157113552093506,-0.027059335261583328,0.03690323233604431,-0.006269047502428293,0.11985506862401962,0.06822958588600159,0.05215371027588844,-0.00021901330910623074,-0.11429605633020401,-0.0397941879928112,0.0014732728013768792,-0.0590914785861969,0.017196370288729668,0.15029239654541016,-0.07836475223302841,0.006671374663710594,-0.0010928870178759098,-0.02682410180568695,-0.008275237865746021,0.06118112802505493,0.09734158962965012,0.029849659651517868,0.04293537512421608,0.03822820633649826,0.005774501711130142,0.22793126106262207,0.05721432343125343,-0.07526088505983353,0.02687709406018257,0.07056421041488647,0.05643300712108612,-0.1957070678472519,-0.023779043927788734,-0.06654796004295349,-0.03302968293428421,-0.021316127851605415,0.03278234973549843,-0.1914411187171936,-0.0006278707296587527,-0.020964665338397026,-0.010707219131290913,0.01096292957663536,0.031856171786785126,-0.2476714700460434,-0.0998692736029625,-0.045615483075380325,-0.016228513792157173,-0.04754117503762245,-0.0024084460455924273,0.03908802196383476,0.011529072187840939,-0.10213590413331985,-0.01935187168419361,0.046805284917354584,0.07642834633588791,0.174998939037323,-0.07558191567659378,-0.10073201358318329,0.018016915768384933,-0.03404812514781952,0.034614354372024536,0.3196719288825989,-0.1969137042760849,-0.12682808935642242,-0.10216616839170456,-0.19945864379405975,0.05598513409495354,0.12837405502796173,0.11389853060245514,-0.04741517826914787,-0.14599908888339996,-0.19536642730236053,-0.1001710519194603,-0.12449586391448975,-0.07554104179143906,-0.10500965267419815,-0.02156602032482624,0.07966778427362442,-0.01554590743035078,-0.07396819442510605,0.06330068409442902,0.14595399796962738,0.2654038667678833,0.06332995742559433,0.07593614608049393,-0.1376158446073532,0.162835955619812,0.15543828904628754,0.07982151955366135,0.22750669717788696,0.18795835971832275,-0.2237251251935959,-0.050946835428476334,-0.020857175812125206,-0.0074548316188156605,0.03863642364740372,0.21159768104553223,0.3435094952583313,0.04133551940321922,-0.054121363908052444,-0.11499708890914917,0.0541183166205883,-0.014035724103450775,0.3656577467918396,0.08129045367240906,0.07282726466655731,-0.02604757808148861,-0.016376638785004616,0.0028445981442928314,-0.004734947811812162,-0.14075282216072083,-0.04403645545244217,-0.054787229746580124,-0.011246389709413052,0.04494442790746689,0.11880630254745483,-0.004866731818765402,-0.024877291172742844,-0.036944225430488586,-0.13842014968395233,-0.2143705040216446,-0.1308928281068802,-0.017015928402543068,0.029739296063780785,0.08764571696519852,-0.02158259227871895,0.003689683973789215,-0.07117865979671478,0.043565813452005386,0.06448007375001907,0.012299997732043266,0.012101134285330772,-0.07113920152187347,-0.047430142760276794,-0.03188544884324074,0.013179238885641098,-0.05299289897084236,0.014874789863824844,-0.046698153018951416,0.04116860032081604,-0.05449677258729935,-0.04668084904551506,0.03138537332415581,0.10298551619052887,0.23265814781188965,0.22952325642108917,-0.07596605271100998,-0.0322110690176487,-0.09511253982782364,-0.023234369233250618,-0.09613219648599625,0.08457455784082413,0.11068977415561676,0.1205318421125412,0.18032026290893555,0.1855630725622177,0.0887184590101242,-0.5125308632850647,0.11398348212242126,-0.008329201489686966,-0.06056910380721092,0.11144058406352997,-0.08429071307182312,-0.3165661692619324,-0.06804059445858002,-0.00844509620219469,-0.15093150734901428,-0.16883546113967896,0.048754360526800156,-0.0617634542286396,-0.03523834049701691,-0.1423387974500656,-0.09924010187387466,0.01693674363195896,-0.12704840302467346,0.18371936678886414,-0.008334910497069359,-0.02179364673793316,0.026534270495176315,0.0056777410209178925,0.04896353930234909,0.1545623540878296,-0.00015249643183778971,0.014850081875920296,-0.03778892010450363,-0.13305619359016418,-0.12820395827293396,0.6015457510948181,0.00226938771083951,0.10676732659339905,0.2951628267765045,0.01658254861831665,0.09629925340414047,-0.48877784609794617,0.008227952755987644,-0.025153866037726402,0.22243359684944153,0.1896899938583374,0.023599447682499886,-0.24732248485088348,0.1388510763645172,0.15013627707958221,0.02650039829313755,0.12732455134391785,0.14000456035137177,-0.2889590263366699,0.06524977087974548,-0.016990482807159424,0.0795251727104187,-0.08666641265153885,-0.06297202408313751,-0.19304634630680084,-0.10371518135070801,-0.006032727658748627,0.0876912772655487,0.04111319035291672,0.14188581705093384,0.3584267497062683,0.05167893320322037,-0.1023397371172905,-0.15748965740203857,-0.10121891647577286,0.012864228338003159,-0.06286458671092987,-0.0022245091386139393,0.07226192206144333,0.0009363708668388426,-0.038847990334033966,0.03827479109168053,0.10908262431621552,0.05980277061462402,-0.04617324098944664,-0.07895191758871078,-0.10681021958589554,-0.02868044190108776,0.4658789038658142,0.12078854441642761,0.11040747165679932,-0.028954794630408287,0.04372694715857506,-0.06824392825365067,-0.3462761342525482,0.11741045117378235,0.05367593839764595,0.02842293120920658,0.12962841987609863,0.11622679978609085,-0.03967554494738579,-0.017146006226539612,-0.1622811108827591,0.10789796710014343,-0.19174127280712128,0.1418033093214035,0.10455818474292755,0.1418415755033493,0.1437700241804123,-0.4591182470321655,0.006343746092170477,0.4575435221195221,0.00998779572546482,0.5719822645187378,-0.07139004021883011,-0.29284244775772095,-0.2929691970348358,-0.06315233558416367,-0.038268961012363434,0.12969817221164703,-0.10685613006353378,0.1824754774570465,-0.2732870578765869,-0.09254161268472672,0.043212972581386566,0.08164020627737045,0.000840158958453685,-0.0018647335236892104,0.03559589385986328,-0.03261132165789604,-0.04014528915286064,0.02306487411260605,-0.05799882486462593,-0.31057289242744446,0.0947323814034462,0.0075562261044979095,0.05129947513341904,0.2993641793727875,-0.07165513932704926,-0.1411428153514862,-0.28977587819099426,0.1239025741815567,0.10434824228286743,-0.2153763771057129,0.2256632298231125,-0.21659506857395172,0.07055100053548813,0.41506195068359375,0.13973666727542877,0.028724290430545807,0.08149228990077972,0.03535929322242737,0.19852860271930695,-0.0007762308814562857,0.0267281923443079,0.14688174426555634,-0.03367486968636513,0.030604714527726173,-0.07650100439786911,-0.20058521628379822,0.1301334649324417,-0.014105011709034443,0.10031674802303314,0.12681330740451813,-0.15349732339382172,-0.14166541397571564,0.14061670005321503,0.18085040152072906,-0.08830026537179947,-0.3571249842643738,-0.18819060921669006,0.1840495616197586,0.2294761687517166,0.026801452040672302,-0.24038125574588776,0.14278475940227509,-0.29797229170799255,0.1244419515132904,0.1742859184741974,-0.2823314368724823,-0.13682298362255096,-0.1574161797761917,0.05915849283337593,0.01732851378619671,0.12483422458171844,-0.14707200229167938,0.04840536043047905,0.047902368009090424,0.10317138582468033,-0.019490284845232964,-0.03809677064418793,-0.018465179949998856,0.0021944374311715364,0.31913357973098755,-0.3987800180912018,0.029972735792398453,-0.06061381846666336,0.002651582006365061,-0.00793383363634348,0.24271437525749207,-0.22091878950595856,0.010429322719573975,0.002939332975074649,0.005041417665779591,0.025591276586055756,0.029885534197092056,-0.17641113698482513,0.015900835394859314,0.06369099766016006,0.015968551859259605,0.05552653968334198,0.011314907111227512,0.16674621403217316,0.007637742441147566,-0.005879054311662912,-0.045859672129154205,0.1209157407283783,0.10727439075708389,0.10967836529016495,0.020626161247491837,-0.12854662537574768,-0.08805734664201736,-0.13469566404819489,-0.1633204221725464,0.38390496373176575,0.021300313994288445,-0.019385339692234993,-0.013286551460623741,0.08210425078868866,0.3246496319770813,-0.23668043315410614,0.03940703719854355,-0.026988349854946136,-0.08667761087417603,-0.006414030212908983,-0.08985191583633423,-0.007518078200519085,0.0731377899646759,0.013295077718794346,0.022807972505688667,0.13219477236270905,0.1734224110841751,0.07465855032205582,-0.03116278164088726,0.018364783376455307,-0.027461983263492584,-0.022703956812620163,0.06652956455945969,0.029289977625012398,0.029003610834479332,0.024136675521731377,0.05107627436518669,-0.045568469911813736,-0.06364648044109344,-0.20682817697525024,0.09565071016550064,0.00029362732311710715,0.03815897926688194,-0.009170889854431152,-0.02091214805841446,0.06413334608078003,0.008989242836833,0.06971108168363571,0.05759293958544731,0.08347581326961517,0.016261355951428413,0.12908212840557098,-0.01750224083662033,0.04125259816646576,-0.001666995114646852,0.0023808148689568043,-0.08164172619581223,0.04970080405473709,-0.039988551288843155,-0.014363884925842285,-0.10951878130435944,0.10891911387443542,0.17439872026443481,0.14673887193202972,-0.02444140426814556,-0.002189990831539035,-0.020082350820302963,0.021569885313510895,0.050443023443222046,-0.041326772421598434,0.03203144669532776,0.052713535726070404,0.08008186519145966,-0.031165974214673042,0.11545175313949585,-0.0434163399040699,0.03753141313791275,0.01729900948703289,0.04964166134595871,-0.09037312865257263,-0.00038032527663744986,-0.044714536517858505,-0.05364375188946724,-0.047563910484313965,-0.027289269492030144,-0.0028696649242192507,0.03285394608974457,0.053262706845998764,0.029423577710986137,-0.010882144793868065,0.02315191924571991,0.10144104808568954,-0.02595854364335537,-0.02045392245054245,-0.021334208548069,0.01422758586704731,0.07458572834730148,0.1220593973994255,0.09278888255357742,0.056823160499334335,-0.0773053914308548,-0.03029189445078373,-0.016131630167365074,0.041938308626413345,-0.07141999900341034,0.02071569114923477,0.017123129218816757,0.04198618605732918,-0.021314378827810287,-0.22996759414672852,-0.008302675560116768,-0.10414387285709381,-0.038067370653152466,-0.007258671801537275,-0.03351273387670517,-0.05291018635034561,0.0012563819764181972,-0.05117535963654518,0.12048346549272537,0.12182292342185974,0.07521284371614456,-0.015459050424396992,-0.025816556066274643,-0.04488339275121689,0.07470399886369705,0.03478807210922241,-0.03174431249499321,-0.04713844507932663,-0.06203724816441536,-0.10867533832788467,-0.13501571118831635,-0.044413696974515915,-0.02800091542303562,0.09664259850978851,-0.07901550084352493,0.02635335735976696,0.03422395512461662,-0.059371285140514374,-0.11138098686933517,-0.27038684487342834,-0.19472871720790863,-0.04252106323838234,0.016905328258872032,0.05695882812142372,0.07616834342479706,-0.09982098639011383,-0.05604686588048935,0.16350333392620087,-0.04574988782405853,0.03937546908855438,0.036368001252412796,0.0824357345700264,0.03358641266822815,0.10518454760313034,-0.012830004096031189,0.02035728469491005,-0.035881783813238144,0.01922457478940487,0.09670563042163849,-0.17464923858642578,0.07864868640899658,0.04137715697288513,0.012366789393126965,0.20096638798713684,0.09428489953279495,0.04441718012094498,0.0553227923810482,-0.002191112143918872,-0.005956414621323347,0.02348267287015915,0.030965307727456093,0.01349556539207697,0.0026948731392621994,0.020706845447421074,0.006034552585333586,0.024593686684966087,0.009858234785497189,0.04010740667581558,-0.08217355608940125,-0.05023016035556793,-0.059466101229190826,-0.02018509991466999,-0.010641727596521378,0.013500632718205452,-0.02539883740246296,-0.08107537031173706,-0.08032634109258652,0.01960231177508831,0.005882255267351866,0.04201112687587738,-0.006468102801591158,0.009676497429609299,-0.05302106589078903,-0.016239482909440994,0.08979392796754837,0.19357123970985413,0.021539654582738876,-0.020713292062282562,-0.0074584693647921085,-0.07210322469472885,-0.05376247316598892,0.08289539068937302,-0.020929010584950447,-0.021991906687617302,0.05002925544977188,-0.05563370883464813,-0.17978304624557495,-0.29678645730018616,0.035876963287591934,-0.04217153415083885,-0.004298021551221609,-0.06679700314998627,-0.1929534673690796,-0.14198286831378937,-0.12322288751602173,0.03908821940422058,0.015381762757897377,0.03155010566115379,0.051452308893203735,0.050147175788879395,-0.03370846435427666,-0.04002779349684715,-0.04507206752896309,-0.014219791628420353,-0.024479251354932785,0.06752245128154755,0.13015146553516388,0.03283468633890152,-0.002384619554504752,-0.018487920984625816,0.0611601285636425,0.05292794853448868,0.08082056045532227,0.042348213493824005,0.057151250541210175,0.06353523582220078,0.07503550499677658,0.04125134274363518,0.014424487948417664,-0.003457251936197281,0.008283428847789764,0.034540943801403046,0.06460224092006683,0.043875232338905334,0.09239113330841064,0.02964571863412857,0.02155294455587864,-0.0509721003472805,-0.052420347929000854,-0.007693771738559008,-0.05178331211209297,0.05681285634636879,-0.04019332677125931,0.01725880801677704,-0.024176619946956635,0.07813768088817596,0.05167951062321663,-0.004047346767038107,0.03365609422326088,0.09507382661104202,0.0509636364877224,0.10061304271221161,0.03635203093290329,-0.02957652136683464,-0.03372673690319061,-0.0590440109372139,-0.14086905121803284,0.05598703399300575,-0.13011318445205688,-0.025530222803354263,-0.06947505474090576,-0.0835898220539093,0.0319724977016449,0.1897042989730835,0.08155939728021622,0.10696317255496979,0.07963975518941879,0.01286537479609251,0.004104440566152334,-0.09344755858182907,0.01879415661096573,0.16866806149482727,0.10067106038331985,0.24927833676338196,0.1544937938451767,0.09137799590826035,0.159771129488945,0.08740674704313278,0.014017974957823753,-0.03816022351384163,0.057784389704465866,-0.03867700695991516,0.12781737744808197,0.11855798959732056,0.14165280759334564,0.0005285163642838597,0.07841017842292786,-0.10879923403263092,-0.01727931946516037,-0.05618646368384361,-0.04455303028225899,-0.07000613212585449,0.006413330789655447,0.26529520750045776,0.04614381492137909,0.09357761591672897,0.027393829077482224,0.04581992328166962,0.1488504409790039,0.07693952322006226,0.058898698538541794,0.041381992399692535,0.01987435668706894,-0.05028524249792099,0.24063359200954437,-0.45789864659309387,0.1029035672545433,-0.0029160380363464355,-0.06542209535837173,0.006137127056717873,0.0692543014883995,-0.1845564991235733,-0.0878029391169548,-0.017004096880555153,0.002563111251220107,-0.026258336380124092,-0.06088179349899292,-0.36256518959999084,0.04221407324075699,-0.036052294075489044,-0.007919414900243282,0.03628721460700035,0.1310381442308426,0.14736689627170563,-0.017722472548484802,-0.008431966416537762,0.07644925266504288,0.059256941080093384,-0.08371014893054962,0.30131611227989197,-0.037737566977739334,0.04754547029733658,-0.02157784067094326,-0.14831671118736267,-0.23426863551139832,0.4337964951992035,-0.05940011143684387,0.03629922866821289,0.1265331357717514,0.0635160580277443,0.25541168451309204,-0.2089301496744156,0.030242307111620903,0.02048841305077076,0.057902511209249496,0.09415187686681747,0.07703781127929688,-0.04714649170637131,0.2274930328130722,0.009597168304026127,-0.09589014202356339,0.03915472328662872,-0.31140291690826416,0.043178584426641464,0.11330197751522064,0.06711261719465256,-0.18285679817199707,-0.012326937168836594,-0.02087576687335968,0.04666926711797714,-0.030733752995729446,-0.015248180367052555,0.09859628230333328,-0.7947437763214111,-0.2251586765050888,-0.2777750492095947,-0.08312106877565384,-0.08750724792480469,-0.18876923620700836,0.14352627098560333,0.23995380103588104,0.04444655776023865,0.04918592795729637,-0.21010279655456543,-0.129592165350914,-0.17050501704216003,-0.05754118785262108,-0.059634532779455185,0.014985272660851479,0.08632402867078781,-0.10549616068601608,0.1573636680841446,-0.028530044481158257,-0.06916959583759308,0.18142546713352203,-0.15406034886837006,-0.008779251947999,-0.1946898251771927,0.16720782220363617,0.2942838668823242,-0.01563757285475731,0.12529312074184418,0.0049523659981787205,-0.17872010171413422,-0.1910683810710907,0.08440887182950974,-0.1356283724308014,-0.010051322169601917,-0.09554625302553177,-0.11136003583669662,-0.35581159591674805,-0.06175338476896286,-0.0005865382263436913,-0.008883927948772907,0.15439394116401672,0.06392688304185867,0.0011075549991801381,-0.022604461759328842,-0.09570852667093277,0.09850291162729263,0.09235858917236328,0.21525254845619202,-0.05275101959705353,-0.1029423177242279,0.2386101484298706,0.2772909998893738,0.10917770862579346,-0.12583456933498383,-0.3384610414505005,0.2938438951969147,-0.4194614887237549,0.049538929015398026,0.11018741130828857,0.1298617422580719,0.046440865844488144,-0.024757657200098038,-0.006209613289684057,-0.39963245391845703,-0.009537840262055397,0.10215842723846436,0.1252857893705368,-0.0725012794137001,0.19852247834205627,-0.22123801708221436,0.0149608813226223,0.000960516685154289,-0.08861569315195084,-0.07029461115598679,-0.13449108600616455,-0.07414475083351135,0.0709536075592041,-0.010023183189332485,-0.04949255660176277,-0.15047523379325867,-0.08331560343503952,-0.17315250635147095,-0.04952012747526169,-0.09623848646879196,-0.129668727517128,-0.13347987830638885,-0.13541318476200104,-0.08321209996938705,-0.0751350000500679,-0.1401413232088089,0.04746975749731064,0.013973127119243145,0.013815777376294136,-0.021990837529301643,-0.027942398563027382,-0.03455124422907829,0.05605536326766014,0.07746114581823349,0.07165460288524628,0.012728758156299591,-0.021177271381020546,0.11282172054052353,-0.13786855340003967,-0.07621222734451294,-0.11488454043865204,-0.04254322499036789,-0.09742721915245056,-0.04360119625926018,-0.03795400634407997,0.02192818745970726,-0.012489253655076027,0.06649469584226608,0.1350366771221161,-0.18720489740371704,0.127816841006279,0.3222515881061554,0.15795817971229553,0.12093248963356018,0.02532801404595375,0.09044085443019867,0.06704408675432205,0.12828370928764343,0.0998339056968689,0.02382751926779747,0.04584036394953728,-0.040618035942316055,-0.0004211829509586096,-0.0014690464595332742,-0.026989242061972618,-0.04306092485785484,0.04862029850482941,-0.08385595679283142,0.008953820914030075,0.0027103370521217585,-0.028065592050552368,0.018951239064335823,-0.03197123855352402,0.128459632396698,0.10088913142681122,0.10687144100666046,0.05631813779473305,0.02921135537326336,0.02988053485751152,-0.27214664220809937,-0.010081952437758446,0.057453181594610214,-0.04906870797276497,0.0036671701818704605,-0.023732298985123634,0.1344839185476303,-0.025916915386915207,0.00396326556801796,-0.018520373851060867,0.023790037259459496,-0.0583370216190815,-0.03675041347742081,0.03684884309768677,0.05903654173016548,0.08687414228916168,0.05261649563908577,0.15054777264595032,-0.17068734765052795,0.015056032687425613,0.029765471816062927,0.015175710432231426,0.04663867875933647,0.06809660792350769,0.19856424629688263,0.054502375423908234,-0.00801637303084135,0.007175756152719259,0.043468624353408813,-0.09049952775239944,0.17684999108314514,-0.09357644617557526,-0.08970624953508377,-0.09960426390171051,0.11466888338327408,-0.07204541563987732,0.09084872156381607,-0.08174631744623184,0.029489072039723396,0.05564422160387039,0.0017341806087642908,0.038704778999090195,0.18245884776115417,-0.030627170577645302,0.003943614196032286,-0.030647320672869682,0.12198592722415924,0.030086763203144073,-0.28435274958610535,0.04301183298230171,0.09168615192174911,0.07885368168354034,0.08895495533943176,0.07371313869953156,-0.010464384220540524,0.008957390673458576,-0.023075221106410027,0.027653591707348824,-0.012881768867373466,0.06134071201086044,-0.22990675270557404,-0.02140095643699169,-0.017107956111431122,0.03330199047923088,-0.03949769213795662,-0.14777450263500214,0.007604529615491629,0.02219187282025814,-0.022841351106762886,-0.031142164021730423,0.04054602235555649,0.00908743217587471,0.45154449343681335,0.05305062606930733,0.09939219057559967,0.06372299045324326,-0.00419923709705472,-0.06022384762763977,-0.16797009110450745,-0.021474450826644897,-0.06439869105815887,-0.04814346134662628,-0.01031351089477539,0.10837157815694809,0.04857536032795906,0.05711987614631653,0.0023636813275516033,0.033060017973184586,0.03831060975790024,0.009454106912016869,0.11007975786924362,0.042761776596307755,-0.01116762962192297,-0.04408874735236168,-0.03897605091333389,-0.05182267725467682,-0.1081499382853508,0.19234581291675568,0.16784700751304626,0.2719455361366272,0.19116906821727753,0.1815480887889862,-0.02453209087252617,0.00347082014195621,0.07724512368440628,0.0706733986735344,0.033267270773649216,-0.007047205697745085,-0.1978616714477539,-0.05890750139951706,-0.14762291312217712,-0.09656183421611786,-0.09255385398864746,-0.1288149654865265,0.22600238025188446,-0.03268853574991226,-0.04541052132844925,-0.04214632138609886,-0.03640645369887352,-0.033678360283374786,-0.13370025157928467,-0.04900093004107475,0.0024709682911634445,-0.0022033201530575752,0.025223372504115105,0.0149171631783247,-0.17763939499855042,0.011482933536171913,-0.007519198581576347,0.03144693002104759,0.010456635616719723,-0.13522663712501526,0.05791705846786499,0.027500592172145844,0.01090247742831707,0.033062513917684555,0.015196043998003006,0.01092002633959055,-0.08044634759426117,-0.028461109846830368,0.052324578166007996,0.0601859949529171,0.021783780306577682,-0.009337090887129307,0.2907482981681824,0.04753100126981735,0.051748938858509064,0.06550884246826172,-0.0277115348726511,-0.010123446583747864,0.09362617135047913,-0.03547479584813118,-0.05061505734920502,-0.04511285573244095,-0.013616330921649933,-0.03177144378423691,0.05019497126340866,0.08666394650936127,0.013742956332862377,0.008918576873838902,-0.06773238629102707,0.007657645735889673,0.18369348347187042,0.0027295539621263742,0.0077596018090844154,-0.00015627786342520267,-0.03906810283660889,-0.02805967815220356,-0.14665952324867249,0.08785784244537354,0.07670436799526215,0.10288102924823761,0.14861951768398285,0.0339532196521759,-0.019047139212489128,-0.04823298752307892,0.0020515883807092905,0.033603519201278687,-0.0136030875146389,-0.05240348353981972,-0.13897405564785004,0.028538474813103676,0.029017610475420952,-0.09731326252222061,-0.06677620857954025,-0.01622200198471546,0.08071743696928024,0.2007039487361908,0.24217048287391663,0.13523165881633759,0.018456052988767624,0.06040278822183609,-0.13645011186599731,0.030232634395360947,0.0923619270324707,0.06371735781431198,0.0720449835062027,-0.037920992821455,0.12455598264932632,-0.027652012184262276,-0.058799389749765396,-0.042931947857141495,0.02423466555774212,0.04570266976952553,0.26385733485221863,0.08377296477556229,0.07138220220804214,-0.0014296522131189704,0.07650437206029892,0.10286911576986313,-0.31411615014076233,0.08506184071302414,0.13025346398353577,0.11828186362981796,0.027934152632951736,0.078685462474823,-0.0934283584356308,-0.04031776636838913,0.010159637778997421,0.01536574773490429,-0.0709291622042656,-0.00680988235399127,0.014342810958623886,-0.014991317875683308,0.06594166159629822,0.028564924374222755,0.03723377734422684,0.08543878048658371,0.020397596061229706,0.04173148423433304,-0.00915314257144928,-0.0017964752623811364,-0.008053096011281013,0.022759798914194107,0.18034160137176514,-0.01618492789566517,-0.034426696598529816,-0.031390491873025894,-0.011004122905433178,0.0049771517515182495,-0.007495701313018799,0.07503049075603485,0.04652027040719986,0.03917176276445389,-0.010986095294356346,-0.024889664724469185,0.05615472048521042,-0.012841797433793545,0.04475269839167595,0.09619177877902985,0.017720196396112442,-0.04223258048295975,-0.13889050483703613,0.008355600759387016,-0.029795721173286438,-0.010138815268874168,-0.03675447031855583,0.04305239021778107,-0.07177726179361343,-0.02279517613351345,-0.0031899872701615095,0.02320612408220768,0.04726750776171684,0.011171702295541763,0.2952466905117035,0.02010602317750454,0.14987456798553467,0.09441304951906204,0.011003095656633377,0.010712484829127789,-0.23929324746131897,-0.015627853572368622,0.0020546354353427887,-0.05117446184158325,-0.016977433115243912,0.05603145807981491,-0.00680602015927434,0.0729295164346695,0.03949538245797157,0.004461774602532387,0.0014698008308187127,0.00287185562774539,-0.08208926022052765,0.19223518669605255,0.19367961585521698,0.13630782067775726,0.0006074993871152401,-0.0005938068497925997,0.17282377183437347,0.0887366384267807,0.11294002830982208,0.02057577669620514,0.10542991012334824,-0.05070536956191063,0.07543684542179108,-0.1272883266210556,-0.09166588634252548,0.0006122540216892958,-0.0769965723156929,-0.2001441866159439,0.13387753069400787,0.07548508793115616,0.07363557815551758,0.03190654143691063,-0.004527469165623188,0.1817360520362854,-0.053996339440345764,0.016139855608344078,-0.00258813239634037,0.04893919825553894,-0.0065352595411241055,-0.02926035039126873,-0.1781565546989441,0.1568308025598526,-0.016848765313625336,0.15777426958084106,0.16904805600643158,0.0006923709297552705,0.09683476388454437,0.045964017510414124,0.04972385987639427,0.029477277770638466,-0.027247270569205284,0.265068382024765,-0.07507382333278656,-0.02900536172091961,-0.028293859213590622,0.01246386393904686,-0.0596013106405735,-0.058314353227615356,-0.16547654569149017,-0.09341306984424591,0.46814653277397156,-0.08670404553413391,-0.1096980944275856,-0.03175041452050209,-0.1677425652742386,0.05520964041352272,-0.29669374227523804,-0.3326214849948883,-0.0806073546409607,-0.23008893430233002,0.19945840537548065,-0.13406093418598175,0.02410265989601612,0.3741370141506195,-0.06140834093093872,-0.007122834213078022,-0.16608935594558716,-0.006291200406849384,-0.15783540904521942,-0.03971396014094353,-0.21927285194396973,0.21444691717624664,0.24864298105239868,0.06804116070270538,0.14930948615074158,-0.3120870292186737,-0.08389318734407425,-0.050271470099687576,-0.10668841004371643,0.22599709033966064,0.2532992362976074,-0.030832160264253616,-0.20517028868198395,-0.15278369188308716,0.023023508489131927,-0.25720107555389404,-0.002314414596185088,0.003033905290067196,-0.002371764974668622,-0.24130728840827942,0.15602219104766846,0.18386125564575195,-0.28434497117996216,-0.2639535963535309,-0.05925779789686203,0.2597251832485199,0.17868387699127197,-0.18479005992412567,-0.3499263525009155,-0.16817428171634674,0.3808550238609314,0.13811784982681274,0.3496897518634796,-0.13932161033153534,0.3039224445819855,0.20978449285030365,0.17286844551563263,-0.12073854357004166,-0.10661965608596802,-0.03896951302886009,-0.0520755797624588,-0.03830685839056969,0.042559996247291565,0.047809723764657974,-0.05198032781481743,0.3251146972179413,0.21635892987251282,-0.15945185720920563,0.17255447804927826,0.09855026751756668,0.11986486613750458,0.09369415789842606,-0.03913542255759239,0.07097646594047546,-0.06748796999454498,0.12289202958345413,0.3455005884170532,0.3165667653083801,0.14589013159275055,-0.0059012072160840034,-0.0937105193734169,0.11774279177188873,0.062373071908950806,-0.044668048620224,-0.19644959270954132,-0.10567735880613327,0.05184074491262436,0.06490166485309601,-0.2685106098651886,-0.2628780007362366,-0.13860037922859192,0.10751274973154068,0.001385218813084066,0.017743665724992752,0.08056652545928955,0.11707489937543869,0.053856201469898224,0.054160960018634796,0.014823831617832184,0.10337826609611511,0.02748667448759079,0.05493177846074104,0.011420704424381256,0.04710588604211807,0.08869724720716476,0.09769077599048615,0.1639169305562973,-0.054436519742012024,-0.13642461597919464,-0.0771704837679863,-0.23167499899864197,0.004027554765343666,-0.1305627077817917,-0.09672925621271133,0.08116565644741058,0.12242355942726135,-0.0012887720949947834,-0.0767132043838501,-0.04677939414978027,-0.003368516219779849,-0.08255473524332047,-0.051074057817459106,-0.18658477067947388,0.04222872108221054,0.018907172605395317,0.016507970169186592,0.07091773301362991,0.05543983355164528,0.10347708314657211,0.014819393865764141,0.03407787159085274,0.053488779813051224,-0.015461979433894157,0.004120195284485817,-0.026840634644031525,-0.022925155237317085,0.06883866339921951,0.09502416104078293,-0.04774487763643265,0.1390346735715866,0.08438978344202042,0.043479908257722855,-0.03750639036297798,-0.05953999608755112,-0.1083393543958664,-0.05167499557137489,0.04613964632153511,-0.1500871777534485,-0.13456615805625916,-0.13645747303962708,-0.15034829080104828,-0.1498919576406479,0.09934566169977188,0.1691037267446518,0.16148404777050018,0.2275446355342865,0.2697867155075073,0.26589322090148926,-0.10275673866271973,-0.0209746565669775,0.0005057206144556403,-0.011129922233521938,0.035851605236530304,0.05440474674105644,-0.022936001420021057,-0.021717417985200882,-0.013620988465845585,0.009270450100302696,-0.020555423572659492,0.005968435201793909,-0.02906251698732376,-0.018848605453968048,-0.030771542340517044,-0.026371782645583153,0.041946765035390854,0.015743540599942207,0.2526526153087616,-0.013008304871618748,0.016728723421692848,0.028476078063249588,-0.0008565307944081724,0.0033854530192911625,-0.31396999955177307,-0.05937551334500313,-0.02878854051232338,0.016291869804263115,-0.03387914225459099,-0.009729609824717045,0.18335919082164764,0.04239920154213905,-0.04071244224905968,-0.06390345096588135,-0.08285044133663177,-0.04486963152885437,-0.13428278267383575,-0.03005397692322731,0.004408069420605898,0.00610286695882678,-0.041893839836120605,-0.01093209721148014,0.3308066427707672,0.08686238527297974,0.07311028242111206,0.07430091500282288,0.053395405411720276,-0.01028973888605833,0.14493872225284576,0.007029373198747635,0.005406199488788843,0.006246503442525864,-0.01286474522203207,-0.021514510735869408,-0.5459891557693481,-0.004706024657934904,-0.021165898069739342,0.018427284434437752,0.0666169747710228,0.004766933154314756,0.1454516351222992,0.06376630067825317,0.0818745344877243,-0.008029825985431671,-0.021403001621365547,0.01999019645154476,-0.41511180996894836,0.029490429908037186,0.006897204555571079,-0.016078297048807144,-0.014251705259084702,0.020885560661554337,0.475322425365448,-0.0809449777007103,-0.07128220796585083,-0.04027346149086952,-0.0023572631180286407,-0.06750817596912384,-0.2709738314151764,-0.06601811945438385,-0.04610620439052582,-0.012748409993946552,-0.040912143886089325,-0.008145755156874657,-0.21792861819267273,0.03653021529316902,-0.0017448972212150693,0.050956275314092636,0.06006798893213272,0.053027622401714325,-0.45078596472740173,-0.0438711978495121,-0.05917131155729294,-0.11002184450626373,-0.0721285417675972,0.01214718446135521,-0.06249479949474335,-0.05343148484826088,-0.05122290179133415,-0.022525371983647346,-0.017462890595197678,-0.01437345426529646,0.11836934089660645,0.09525861591100693,0.06782067567110062,0.09494756907224655,0.04981066286563873,0.1588534116744995,0.151698037981987,-0.04660347104072571,-0.048271991312503815,-0.033158060163259506,-0.07480502128601074,-0.09768432378768921,0.18380655348300934,-0.060256581753492355,-0.01746930554509163,-0.06635672599077225,-0.028623798862099648,0.029454177245497704,0.0770941823720932,0.05332330986857414,-0.0044913324527442455,-0.07631456851959229,0.02458827942609787,-0.09179025143384933,-0.039066117256879807,-0.006316432263702154,0.02172076143324375,0.00536712072789669,0.0421079583466053,0.005839761346578598,-0.019149024039506912,0.14421744644641876,0.14205284416675568,0.20183250308036804,0.11291613429784775,0.2920968234539032,0.17273053526878357,-0.18639735877513885,-0.09536915272474289,-0.23308487236499786,-0.21582992374897003,-0.2193218618631363,0.12002326548099518,0.04640285670757294,0.041045259684324265,0.021659232676029205,-0.008195450529456139,-0.020461680367588997,0.16101570427417755,-0.011816269718110561,0.0385674424469471,0.0008291762787848711,-0.011419882997870445,-0.06446099281311035,-0.024136744439601898,0.020422400906682014,0.04107920452952385,0.12428361177444458,0.05929071456193924,0.05332906171679497,-0.1427091360092163,0.1027178019285202,0.08360505104064941,0.11382727324962616,0.07780379056930542,0.0861491858959198,-0.16641134023666382,0.041473884135484695,0.05235602334141731,0.012793676927685738,0.02739546075463295,0.05254780128598213,-0.014100256375968456,-0.13527461886405945,-0.10154002904891968,-0.12209122627973557,-0.06219082325696945,-0.07436547428369522,-0.15774008631706238,0.04470653459429741,0.05601571872830391,0.007951623760163784,0.02645839750766754,-0.027570797130465508,0.16006629168987274,0.08243799954652786,0.08076118677854538,0.14182615280151367,0.14137844741344452,0.17645741999149323,0.1210300400853157,-0.0033658260945230722,-0.006688457448035479,-0.036301035434007645,0.021042177453637123,0.025124788284301758,-0.23171666264533997,0.061217498034238815,0.11382199078798294,0.00447708647698164,0.011449246667325497,-0.030374759808182716,-0.03749610111117363,-0.14128069579601288,-0.13411904871463776,-0.017542559653520584,-0.0655122771859169,-0.09822719544172287,-0.13465657830238342,-0.01565793715417385,-0.08012966811656952,-0.04125039651989937,0.0929204523563385,0.10675907880067825,-0.004533765837550163,0.031609900295734406,0.08770887553691864,0.03738698735833168,0.10739194601774216,0.0419267863035202,-0.02563147433102131,0.010314869694411755,-0.028170613572001457,-0.13219615817070007,-0.03661052882671356,0.06782573461532593,-0.037944965064525604,0.05535770207643509,0.06473208963871002,-0.002544475719332695,-0.0030400590039789677,-0.06741174310445786,-0.16099752485752106,-0.12753555178642273,-0.132228285074234,-0.01900511048734188,0.04068249091506004,0.1147991195321083,0.1046925038099289,-0.022275961935520172,0.046119190752506256,0.03985635191202164,-0.02527056820690632,-0.060874175280332565,-0.07467099279165268,-0.13221102952957153,-0.08029907196760178,-0.15226693451404572,-0.06299732625484467,-0.07304366677999496,-0.06544917821884155,0.004698313307017088,-0.06261083483695984,-0.050029970705509186,0.002212726976722479,0.11575695872306824,0.17404624819755554,-0.13976424932479858,-0.06411783397197723,-0.01269680354744196,0.008350753225386143,0.04459637030959129,-0.06299605220556259,-0.08175183832645416,0.12112240493297577,0.014151533134281635,-0.007889636792242527,0.0334913544356823,0.28480881452560425,0.1406468003988266,0.0909559354186058,0.025333935394883156,0.15636225044727325,0.16705450415611267,0.2290293574333191,-0.0877983346581459,-0.05228288099169731,-0.02032661810517311,-0.054998427629470825,-0.09038987010717392,0.1228376179933548,0.08944790810346603,0.01696409471333027,0.10399829596281052,0.12221270054578781,0.10139165818691254,-0.005466850474476814,0.1271604746580124,0.11993832886219025,0.1263975203037262,0.042455289512872696,0.00559638487175107,0.02541457675397396,0.05729503184556961,-0.1005922332406044,