{"version":"0.7.0","metadata":{"date":{"year":2026,"month":6,"day":4,"hour":13,"minute":1,"second":34},"loudness":-24.29298540211859,"gain":0.6887964182798034,"name":"FNDR BFDRI VB Clean BAL2 CAB","modeled_by":"amalgamaudio","gear_type":"amp_cab","gear_make":"Fender Deluxe Reverb Reissue","gear_model":"Fender Deluxe Reverb Reissue","tone_type":"T3K-Null","trainer":"TONE3000","input_level_dbu":15,"output_level_dbu":14},"architecture":"SlimmableContainer","config":{"submodels":[{"max_value":0.5,"model":{"version":"0.7.0","metadata":{"date":{"year":2026,"month":6,"day":4,"hour":13,"minute":1,"second":33},"loudness":-23.77317758656683,"gain":0.6794503834622386},"architecture":"WaveNet","config":{"layers":[{"input_size":1,"condition_size":1,"head":{"out_channels":1,"kernel_size":16,"bias":true},"channels":3,"kernel_sizes":[6,6,6,6,6,6,6,6,6,6,6,6,6,6,15,15,6,6,6,6,6,6,6],"dilations":[1,3,7,17,41,101,239,1,3,7,17,41,101,239,1,13,1,3,7,17,41,101,239],"activation":[{"type":"LeakyReLU","negative_slope":0.01},{"type":"LeakyReLU","negative_slope":0.01},{"type":"LeakyReLU","negative_slope":0.01},{"type":"LeakyReLU","negative_slope":0.01},{"type":"LeakyReLU","negative_slope":0.01},{"type":"LeakyReLU","negative_slope":0.01},{"type":"LeakyReLU","negative_slope":0.01},{"type":"LeakyReLU","negative_slope":0.01},{"type":"LeakyReLU","negative_slope":0.01},{"type":"LeakyReLU","negative_slope":0.01},{"type":"LeakyReLU","negative_slope":0.01},{"type":"LeakyReLU","negative_slope":0.01},{"type":"LeakyReLU","negative_slope":0.01},{"type":"LeakyReLU","negative_slope":0.01},{"type":"LeakyReLU","negative_slope":0.01},{"type":"LeakyReLU","negative_slope":0.01},{"type":"LeakyReLU","negative_slope":0.01},{"type":"LeakyReLU","negative_slope":0.01},{"type":"LeakyReLU","negative_slope":0.01},{"type":"LeakyReLU","negative_slope":0.01},{"type":"LeakyReLU","negative_slope":0.01},{"type":"LeakyReLU","negative_slope":0.01},{"type":"LeakyReLU","negative_slope":0.01}],"bottleneck":3,"head1x1":{"active":false,"out_channels":1,"groups":1},"layer1x1":{"active":true,"groups":1},"groups_input":1,"groups_input_mixin":1,"conv_pre_film":{"active":false,"shift":true,"groups":1},"conv_post_film":{"active":false,"shift":true,"groups":1},"input_mixin_pre_film":{"active":false,"shift":true,"groups":1},"input_mixin_post_film":{"active":false,"shift":true,"groups":1},"activation_pre_film":{"active":false,"shift":true,"groups":1},"activation_post_film":{"active":false,"shift":true,"groups":1},"layer1x1_post_film":{"active":false,"shift":true,"groups":1},"head1x1_post_film":{"active":false,"shift":true,"groups":1},"gating_mode":["none","none","none","none","none","none","none","none","none","none","none","none","none","none","none","none","none","none","none","none","none","none","none"],"secondary_activation":[null,null,null,null,null,null,null,null,null,null,null,null,null,null,null,null,null,null,null,null,null,null,null],"slimmable":null}],"head":null,"head_scale":0.006311021862739212},"weights":[-0.9560150504112244,-0.6771586537361145,-1.1765576601028442,-0.26735004782676697,0.2102966159582138,0.5916594862937927,-0.41050398349761963,0.5403841733932495,-0.4956810176372528,-0.25298449397087097,0.09393393993377686,0.553080677986145,-0.39898446202278137,0.241432785987854,-0.47001880407333374,-0.30693498253822327,0.280058890581131,0.557373046875,-0.12414318323135376,0.22137828171253204,-0.36244088411331177,-0.19880057871341705,0.5161747336387634,-0.01641274243593216,0.31382086873054504,-0.5155545473098755,0.04309861734509468,-0.11259612441062927,0.2470370978116989,0.04260373115539551,0.31134703755378723,-0.6149889230728149,0.05173495411872864,-0.11266984045505524,0.3851175010204315,0.16482043266296387,0.5833288431167603,-0.5496633052825928,-0.01682623289525509,-0.2512684166431427,0.2515740990638733,-0.19403553009033203,-0.15383023023605347,-0.6428191661834717,0.5116679072380066,-0.26111671328544617,0.46429529786109924,-0.15908661484718323,-0.11926405131816864,-0.3860498070716858,0.5358193516731262,-0.30024075508117676,0.3979218006134033,-0.036614127457141876,-0.2113172709941864,-0.6682807207107544,0.4803631603717804,0.2812812924385071,-0.03506981581449509,0.21184216439723969,0.7782164216041565,0.4421411156654358,-0.2991315424442291,-0.8436248898506165,-0.13715478777885437,0.8817809820175171,0.9398325681686401,-0.2720838487148285,0.49137651920318604,-0.4735901653766632,1.07395339012146,0.5414676666259766,0.2149844914674759,-0.309196412563324,-0.0869976356625557,-0.0566539503633976,0.10338906943798065,0.2323961704969406,0.5901392698287964,0.31123876571655273,-0.33614474534988403,0.040508516132831573,-0.021294914186000824,0.288501501083374,-0.1710095852613449,-0.010849865153431892,0.27831146121025085,0.15499506890773773,0.10621260851621628,-0.012083262205123901,0.222884401679039,-0.030575595796108246,-0.18584318459033966,-0.03489066660404205,0.014003186486661434,0.08141165971755981,-0.0287557952105999,0.43896734714508057,-0.3004993200302124,-0.14051955938339233,-0.12676893174648285,-0.44394007325172424,-0.4088733196258545,0.053903043270111084,-0.4260733723640442,-0.36762988567352295,-0.013164366595447063,0.031252920627593994,0.19614803791046143,0.030971765518188477,-0.4124293029308319,-0.021240755915641785,0.04019659012556076,0.03119521029293537,0.03471152111887932,0.5898314118385315,-0.32395562529563904,-0.061661601066589355,0.2370099276304245,-0.06252498179674149,-0.03365325182676315,0.22560317814350128,-0.6573127508163452,0.13165269792079926,0.0018822140991687775,0.08696236461400986,-0.21698309481143951,0.650439441204071,-0.29944148659706116,0.2154979258775711,0.14979170262813568,0.1207394078373909,0.1170697808265686,0.5691828727722168,1.300063967704773,-0.5093837976455688,0.08852481096982956,-0.9721753597259521,-0.1146307960152626,0.6571842432022095,0.6576076745986938,-0.3375195264816284,-0.388598769903183,-0.33750811219215393,0.4109498858451843,-0.2336496263742447,0.14008121192455292,0.045532017946243286,-0.009641490876674652,-0.03690927103161812,-0.11192392557859421,0.003953654784709215,0.19778482615947723,0.06519485265016556,-0.01543539110571146,-0.12151806801557541,-0.04523968696594238,-0.3159888684749603,0.8207447528839111,-0.09723495692014694,-0.1221671998500824,-0.16798560321331024,-0.015178215689957142,-0.38005775213241577,0.9464811086654663,0.12430523335933685,0.014858495444059372,-0.21162676811218262,-0.4450356066226959,-0.30530282855033875,0.17165572941303253,0.20340871810913086,0.2955140471458435,0.07687148451805115,-0.14606721699237823,-0.20619122684001923,-0.7567331790924072,-0.3928714394569397,-0.3470235764980316,-0.23759722709655762,-0.10709621757268906,-0.10136109590530396,0.270868182182312,0.05259676277637482,0.10565898567438126,-0.0638401061296463,0.013013004325330257,-0.3690173625946045,-0.13485343754291534,-0.3205629885196686,-0.21372981369495392,-0.1669057458639145,0.26153749227523804,0.23589357733726501,-0.11339253187179565,0.16479402780532837,0.23845845460891724,0.08492755144834518,-0.022445010021328926,-0.2659226953983307,-0.29370394349098206,-0.3465328812599182,-0.04048267751932144,0.07577895373106003,-0.6460884809494019,-0.020720412954688072,-0.4778793752193451,-0.8214522004127502,-0.04888811707496643,-0.2649277150630951,-0.4426802694797516,0.47624102234840393,0.13562746345996857,-0.662100613117218,0.3901931345462799,0.4297391474246979,0.22925589978694916,-0.1287953406572342,0.25594159960746765,-0.025010311976075172,-0.05862800404429436,-0.08501426875591278,-0.11326330900192261,-0.021536819636821747,-0.6588271856307983,-0.1876501590013504,-0.151018425822258,-0.19940626621246338,-0.17654569447040558,0.037382032722234726,0.5403987765312195,-0.0162638109177351,0.051808781921863556,0.055345162749290466,0.06641274690628052,0.04752228036522865,-0.38503018021583557,-0.09873683750629425,0.0070969234220683575,0.00885819923132658,0.10011469572782516,0.11215364187955856,-0.1527562141418457,-0.05493418872356415,0.04967685788869858,0.07346640527248383,0.10851401090621948,-0.04777277633547783,0.07634835690259933,0.09844398498535156,0.002288545947521925,0.0030023183207958937,-0.06569555401802063,-0.10871242731809616,-0.35914716124534607,0.18203012645244598,0.12327098846435547,0.022221915423870087,0.06506495177745819,0.0871475413441658,0.018928779289126396,-0.10448946058750153,-0.3172474801540375,-0.34421318769454956,-0.21953685581684113,-0.1574113965034485,0.40379270911216736,-0.2484000027179718,-0.11777685582637787,-0.14768515527248383,0.034412696957588196,-0.2763316035270691,-0.34404194355010986,-0.04852023348212242,-0.16690294444561005,0.0681925043463707,-0.4613613486289978,0.4174502491950989,-0.8649619817733765,0.607563853263855,0.1413213610649109,-0.2972867786884308,-0.11816832423210144,-0.35919222235679626,-0.5398039221763611,0.4218046963214874,0.4371584355831146,-0.06711380183696747,-0.2396182268857956,-0.331031858921051,0.33865150809288025,0.004063010681420565,0.08587663620710373,0.18011674284934998,0.22003528475761414,0.3496282994747162,0.9477218389511108,0.1970929056406021,0.04383702203631401,0.0727243721485138,0.1373884528875351,0.2556840181350708,-0.08423388004302979,0.11275304853916168,-0.021065901964902878,-0.2583123445510864,-0.33026933670043945,-0.38411596417427063,0.20895321667194366,-0.05109117925167084,-0.06927936524152756,-0.08758661150932312,-0.11003943532705307,-0.1458379179239273,-0.7767400741577148,-0.16564631462097168,-0.24056729674339294,-0.27244481444358826,-0.3500438928604126,-0.5162762403488159,0.384185254573822,-0.05124228075146675,0.05317310988903046,0.057706061750650406,0.047840867191553116,0.08229199796915054,0.010822500102221966,-0.11186707764863968,-0.16319119930267334,-0.15683920681476593,-0.1951940357685089,-0.04108620807528496,-0.03938484191894531,-0.04483196884393692,-0.09400277584791183,-0.11143095046281815,-0.054602429270744324,-0.1042700707912445,-0.33823710680007935,-0.14456208050251007,0.1123238354921341,-0.009445127099752426,-0.26204580068588257,-0.23392371833324432,-0.12781482934951782,0.16787120699882507,-0.07766728848218918,0.3567753732204437,0.21434667706489563,0.10200375318527222,0.18309664726257324,-0.44091716408729553,-0.05478433147072792,0.3666432797908783,-0.25145426392555237,-0.6283551454544067,0.3285059928894043,0.7048923373222351,-0.4910716414451599,-0.20774608850479126,-0.04408181458711624,0.08485385775566101,0.32956549525260925,0.1285584717988968,0.19440481066703796,0.01632196269929409,-0.2954533100128174,0.13555507361888885,0.07312723249197006,0.008182795718312263,-0.06187457963824272,-0.25159963965415955,-0.12360671162605286,0.20244869589805603,-0.1803816854953766,-0.1015113964676857,-0.04393577203154564,0.06320245563983917,0.18383128941059113,-0.5782724022865295,0.09511499106884003,0.1146058514714241,0.07355102896690369,0.08135692775249481,0.08217386901378632,0.02004818432033062,-0.7595347166061401,-0.08834051340818405,-0.08037947863340378,-0.13537222146987915,-0.20980721712112427,-0.25992551445961,0.4797060191631317,-0.09177475422620773,-0.04498735070228577,-0.03027113899588585,-0.03113221563398838,0.006880396045744419,-0.3222614526748657,0.10796058177947998,0.1094929501414299,0.05458931624889374,0.06028404086828232,0.028285283595323563,-0.7722504734992981,-0.04293049871921539,0.017715105786919594,0.11329052597284317,0.024362601339817047,-0.3522355556488037,-0.4181961119174957,-0.08061062544584274,-0.0810047835111618,-0.04251294583082199,-0.024083999916911125,0.09054689109325409,-0.8594573736190796,-0.03672517091035843,0.17033930122852325,-0.586006760597229,0.4302278161048889,0.32037481665611267,0.09330525249242783,0.36962801218032837,-0.055217500776052475,0.7551224827766418,0.3116495907306671,0.07066573202610016,0.9002227783203125,-0.28796109557151794,-0.39660388231277466,0.507379412651062,-0.3815874457359314,0.023643234744668007,-0.5322885513305664,0.10718989372253418,-0.06728637963533401,0.1351945549249649,0.15971536934375763,0.3902409076690674,0.21556347608566284,-0.0163192730396986,-0.03163044899702072,0.15994925796985626,-0.29970473051071167,-0.015403253957629204,-0.22898933291435242,-0.03718506544828415,0.02091742493212223,-0.07034008949995041,-0.14754067361354828,-0.15664583444595337,0.11585733294487,-0.2339177280664444,-0.19679749011993408,-0.12147750705480576,-0.10103485733270645,-0.10889218747615814,0.14238420128822327,0.09539389610290527,0.029730908572673798,0.11681431531906128,0.013500997796654701,0.1523531973361969,0.16939127445220947,0.1383729726076126,0.10657603293657303,0.05932364612817764,0.06492737680673599,0.06285510212182999,-0.37305402755737305,0.013550880365073681,0.014600211754441261,-0.02842472679913044,-0.054783761501312256,-0.009174549020826817,0.6691219210624695,-0.01946330815553665,0.036387570202350616,-0.059291545301675797,0.04460402950644493,-0.06785799562931061,-0.25462692975997925,-0.023664528504014015,-0.00843165535479784,0.012042701244354248,0.011491172015666962,-0.013347580097615719,0.36622029542922974,-0.2652052938938141,0.36608007550239563,0.39037543535232544,0.18527363240718842,-0.0016557081835344434,-0.10720830410718918,-0.16153785586357117,-0.23736922442913055,0.6089687943458557,0.017423121258616447,0.29180002212524414,0.009776457212865353,0.3274427652359009,0.4366229772567749,0.23285740613937378,0.3004431426525116,-0.39845362305641174,-0.10542178899049759,-0.11371611058712006,-0.34614911675453186,0.2259298861026764,0.13048617541790009,0.14309538900852203,-0.07258319854736328,-0.07201366126537323,0.014763905666768551,-0.09908759593963623,-0.20173652470111847,-0.015634315088391304,-0.030521854758262634,0.1058465912938118,-0.343048095703125,0.1024930477142334,0.17256459593772888,0.13739576935768127,-0.21489602327346802,-0.06895765662193298,0.05997544527053833,-0.05759405344724655,0.01137183140963316,-0.10944327712059021,-0.591308057308197,0.08955036848783493,0.038301244378089905,-0.015484928153455257,0.09142352640628815,-0.056973181664943695,-0.08684643357992172,0.15473119914531708,0.11802032589912415,-0.17774245142936707,0.08209725469350815,0.07380817830562592,0.11780644953250885,0.1667191982269287,0.2447102963924408,0.11231018602848053,-0.057193655520677567,-0.3713773190975189,0.18726731836795807,-0.2734107971191406,0.004077472724020481,-0.060446638613939285,-0.05751517415046692,0.11539243906736374,-0.19628305733203888,0.06902188062667847,-0.12091737240552902,-0.06403708457946777,-0.21135127544403076,-0.5006679892539978,-0.016432644799351692,0.08683685213327408,-0.08052745461463928,0.07488565146923065,0.6254076957702637,-1.0519338846206665,0.2755380868911743,0.15497680008411407,0.9081164002418518,-0.258608877658844,0.3122730851173401,0.20542070269584656,-0.3915584087371826,0.46560174226760864,-0.029198331758379936,-0.5179091691970825,-0.0694548636674881,-0.2914145588874817,0.0891493707895279,-0.003924807999283075,0.2220989167690277,-0.018126124516129494,0.226318359375,-0.3466506898403168,-0.18738305568695068,-0.18774770200252533,-0.17634287476539612,-0.09885264933109283,-0.24488115310668945,0.08567094802856445,-0.14502470195293427,0.019421471282839775,0.1346004158258438,-0.06615865230560303,-0.04023115709424019,-0.29915937781333923,-0.3573378324508667,0.20336787402629852,-0.12984339892864227,0.19609534740447998,-0.06630723178386688,-0.31483906507492065,-0.18079787492752075,-0.12936227023601532,-0.13359616696834564,-0.2758210599422455,-0.2993086576461792,0.22983379662036896,-0.0542638823390007,0.15347319841384888,-0.07961121201515198,0.2804791331291199,0.2504013478755951,-0.06437365710735321,-0.0876242145895958,0.013913753442466259,0.013511165045201778,-0.06293616443872452,-0.2005581259727478,-0.1636817753314972,-0.36531367897987366,-0.16667404770851135,0.05885905399918556,0.026822583749890327,-0.06808333843946457,0.031862735748291016,0.034521251916885376,0.05448461323976517,-0.06041555851697922,0.006568455137312412,0.03423335775732994,-0.31177881360054016,-0.17600002884864807,0.5448155403137207,-0.03880982846021652,-0.28745684027671814,0.4773574769496918,0.20982247591018677,-0.15104135870933533,-0.20600256323814392,-0.2984699606895447,-0.2888704538345337,-0.4286518096923828,-0.4737069010734558,-0.37838342785835266,-0.47565141320228577,-0.11785907298326492,-0.45892104506492615,-0.007728996220976114,0.1955982744693756,0.02201158180832863,-0.05803992599248886,0.0014178237179294229,-0.16652996838092804,-0.13382567465305328,0.010373387485742569,0.0695522278547287,0.24462661147117615,-0.015535618178546429,-0.11466769874095917,0.11321627348661423,-0.06841237843036652,-0.3201936185359955,-0.19880573451519012,-0.24013365805149078,-0.15756981074810028,-0.048953138291835785,-0.21657001972198486,-0.010577256791293621,0.24783088266849518,0.0857420414686203,0.04908781126141548,-0.03136340528726578,0.22564606368541718,0.17123444378376007,-0.0035593032371252775,0.024263929575681686,0.09391298145055771,0.07785875350236893,0.24677346646785736,-0.05280884727835655,-0.16538333892822266,-0.06879023462533951,-0.09101619571447372,-0.11693356186151505,0.45014581084251404,-0.1209932342171669,0.062256280332803726,0.05145077034831047,0.04347154125571251,0.039658449590206146,-0.15080396831035614,-0.359675794839859,-0.028210828080773354,0.034237947314977646,0.05673540011048317,0.03069845773279667,0.007074124179780483,0.3393225073814392,0.01701698638498783,0.01581243984401226,0.06048921123147011,-0.0012694824254140258,0.01829645037651062,0.5427590012550354,0.13219016790390015,-0.2541319727897644,0.41712161898612976,0.2893393933773041,-0.008859878405928612,-0.25115522742271423,0.27273687720298767,-0.5648369193077087,-0.43968045711517334,0.24631114304065704,-0.14736586809158325,-0.4866808354854584,-0.08438298106193542,0.07945634424686432,-0.7664645314216614,0.07821229100227356,0.1293119192123413,0.39436113834381104,0.13936558365821838,-0.007742846384644508,-0.07932977378368378,-0.014485583640635014,0.10922392457723618,0.12175633758306503,-0.16769960522651672,-0.196048304438591,-0.16845567524433136,-0.32246342301368713,-0.1245470866560936,-0.03952788934111595,0.058066144585609436,0.14795416593551636,0.1979542374610901,0.2672467827796936,0.03395632654428482,-0.2231999784708023,0.15288591384887695,-0.06221669167280197,-0.16781042516231537,-0.03486328572034836,-0.032979149371385574,-0.09320271015167236,0.017642823979258537,0.2669655382633209,0.11055853217840195,0.04289233684539795,0.052592914551496506,-0.0770021453499794,0.5061556696891785,-0.0863666757941246,0.07587507367134094,-0.004588065203279257,0.0180909875780344,0.09514324367046356,0.4396441876888275,0.16605113446712494,0.1370154321193695,0.07994337379932404,0.3076820373535156,0.45145827531814575,0.10287415981292725,0.09767250716686249,0.18154001235961914,0.08950137346982956,0.04043489322066307,-0.2280287891626358,-0.31103676557540894,-0.14254535734653473,-0.2073017656803131,-0.12749485671520233,-0.24038220942020416,0.36082151532173157,0.2823794484138489,0.10030964016914368,0.39522963762283325,-0.12896715104579926,-0.16840529441833496,-0.1659107655286789,-0.5862271785736084,0.5861972570419312,0.42681506276130676,0.4466823935508728,0.41351309418678284,0.20267434418201447,0.2981867790222168,-0.33225107192993164,0.0345209464430809,-0.05630936473608017,0.49320077896118164,-0.3966476023197174,-0.11945612728595734,-0.20684434473514557,0.14001931250095367,0.26336634159088135,0.1415024995803833,0.46145594120025635,0.11213918775320053,0.33977341651916504,0.14047805964946747,-0.0932714194059372,-0.14165478944778442,-0.22777122259140015,0.055330000817775726,0.07042776048183441,-0.10223405808210373,0.10182709246873856,-0.14638851583003998,0.008998752571642399,0.04826739802956581,0.0741431936621666,-0.0024685461539775133,0.3850090503692627,0.1636790633201599,0.09036201238632202,0.00020704910275526345,0.1269187033176422,0.11751259863376617,-0.38808339834213257,-0.07141920179128647,-0.06004582345485687,-0.08633061498403549,-0.16426768898963928,-0.03757297247648239,0.6775884628295898,-0.12663514912128448,-0.00292529771104455,-0.07678527384996414,0.07483100891113281,-0.24029262363910675,-0.3030608594417572,-0.015131555497646332,0.0726226344704628,-0.030672091990709305,-0.3766321837902069,-0.1612292230129242,0.14308777451515198,-0.0624309666454792,0.10876796394586563,0.19751882553100586,0.05486736819148064,0.20254503190517426,0.1196848526597023,-0.09655703604221344,-0.0553542859852314,-0.24793851375579834,-0.4602816104888916,0.3184172511100769,0.5452339053153992,0.21039073169231415,-0.13994958996772766,-0.4482131600379944,0.4912925660610199,0.12742136418819427,-0.42183929681777954,0.9295957088470459,0.29410019516944885,0.27730995416641235,-0.38268834352493286,0.05297141522169113,-0.6468543410301208,0.3399489223957062,-0.11213161051273346,-0.0071968683041632175,-0.20595791935920715,-0.11961232870817184,0.08330783993005753,0.3514329791069031,-0.40265750885009766,-0.10487688332796097,-0.08790665864944458,0.08759119361639023,0.24268344044685364,0.05129895359277725,-0.13601243495941162,-0.005155186168849468,0.23919564485549927,0.04195964336395264,-0.3057222068309784,-0.18493695557117462,0.18695184588432312,0.060867421329021454,0.125044584274292,0.21015490591526031,0.01611921191215515,0.09708278626203537,-0.0565919503569603,0.04224861413240433,0.053675487637519836,-0.0515250489115715,-0.04225568473339081,-0.1854390799999237,0.10588634014129639,-0.050595857203006744,-0.1438622921705246,-0.18146876990795135,0.07223165035247803,0.054730623960494995,-0.5206162929534912,-0.007099253591150045,-0.0513346865773201,0.008251764811575413,0.04842676967382431,0.18945357203483582,0.9628407955169678,0.024751923978328705,0.019037090241909027,0.041952673345804214,-0.02462126687169075,-0.0831775963306427,-0.4735078513622284,-0.003085109405219555,0.03887765854597092,-0.027479296550154686,-0.0069761257618665695,-0.16656123101711273,0.7371048331260681,0.4838324189186096,0.17586517333984375,0.10007631778717041,-0.1152338981628418,0.107679583132267,0.4415321350097656,-0.30750060081481934,-0.3660261034965515,-0.9428744912147522,0.5177702307701111,-0.5504750609397888,-0.7050041556358337,0.19084279239177704,-0.1231846734881401,-0.06226818263530731,-0.3373172879219055,-0.4525013267993927,0.4010532796382904,-0.09760508686304092,-0.09273514151573181,0.045304011553525925,0.025652607902884483,-0.3059329688549042,-0.2356487661600113,-0.029744789004325867,-0.0547909289598465,0.2437581717967987,0.143239364027977,-0.5713503360748291,-0.2953077554702759,0.05775127932429314,0.032858312129974365,-0.20472432672977448,0.103578120470047,-0.012999997474253178,-0.07531291246414185,-0.03913693502545357,-0.09417981654405594,-0.026311935856938362,-0.16440899670124054,0.09165255725383759,-0.31617239117622375,-0.031902555376291275,0.05914365500211716,0.10838232934474945,-0.08965510874986649,0.2748555839061737,-0.050082530826330185,0.05368182063102722,0.053307078778743744,0.06258644908666611,0.07707136124372482,-0.15864910185337067,-0.20924392342567444,0.007819071412086487,-0.08812496066093445,-0.09626870602369308,0.08571480959653854,-0.19724181294441223,0.04257342591881752,0.04910245165228844,0.10378269851207733,0.2000257968902588,-0.06181749701499939,0.3442176580429077,-0.27793896198272705,0.0590149462223053,0.08115889877080917,0.13488562405109406,-0.16679589450359344,0.18008922040462494,-0.1871323138475418,0.20537428557872772,0.22870010137557983,-0.023091502487659454,0.020013190805912018,0.7607244253158569,0.2224268615245819,0.15238544344902039,-0.4749675691127777,0.2605038285255432,0.5267180800437927,-0.33163782954216003,0.3611401319503784,-0.2008354812860489,0.33235934376716614,-0.24224622547626495,-0.22206412255764008,-0.1303124725818634,-0.3771553039550781,0.06565037369728088,-0.025037668645381927,0.08026215434074402,0.002813609316945076,0.00007452069985447451,0.0482284240424633,0.031460244208574295,-0.06520719081163406,0.03000814840197563,-0.02631221152842045,0.14268791675567627,0.1951638162136078,-0.7863481044769287,0.27278730273246765,0.5342233777046204,-0.0170099139213562,0.011684443801641464,-0.07136541604995728,0.006651779171079397,-0.02115853689610958,0.005552230402827263,0.01624991185963154,-0.016937805339694023,-0.02009761705994606,-0.013474823907017708,-0.05224458500742912,0.01729825884103775,0.23394334316253662,-0.26908421516418457,0.04428904503583908,-0.0037553557194769382,0.002274849684908986,0.057123105973005295,-0.14014630019664764,0.00883165281265974,0.02414233796298504,-0.029711779206991196,0.007575829513370991,-0.08142731338739395,0.03293764591217041,0.17295871675014496,0.1898893415927887,-0.6271002292633057,0.2182064801454544,0.5137779116630554,-0.13487792015075684,-0.2506588399410248,-0.10119161754846573,0.12499203532934189,0.24916622042655945,0.05865268409252167,-0.09470566362142563,0.021456768736243248,-0.28107088804244995,-0.38063138723373413,-0.16246438026428223,-0.24634991586208344,-0.06056808680295944,-0.019457874819636345,-0.38086163997650146,0.1840212047100067,0.12772902846336365,-0.008717363700270653,0.004083361476659775,0.06597726047039032,0.1325216293334961,0.24218066036701202,0.10094242542982101,0.1483934223651886,0.03453469276428223,0.10419169068336487,-0.027244264259934425,-0.060754477977752686,0.07633030414581299,0.12016332149505615,0.026464972645044327,-0.01952841691672802,-0.32323479652404785,-0.07198002934455872,0.2539338767528534,0.3098697364330292,0.06481576710939407,-0.013222388923168182,-0.050245922058820724,-0.21171945333480835,-0.33132243156433105,-0.31002071499824524,-0.29751041531562805,-0.061482492834329605,0.3211562931537628,-0.15287192165851593,-0.056083209812641144,-0.12828359007835388,-0.11230297386646271,-0.07219372689723969,-0.20276261866092682,0.008268485777080059,-0.18178917467594147,-0.036690037697553635,0.0742264911532402,-0.0171650480479002,-0.1853281557559967,-0.05059870705008507,-0.13916443288326263,0.023884551599621773,-0.09359507262706757,0.016179963946342468,0.050390779972076416,0.07276511937379837,0.07372017949819565,0.052896689623594284,-0.07400883734226227,0.0704629048705101,0.02362525463104248,-0.05506138131022453,0.09534449875354767,-0.06548786908388138,-0.21865954995155334,-0.025485580787062645,0.03143635019659996,0.031213270500302315,0.21762911975383759,-0.08025772124528885,0.04367315024137497,0.1359167993068695,-0.085215263068676,0.054865382611751556,0.2668321132659912,0.18375808000564575,0.22399766743183136,-0.01101900078356266,0.023091457784175873,-0.21306449174880981,-0.3962566554546356,-0.2970176637172699,0.20452740788459778,0.2916283905506134,0.1547667533159256,-0.12717927992343903,-0.296935498714447,-0.10116603970527649,-1.1426935195922852,0.12599706649780273,-0.5414553284645081,-0.39391419291496277,-0.03555870056152344,-0.22841793298721313,-0.7850436568260193,-0.4074486792087555,0.09952858835458755,-0.026355788111686707,-0.08604269474744797,0.09971427172422409,0.036350395530462265,0.04623651131987572,0.030476685613393784,-0.01537361927330494,0.06266198307275772,0.010548293590545654,0.02353881672024727,0.023458052426576614,0.051862478256225586,-0.0432499460875988,-0.046792563050985336,-0.1868039220571518,-0.10623496025800705,0.032318226993083954,-0.2493014633655548,-0.17415520548820496,-0.14202289283275604,-0.05642031505703926,0.006249026861041784,-0.10121124982833862,-0.08063539862632751,-0.07899133861064911,-0.08631492406129837,-0.12302400916814804,-0.1868637651205063,0.03502858430147171,0.07029576599597931,0.04363865777850151,-0.009206161834299564,-0.305459201335907,0.09619659930467606,-0.0705658420920372,0.05891483277082443,0.008924617432057858,0.0696539506316185,-0.007037553936243057,0.08515902608633041,0.04628821834921837,-0.016931263729929924,0.007206927519291639,-0.027734985575079918,-0.08150708675384521,-0.11315706372261047,0.1635894477367401,-0.3850769102573395,-0.2034548819065094,-0.07691411674022675,-0.0037733004428446293,0.05884042754769325,0.0477069690823555,-0.22253531217575073,-0.4283154606819153,-0.031194908544421196,-0.18474775552749634,0.11185487359762192,0.21800826489925385,-0.3731456398963928,0.5626189708709717,-0.7227520942687988,-0.22904111444950104,0.006093491334468126,-0.17421038448810577,-0.024162426590919495,-0.2996446490287781,-0.33376798033714294,-0.04201878607273102,0.04792890325188637,0.0637141764163971,-0.3287472724914551,-0.2519749701023102,-0.13369128108024597,-0.03677159547805786,-0.10079129785299301,0.002350165043026209,-0.7139725089073181,-0.008118422701954842,0.1408950537443161,-0.11908042430877686,-0.13057659566402435,-0.21258072555065155,-0.08878713101148605,0.47093936800956726,0.1440487951040268,-0.06139698624610901,0.017824726179242134,-0.3112904131412506,-0.3144068717956543,0.5608193278312683,-1.0695216655731201,-0.6014736294746399,-0.29576629400253296,-0.1449546217918396,-0.1432129442691803,-0.1533539891242981,-0.1617564857006073,-0.1433575600385666,-0.19430439174175262,-0.16081494092941284,-0.16625143587589264,-0.15739651024341583,-0.19485820829868317,-0.01319002266973257,-0.0692552849650383,-0.013111790642142296,0.14379596710205078,0.09792017936706543,0.19051849842071533,0.09354181587696075,-0.07810110598802567,-0.18190661072731018,-0.30597010254859924,-0.15985722839832306,-0.3025035262107849,-0.16994504630565643,-0.2345743030309677,-0.2966369092464447,-0.24075131118297577,-0.2998042702674866,-0.2059805989265442,-0.10146664083003998,0.16566818952560425,0.1566261500120163,0.07769712060689926,0.04658890143036842,-0.04469088837504387,-0.039341866970062256,0.07226308435201645,-0.11386896669864655,-0.1288968026638031,-0.20774979889392853,-0.1961219310760498,-0.16086255013942719,-0.36349552869796753,-0.23612262308597565,-0.0012204056838527322,0.02490849606692791,0.14761817455291748,0.1217481940984726,0.5103288292884827,-0.15609993040561676,0.5124083161354065,-0.3437213599681854,0.03829069063067436,0.018590878695249557,0.4157436192035675,0.3130156993865967,0.2553034722805023,0.30964407324790955,-0.045217737555503845,0.5958777070045471,-0.12967549264431,-0.19180776178836823,0.052207279950380325,-0.06866578012704849,-0.08199988305568695,-0.14142906665802002,-0.1709783524274826,-0.2697899639606476,-0.2090747058391571,0.08126530796289444,-0.06531071662902832,0.21702440083026886,-0.04560481384396553,0.14602576196193695,-0.08095929771661758,-0.014574597589671612,0.08216127008199692,-0.3534370958805084,-0.06719060242176056,0.010112717747688293,0.14766673743724823,-0.05157923325896263,-0.16554775834083557,0.21644417941570282,-0.09279055893421173,-0.09601470082998276,-0.0248769149184227,-0.1700153946876526,-0.02600906975567341,0.16161444783210754,0.11069393903017044,0.010305407457053661,-0.23279935121536255,-0.08539840579032898,-0.03934274613857269,-0.0675463154911995,0.00924406573176384,-0.007068964187055826,0.017300600185990334,-0.07646618783473969,0.06689604371786118,-0.08772710710763931,0.14921881258487701,-0.051414381712675095,0.08734114468097687,0.06344781070947647,-0.07099488377571106,0.14938762784004211,0.222056046128273,0.3136148750782013,-0.12853826582431793,0.2419523447751999,0.34063521027565,0.15160278975963593,0.17908978462219238,0.21029032766819,0.19972990453243256,0.2858007252216339,0.17705433070659637,0.16574479639530182,-0.4534516930580139,-0.11813084036111832,0.190560445189476,-0.18276812136173248,0.11745624244213104,0.03528311476111412,0.2791828513145447,-0.15697123110294342,0.05509118363261223,-0.653527557849884,-0.245742067694664,0.20835372805595398,0.2303275465965271,0.005736867897212505,-0.056712619960308075,-0.17422141134738922,0.35412120819091797,-0.6433796286582947,-0.5397667288780212,0.07347999513149261,-0.12197317183017731,-0.09754849970340729,0.00854068249464035,0.02858126349747181,-0.1080370843410492,0.008095222525298595,0.19147317111492157,0.08287373185157776,0.22548498213291168,-0.09484738856554031,0.054913606494665146,-0.07750502228736877,-0.009132016450166702,-0.18107667565345764,0.10562784969806671,0.09542549401521683,0.2629067897796631,-0.09260795265436172,-0.1529311090707779,0.014555866830050945,-0.038200199604034424,0.005328436382114887,-0.15179263055324554,0.17420312762260437,-0.22915586829185486,-0.16716361045837402,0.07143078744411469,0.041734278202056885,0.083535335958004,-0.007785335183143616,0.14323808252811432,-0.021131014451384544,-0.17640775442123413,-0.11162494868040085,0.22829444706439972,0.11555676907300949,0.214261993765831,0.006811813917011023,-0.04057195782661438,0.04242435842752457,-0.06429433077573776,-0.0764356255531311,-0.045655377209186554,-0.13187767565250397,0.028544219210743904,-0.05978601053357124,0.013295355252921581,0.11416211724281311,0.14589910209178925,0.12990796566009521,-0.14279805123806,-0.050614889711141586,0.4473715126514435,0.08070702105760574,-0.010511130094528198,-0.03509131073951721,0.037320856004953384,0.15269923210144043,-0.552527129650116,0.2956351637840271,-0.40568628907203674,0.43854689598083496,-0.14121048152446747,0.1446310132741928,0.12795184552669525,-0.23287926614284515,-0.2620650827884674,0.03309856727719307,-0.0621635839343071,-0.0013163209659978747,0.07680751383304596,-0.27858251333236694,-0.20745760202407837,-0.08672977238893509,-0.07871583849191666,0.05661914870142937,0.2729094624519348,0.23162269592285156,0.23573778569698334,0.029872259125113487,-0.07535935193300247,-0.17715942859649658,-0.056022606790065765,-0.24891825020313263,0.15940994024276733,0.14849813282489777,0.020327027887105942,-0.13548022508621216,-0.2509537935256958,0.12817296385765076,0.07585432380437851,0.16585607826709747,0.2966149151325226,0.40182361006736755,0.12667295336723328,-0.18720269203186035,0.41674697399139404,0.12733806669712067,0.08489096909761429,-0.1923767477273941,-0.09890546649694443,0.26451733708381653,-0.09856262803077698,0.06659446656703949,0.010661507025361061,0.01760839857161045,0.1951509267091751,-0.05226127430796623,0.2832998037338257,0.09773959219455719,-0.020612293854355812,0.011504093185067177,0.13236671686172485,-0.04064210504293442,0.13217227160930634,0.10338260978460312,0.14168985188007355,-0.01370137371122837,-0.0841551199555397,0.044626981019973755,-0.15610018372535706,0.15326030552387238,0.035940613597631454,-0.12928670644760132,-0.1321776956319809,0.0005290618282742798,0.43213823437690735,0.2560075521469116,0.22437694668769836,-0.7207531929016113,-0.3510642349720001,0.5325937271118164,0.03049234114587307,-0.18129771947860718,0.2535499334335327,0.08065708726644516,0.41695961356163025,0.040022797882556915,-0.14837445318698883,-0.10930043458938599,-0.022013170644640923,0.07041916251182556,0.24732209742069244,0.08485972136259079,-0.29993733763694763,0.20056697726249695,0.030058929696679115,-0.026956243440508842,-0.04846372827887535,-0.023629190400242805,-0.1275779753923416,0.08141771703958511,0.05232918635010719,0.001587757607921958,-0.16088299453258514,-0.11991839855909348,0.16153863072395325,-0.26702287793159485,-0.10078386962413788,-0.23400656878948212,-0.27013930678367615,-0.03777442127466202,-0.07796301692724228,0.03241827338933945,0.03356710448861122,-0.08228446543216705,-0.10766033828258514,0.06944596767425537,0.3251987099647522,0.028527354821562767,0.12636356055736542,0.22452732920646667,0.06921716779470444,-0.184322327375412,-0.21387013792991638,-0.1491416096687317,-0.22793135046958923,-0.22212675213813782,-0.33150342106819153,-0.2973492443561554,0.3069901764392853,0.13220301270484924,-0.018943823873996735,0.11034111678600311,0.46307602524757385,0.12369871139526367,0.2662712633609772,0.10349459201097488,0.22591905295848846,0.3323955237865448,-0.08056092262268066,0.2226572334766388,0.22812782227993011,0.32260948419570923,0.00817188061773777,0.12282219529151917,-0.7604812979698181,-0.058726485818624496,0.11472141742706299,0.2859613001346588,0.031270746141672134,-0.5621729493141174,0.07625092566013336,-0.529975414276123,-0.0546964667737484,-0.3349938988685608,0.21372942626476288,0.05661677569150925,-0.4144655764102936,-0.39046725630760193,-0.5206740498542786,-0.3111499547958374,-0.3205464780330658,-0.17751365900039673,0.046448033303022385,0.08837039023637772,-0.2867545783519745,0.05836058780550957,0.3577118515968323,0.048026423901319504,0.026685230433940887,0.25687551498413086,-0.4164358675479889,0.3171652555465698,0.11521410942077637,0.03389643132686615,0.10278568416833878,-0.06905221939086914,-0.18198397755622864,-0.3163734972476959,-0.16298450529575348,0.00863331463187933,0.03866036608815193,-0.38356828689575195,0.10602014511823654,0.09326422214508057,0.2308000773191452,0.1276964247226715,-0.03649573028087616,-0.006457173731178045,0.6600282788276672,0.06394954770803452,0.03104001097381115,0.05778316780924797,0.29615670442581177,-0.09281276166439056,-0.37241533398628235,0.031726717948913574,0.14226581156253815,0.03560064360499382,0.10638456046581268,0.12217534333467484,0.12419735640287399,0.035556454211473465,-0.06446654349565506,-0.0037089448887854815,-0.0022307485342025757,-0.06278494000434875,-0.006266576703637838,-0.0691896304488182,-0.08409097790718079,-0.12295309454202652,-0.07448586821556091,-0.01649879850447178,0.03643175587058067,-0.14776740968227386,-0.128489151597023,0.006118548568338156,-0.03844637796282768,-0.11832791566848755,-0.002563566667959094,-0.09501326084136963,0.41145461797714233,0.08161989599466324,0.3658464550971985,-0.4712834060192108,0.0029996028169989586,-0.11293183267116547,-0.15084025263786316,0.020393209531903267,-0.17523780465126038,-0.24812638759613037,-0.36710429191589355,0.0998317152261734,-0.041836779564619064,-0.0506431944668293,-0.04241354390978813,0.13394087553024292,0.023864250630140305,0.008351623080670834,-0.19756853580474854,0.021199416369199753,0.05771496519446373,-0.05135514214634895,0.04226192831993103,-0.06382745504379272,0.040279570966959,0.1311917006969452,0.02974032796919346,-0.07254406809806824,0.07488996535539627,0.07867740839719772,-0.06353497505187988,-0.007674864958971739,0.11094740778207779,-0.002506569027900696,0.0002823656250257045,-0.03972027823328972,-0.12084311246871948,-0.014397655613720417,-0.013988401740789413,0.03908154368400574,0.10080308467149734,-0.0403914749622345,0.07192596048116684,-0.021184129640460014,-0.05157656595110893,-0.02805974707007408,0.1083611398935318,-0.04203202575445175,0.1175968274474144,0.09300994127988815,-0.08520679920911789,-0.08114747703075409,0.11067885160446167,0.04049745202064514,0.1597137600183487,0.0005262635531835258,-0.025623267516493797,0.06768480688333511,0.023135824128985405,-0.02050863392651081,-0.1271287053823471,-0.1425144374370575,0.004638157784938812,0.02637171559035778,-0.15671424567699432,-0.03291436657309532,-0.08469779044389725,0.08225452154874802,-0.07661871612071991,0.29283827543258667,-0.26878347992897034,-0.11231998354196548,-0.011404145509004593,-0.5243315100669861,0.26470378041267395,0.18253043293952942,-0.12043027579784393,-0.09944536536931992,-0.4590664803981781,0.36814743280410767,-0.06048065051436424,0.23022407293319702,0.04557650163769722,0.014819969423115253,-0.0025169055443257093,0.010392929427325726,-0.03265872970223427,-0.29650038480758667,-0.2758396565914154,-0.06796629726886749,-0.004354990553110838,0.023919828236103058,0.0629633367061615,-0.3613782227039337,-0.06752381473779678,0.03504744917154312,0.05573166161775589,0.05421886220574379,-0.016569791361689568,0.3700619339942932,-0.10052768141031265,0.012798253446817398,-0.018143732100725174,0.013683403842151165,0.04928696155548096,-0.2516007721424103,-0.34569770097732544,-0.014330068603157997,-0.019992083311080933,0.06849157065153122,0.05681144818663597,-0.1502925306558609,0.28744667768478394,0.00861563440412283,0.02523503080010414,-0.022584347054362297,0.006262570153921843,0.23749355971813202,-0.288799524307251,0.02091401442885399,0.07065009325742722,-0.036204203963279724,-0.06632864475250244,0.082663893699646,-0.03907053545117378,-0.0057427966967225075,-0.0566428042948246,-0.024858471006155014,0.0452730618417263,-0.16944460570812225,-0.2927855849266052,0.012022960931062698,0.015401837415993214,0.00888276007026434,0.04782012850046158,-0.1368769109249115,0.021134279668331146,0.07468372583389282,0.17350126802921295,-0.012544509954750538,0.08924155682325363,-0.14292289316654205,0.32743918895721436,0.4162098467350006,-0.00858832336962223,0.5327888131141663,0.11612158268690109,0.18631941080093384,-0.07476914674043655,-0.32249006628990173,-0.3899204134941101,-0.36959829926490784,-0.3457287847995758,0.4948616325855255,-0.35605674982070923,-0.021294740960001945,-0.05249500274658203,-0.06997624039649963,-0.06495066732168198,-0.05716075748205185,-0.05900319293141365,-0.09051866829395294,-0.14772723615169525,-0.20009034872055054,-0.20302073657512665,-0.1393856704235077,-0.029813459143042564,0.05538502335548401,0.08879576623439789,0.07006580382585526,0.026290273293852806,-0.056033432483673096,-0.15756963193416595,-0.2363416999578476,-0.24378922581672668,-0.1858394593000412,-0.1007065623998642,-0.0063833193853497505,0.08574145287275314,0.17548918724060059,0.23126597702503204,0.1950298696756363,0.08283861726522446,-0.03303217887878418,-0.09808491170406342,-0.08591097593307495,-0.03278017416596413,0.021357160061597824,0.0671396479010582,0.10487634688615799,0.13306061923503876,0.1579328179359436,0.17139171063899994,0.18280579149723053,0.18658775091171265,0.16296885907649994,0.12275566160678864,0.08136570453643799,0.044637348502874374,0.012227097526192665,-0.005352127365767956,-0.012459229677915573,-0.006172179710119963,-0.03304380178451538,0.00631102172167688],"sample_rate":48000}},{"max_value":1,"model":{"version":"0.7.0","metadata":{"date":{"year":2026,"month":6,"day":4,"hour":13,"minute":1,"second":33},"loudness":-24.29298540211859,"gain":0.6887964182798034},"architecture":"WaveNet","config":{"layers":[{"input_size":1,"condition_size":1,"head":{"out_channels":1,"kernel_size":16,"bias":true},"channels":8,"kernel_sizes":[6,6,6,6,6,6,6,6,6,6,6,6,6,6,15,15,6,6,6,6,6,6,6],"dilations":[1,3,7,17,41,101,239,1,3,7,17,41,101,239,1,13,1,3,7,17,41,101,239],"activation":[{"type":"LeakyReLU","negative_slope":0.01},{"type":"LeakyReLU","negative_slope":0.01},{"type":"LeakyReLU","negative_slope":0.01},{"type":"LeakyReLU","negative_slope":0.01},{"type":"LeakyReLU","negative_slope":0.01},{"type":"LeakyReLU","negative_slope":0.01},{"type":"LeakyReLU","negative_slope":0.01},{"type":"LeakyReLU","negative_slope":0.01},{"type":"LeakyReLU","negative_slope":0.01},{"type":"LeakyReLU","negative_slope":0.01},{"type":"LeakyReLU","negative_slope":0.01},{"type":"LeakyReLU","negative_slope":0.01},{"type":"LeakyReLU","negative_slope":0.01},{"type":"LeakyReLU","negative_slope":0.01},{"type":"LeakyReLU","negative_slope":0.01},{"type":"LeakyReLU","negative_slope":0.01},{"type":"LeakyReLU","negative_slope":0.01},{"type":"LeakyReLU","negative_slope":0.01},{"type":"LeakyReLU","negative_slope":0.01},{"type":"LeakyReLU","negative_slope":0.01},{"type":"LeakyReLU","negative_slope":0.01},{"type":"LeakyReLU","negative_slope":0.01},{"type":"LeakyReLU","negative_slope":0.01}],"bottleneck":8,"head1x1":{"active":false,"out_channels":1,"groups":1},"layer1x1":{"active":true,"groups":1},"groups_input":1,"groups_input_mixin":1,"conv_pre_film":{"active":false,"shift":true,"groups":1},"conv_post_film":{"active":false,"shift":true,"groups":1},"input_mixin_pre_film":{"active":false,"shift":true,"groups":1},"input_mixin_post_film":{"active":false,"shift":true,"groups":1},"activation_pre_film":{"active":false,"shift":true,"groups":1},"activation_post_film":{"active":false,"shift":true,"groups":1},"layer1x1_post_film":{"active":false,"shift":true,"groups":1},"head1x1_post_film":{"active":false,"shift":true,"groups":1},"gating_mode":["none","none","none","none","none","none","none","none","none","none","none","none","none","none","none","none","none","none","none","none","none","none","none"],"secondary_activation":[null,null,null,null,null,null,null,null,null,null,null,null,null,null,null,null,null,null,null,null,null,null,null],"slimmable":null}],"head":null,"head_scale":0.006311021862739212},"weights":[-0.5462371110916138,-0.2483527958393097,0.25322824716567993,0.5042507648468018,-0.6352779865264893,-0.6018599271774292,0.5792186260223389,0.9268079400062561,-0.01274491660296917,0.025060834363102913,-0.021608345210552216,-0.1281110793352127,-0.1256595253944397,0.19358158111572266,0.010341373272240162,-0.06503620743751526,-0.017943738028407097,-0.1358964592218399,-0.1657317876815796,0.11232466995716095,-0.018665505573153496,0.022618290036916733,0.0016284806188195944,0.07546520233154297,0.12355249375104904,-0.15102817118167877,-0.08495384454727173,0.07716991007328033,0.02639685571193695,0.12688644230365753,0.17208442091941833,-0.1967957764863968,0.0005083619616925716,0.014848618768155575,-0.019767478108406067,-0.14146366715431213,-0.1776050478219986,0.21588599681854248,0.0692075863480568,0.032820746302604675,-0.0012666427064687014,-0.14458857476711273,-0.2023770660161972,0.2896275222301483,-0.05134901404380798,-0.0012040217407047749,0.05125674232840538,0.09193199872970581,0.20783457159996033,-0.2685340642929077,0.05007101222872734,-0.05158161744475365,0.09973914921283722,0.3009982109069824,0.25982871651649475,-0.27841684222221375,0.12110810726881027,-0.07655753195285797,0.040294185280799866,-0.1632717251777649,-0.309314101934433,0.22042052447795868,0.07296910881996155,-0.01262829452753067,0.05231023579835892,-0.06356411427259445,-0.1987592875957489,0.17260341346263885,-0.0157158300280571,0.062181659042835236,-0.09731990098953247,0.052625156939029694,0.1591506004333496,-0.17169921100139618,-0.10082576423883438,0.12387369573116302,0.00542772002518177,0.17551609873771667,0.3448856472969055,-0.25918784737586975,0.05147130787372589,0.03699558973312378,-0.012820180505514145,-0.0627240464091301,-0.29865625500679016,0.2776147723197937,0.017515752464532852,0.0007713534287177026,-0.01760098710656166,-0.13157516717910767,-0.2746345102787018,0.23441718518733978,0.020490745082497597,0.12452585250139236,0.030371958389878273,0.19136661291122437,0.3676479756832123,-0.21516083180904388,-0.12943072617053986,0.007458165287971497,-0.047394465655088425,0.10261950641870499,0.4053880274295807,-0.20978917181491852,-0.06274867057800293,0.004678057041019201,0.12104637175798416,-0.016525210812687874,-0.3780537545681,0.13442035019397736,-0.010951186530292034,0.006198088638484478,0.06193096190690994,-0.04689623415470123,-0.24807588756084442,0.19480067491531372,0.06515108793973923,-0.0404774509370327,-0.052746083587408066,-0.038291122764348984,0.22280669212341309,-0.10992349684238434,0.16463428735733032,-0.06783254444599152,-0.13053786754608154,0.10871569067239761,0.37841933965682983,-0.1333197057247162,-0.020195607095956802,-0.1014767736196518,0.1084916889667511,-0.14851953089237213,-0.3014502227306366,0.14176636934280396,-0.10694777965545654,0.005667466204613447,0.01792001537978649,-0.05918627604842186,-0.3908935785293579,0.1158442422747612,0.11569612473249435,-0.01415491383522749,-0.08638371527194977,0.027107514441013336,0.25529932975769043,-0.2609837055206299,0.15189845860004425,0.0698041245341301,-0.019279858097434044,0.004404659848660231,0.3865862786769867,-0.22863911092281342,0.00019297415565233678,0.0015784219140186906,0.0019716587848961353,0.001695590908639133,0.0009890786604955792,0.0010955081088468432,-0.00020188472990412265,0.0008261514012701809,0.0011228820076212287,0.0008963585714809597,0.0003707007272168994,0.0005722327623516321,0.00010782749450299889,-0.0009257372585125268,-0.0012232543667778373,-0.0009957791771739721,-0.00046728228335268795,-0.0006637530750595033,-0.0002348819689359516,-0.0015902045415714383,-0.001975851831957698,-0.001703344751149416,-0.0010145303094759583,-0.0011342609068378806,0.00020813773153349757,0.0016491698333993554,0.0020517967641353607,0.001770439208485186,0.0010319174034520984,0.001106807729229331,0.00016999911167658865,0.0015920354053378105,0.001990905962884426,0.0017096793744713068,0.0009817712707445025,0.001068155630491674,-0.00016453140415251255,-0.0015707105631008744,-0.0019650948233902454,-0.001686064526438713,-0.0009684002143330872,-0.0010675059165805578,-0.00001266747585759731,-0.0015741914976388216,-0.001982907298952341,-0.001684996415860951,-0.0008655328419990838,-0.0008544007432647049,0.04265998303890228,-0.008730974048376083,0.1296769380569458,-0.37261250615119934,0.07886878401041031,0.12053365260362625,0.01743324100971222,0.004427476320415735,0.05642491951584816,-0.17748881876468658,0.05015583708882332,0.05611158907413483,-0.01331995241343975,-0.0035615742672234774,-0.050407007336616516,0.16844244301319122,-0.046458899974823,-0.050597768276929855,-0.048542436212301254,0.009920652024447918,-0.13043804466724396,0.37341007590293884,-0.07180523872375488,-0.12174628674983978,0.05130409449338913,-0.016151240095496178,0.1556490957736969,-0.4425802230834961,0.07482351362705231,0.1474156379699707,0.042101021856069565,-0.005414981860667467,0.13548649847507477,-0.39879143238067627,0.07889770716428757,0.13013403117656708,-0.044903770089149475,0.00925162248313427,-0.1347840279340744,0.39871224761009216,-0.08389607816934586,-0.12960205972194672,-0.07395435124635696,0.009464546106755733,-0.19669084250926971,0.5993326306343079,-0.10417486727237701,-0.20596903562545776,0.14690856635570526,0.12437780946493149,0.022656217217445374,-0.09579221159219742,-0.1871226727962494,-0.10212044417858124,0.058955054730176926,0.06534238904714584,0.0014342908980324864,-0.040908243507146835,-0.0803254097700119,-0.0544227696955204,-0.04748202860355377,-0.051273465156555176,0.004077725578099489,0.04235551878809929,0.08293569087982178,0.04979049414396286,-0.0926521047949791,-0.14520739018917084,-0.0309444610029459,0.07606634497642517,0.19530943036079407,0.13006822764873505,0.16235916316509247,0.09795405715703964,0.01433094684034586,-0.1021777093410492,-0.17859286069869995,-0.11917605996131897,0.14418931305408478,0.11658596247434616,-0.004710400011390448,-0.1101386696100235,-0.19169756770133972,-0.11463858187198639,-0.14064593613147736,-0.09867708384990692,-0.009031593799591064,0.08286084234714508,0.17906668782234192,0.10511577129364014,-0.1820562332868576,-0.1580972522497177,-0.00227704388089478,0.1087677851319313,0.291615754365921,0.23677372932434082,-0.1192190870642662,0.1148250475525856,-0.0481213703751564,0.2491288185119629,-0.1478939652442932,-0.23679105937480927,-0.03538766875863075,0.04637117683887482,-0.029238780960440636,0.16523206233978271,-0.056263186037540436,-0.11519739776849747,0.03461262211203575,-0.050428301095962524,0.02184676192700863,-0.1600816547870636,0.05238329991698265,0.10111303627490997,0.06597281247377396,-0.09566178172826767,-0.021782996132969856,-0.2860439419746399,0.13533498346805573,0.21086640655994415,-0.08836739510297775,0.07567252218723297,-0.05092945694923401,0.3437802493572235,-0.1810336410999298,-0.22572758793830872,-0.10981588065624237,0.08387278020381927,-0.020881570875644684,0.29353320598602295,-0.1373225450515747,-0.28554046154022217,0.09673940390348434,-0.08460872620344162,-0.0021173988934606314,-0.3093661963939667,0.1848740130662918,0.2133459746837616,0.14849065244197845,-0.19554534554481506,0.036828264594078064,-0.42390480637550354,0.28220823407173157,0.26358380913734436,-0.09404469281435013,0.022505421191453934,0.06343616545200348,-0.23215143382549286,-0.2612301707267761,0.31069210171699524,-0.027877969667315483,0.03146474063396454,-0.06145542487502098,-0.12014108896255493,-0.19637972116470337,0.2388334572315216,0.017470378428697586,-0.08314312249422073,-0.004930978640913963,0.08548522740602493,0.11514797061681747,-0.2132253795862198,-0.02591582201421261,0.06669754534959793,-0.058168161660432816,0.06242506206035614,0.17666813731193542,-0.21646392345428467,0.022346852347254753,0.02366621233522892,-0.05146702006459236,-0.21571266651153564,-0.24147379398345947,0.1856958568096161,0.09809217602014542,-0.06222003325819969,-0.07026812434196472,-0.21641235053539276,-0.2249218374490738,0.3175903558731079,0.09669846296310425,-0.11779862642288208,0.008084970526397228,0.1978137195110321,0.25500738620758057,-0.14966845512390137,0.0019722527358680964,-0.10667863488197327,0.1083654835820198,0.11305014044046402,0.29508018493652344,-0.27981191873550415,0.02666759118437767,0.25790518522262573,0.23399022221565247,-0.03091631643474102,-0.10713233798742294,-0.12137205898761749,-0.3453042209148407,0.1159067377448082,-0.4391857385635376,-0.19420534372329712,-0.31500375270843506,-0.0007921424112282693,-0.3413783609867096,0.4374667704105377,0.6299778819084167,-0.7683156132698059,-0.06191512569785118,0.2928513288497925,0.2519591450691223,0.015618443489074707,0.24220652878284454,0.38762593269348145,0.4788963794708252,0.1290544718503952,-0.11631691455841064,-0.030879322439432144,0.24155279994010925,0.012849928811192513,-0.3653002977371216,-0.4022901654243469,-0.17770624160766602,0.057326026260852814,0.1889421045780182,0.3814487159252167,0.16235201060771942,0.003822391154244542,-0.20507267117500305,-0.22247479856014252,0.5188964009284973,0.3339649438858032,0.012972273863852024,-0.357308954000473,-0.254930704832077,-0.01917581632733345,0.2128884345293045,-0.11430766433477402,0.28853467106819153,-0.09812194854021072,0.0871228575706482,-0.008250594139099121,0.22046451270580292,-0.018604271113872528,-0.19814112782478333,-0.42199864983558655,0.5007407069206238,0.21577249467372894,0.3464373052120209,0.29719892144203186,0.46086710691452026,0.023210028186440468,0.8342094421386719,0.07270725816488266,0.217360720038414,0.3125914931297302,-0.4159175157546997,-0.3264967203140259,-0.4919918477535248,-0.005595917347818613,0.6723282337188721,-0.06175730749964714,-0.3582095503807068,-0.6857557892799377,-0.23159416019916534,-0.09003227949142456,0.13278840482234955,0.0017650970257818699,0.14052335917949677,-0.036072876304388046,-0.38207700848579407,-0.25707170367240906,-0.16507630050182343,0.1627078354358673,-0.1640518307685852,0.11947468668222427,-0.1349037140607834,-0.24333174526691437,0.1347648799419403,0.07294604182243347,0.06166333705186844,0.05335736647248268,0.17202197015285492,0.1716892570257187,0.035017743706703186,0.05709275230765343,-0.13411766290664673,-0.15135124325752258,-0.2667611837387085,-0.23032309114933014,-0.011631449684500694,-0.08396168798208237,0.04345301166176796,0.07483638823032379,0.13998869061470032,-0.11417032778263092,-0.08575475215911865,-0.15516634285449982,0.05310042202472687,0.030271515250205994,0.004584820009768009,-0.06609782576560974,-0.06113933399319649,0.012877042405307293,-0.028354421257972717,-0.04154067113995552,-0.17252634465694427,-0.17537212371826172,0.23496165871620178,0.021441476419568062,-0.07151652127504349,0.060660529881715775,0.11499956250190735,0.2480195164680481,0.32179850339889526,-0.10195188224315643,-0.023762302473187447,0.03866269439458847,-0.04976280406117439,0.04387320205569267,-0.04349011927843094,0.1444380283355713,-0.005963373463600874,0.05374861881136894,0.1093083992600441,-0.08161435276269913,-0.32089200615882874,-0.1257210224866867,-0.11174774914979935,-0.07185815274715424,-0.02403411641716957,-0.011954446323215961,0.09164559096097946,-0.2387787401676178,0.059507209807634354,-0.002393033355474472,0.03686178848147392,0.19029530882835388,0.42596548795700073,-0.06712502241134644,-0.195286363363266,-0.10505767911672592,-0.04620650038123131,0.025676818564534187,-0.030415210872888565,-0.10894513875246048,-0.03673047572374344,-0.07304032146930695,0.05370189994573593,-0.14359791576862335,-0.16819161176681519,0.19708819687366486,-0.06481065601110458,0.04406056925654411,0.04654728248715401,0.03740041330456734,0.3228767216205597,-0.25754183530807495,-0.037071552127599716,0.028518393635749817,0.10921061038970947,0.07089771330356598,0.2855939269065857,-0.2454448789358139,-0.1578461080789566,-0.1989312469959259,-0.340996116399765,-0.16089294850826263,-0.5605269074440002,0.4448508322238922,-0.08472895622253418,-0.06748241931200027,-0.1535140872001648,-0.21441751718521118,-0.23637531697750092,0.2864311933517456,0.017796840518712997,0.08753085136413574,0.009884091094136238,0.05455297231674194,0.09373537451028824,-0.13276584446430206,0.017309486865997314,0.1201135441660881,-0.03511809930205345,0.1147247850894928,0.19974827766418457,-0.013302876614034176,0.0785667672753334,0.004899352788925171,0.034772686660289764,-0.015529084950685501,0.096367247402668,-0.13527444005012512,0.030195647850632668,0.03575964272022247,0.11573267728090286,-0.000137485156301409,-0.04147619381546974,0.16481885313987732,-0.016342807561159134,-0.10723678767681122,-0.051156461238861084,-0.08723308891057968,0.19342763721942902,-0.19808703660964966,-0.06193113327026367,-0.09508835524320602,-0.1226998120546341,-0.2224658578634262,-0.20578350126743317,-0.3283882439136505,0.012023253366351128,0.031293489038944244,0.04797561466693878,0.14565767347812653,-0.17190513014793396,0.2758219242095947,0.03376325964927673,0.15008428692817688,0.13982084393501282,0.012486780993640423,-0.27237847447395325,0.12415802478790283,-0.017524316906929016,-0.07059287279844284,-0.0034161130897700787,0.11740798503160477,0.016416817903518677,-0.034898482263088226,-0.03827468305826187,-0.01860078051686287,-0.018384164199233055,0.02530231885612011,-0.013070578686892986,0.015810232609510422,0.0018485785694792867,0.0519433468580246,0.06447600573301315,0.12954998016357422,-0.04141395911574364,-0.07198381423950195,0.006354888901114464,0.008297840133309364,-0.012859001755714417,-0.0999329462647438,0.00774992024526,0.018381580710411072,-0.02979877032339573,-0.028551237657666206,0.0027405188884586096,0.17655633389949799,0.04019550979137421,0.07104736566543579,0.050027307122945786,0.0007483119261451066,0.07799660414457321,0.19522343575954437,0.026929231360554695,-0.026740049943327904,0.03550838679075241,0.015837017446756363,-0.029283730313181877,-0.14754560589790344,0.03145688399672508,0.07260002940893173,0.041789405047893524,0.07456224411725998,0.031172236427664757,-0.09867125004529953,-0.03138192743062973,-0.04738926142454147,0.09398007392883301,0.021837227046489716,0.1105942353606224,-0.03452324494719505,0.0704588070511818,0.0475626178085804,-0.15156510472297668,-0.18521243333816528,-0.11434993892908096,0.0192420557141304,-0.1440843641757965,-0.18765416741371155,0.01413561962544918,0.05774075165390968,0.03717886283993721,0.04241769760847092,-0.026851722970604897,-0.06727126240730286,-0.0190361887216568,0.03639309108257294,-0.06443078815937042,-0.097087062895298,-0.05071625858545303,0.056005723774433136,-0.032486218959093094,-0.06041623279452324,0.014929825440049171,0.13281814754009247,-0.009865631349384785,-0.05954836308956146,0.01904689520597458,0.05132973939180374,0.14986610412597656,0.260538786649704,0.14759790897369385,-0.0481889545917511,-0.03258899971842766,0.022610295563936234,-0.1255132406949997,-0.07770542055368423,-0.04378211125731468,0.18291950225830078,-0.02796056680381298,0.03905786573886871,-0.09131491929292679,-0.12258203327655792,-0.10594934225082397,0.0013962192460894585,-0.06794655323028564,-0.06087056174874306,-0.06611153483390808,-0.0004160908574704081,-0.16816796362400055,-0.23205825686454773,0.08872494101524353,0.07940947264432907,0.00867900624871254,0.05721629410982132,0.006830317433923483,-0.005038628354668617,-0.03165920451283455,0.03865358605980873,-0.1108350083231926,-0.07728298008441925,0.045923009514808655,0.11230453103780746,-0.1025456041097641,-0.03832664713263512,-0.006610145326703787,-0.0128948288038373,-0.0054561360739171505,0.1370386779308319,-0.029343847185373306,-0.06202001869678497,0.008884329348802567,0.07674446702003479,-0.08574064821004868,-0.19587461650371552,0.006186700891703367,-0.01941361278295517,0.11115963757038116,-0.06282065063714981,-0.2669185698032379,-0.17110034823417664,-0.024890681728720665,-0.12529192864894867,-0.04295342415571213,-0.024233773350715637,0.05508284643292427,0.17817561328411102,-0.13333474099636078,-0.08781102299690247,0.05464540794491768,-0.11738031357526779,0.09882573783397675,0.0975186675786972,0.007651199586689472,-0.001878997660242021,0.0008910731412470341,-0.019208259880542755,0.04185909777879715,-0.06115925312042236,-0.015021388418972492,-0.08760357648134232,-0.06445947289466858,-0.002712318440899253,-0.0013777273707091808,-0.009093516506254673,0.03894226625561714,0.0457487553358078,0.04341542348265648,0.07413344830274582,0.10199952125549316,-0.010170209221541882,0.03267825394868851,-0.007487783208489418,-0.026224590837955475,-0.022509640082716942,-0.016012072563171387,0.044336918741464615,-0.12870587408542633,-0.060037024319171906,-0.0018772570183500648,0.03318648040294647,-0.004990227986127138,0.012059646658599377,-0.04222807660698891,0.027332447469234467,-0.0053831422701478004,0.020070284605026245,0.07911241799592972,-0.07584396004676819,0.08163166791200638,0.06674138456583023,0.012073476798832417,0.018201302736997604,-0.01648239977657795,0.11223834753036499,0.12264613807201385,0.0854768231511116,0.12341110408306122,0.10201411694288254,0.01979190483689308,0.0831780806183815,0.013365747407078743,0.10738781094551086,0.03416086360812187,-0.082312673330307,-0.44173333048820496,0.06845080107450485,-0.0708896741271019,-0.029208501800894737,-0.042433831840753555,0.08161260932683945,0.246308833360672,0.12114478647708893,-0.06300471723079681,-0.04254559800028801,-0.03131655976176262,-0.08317659050226212,-0.15134306252002716,0.15395672619342804,-0.06478869169950485,0.005197070073336363,-0.004476427100598812,-0.03121090866625309,0.024339668452739716,-0.13280513882637024,-0.05598163232207298,-0.07142843306064606,-0.14379721879959106,-0.18122908473014832,-0.0978061631321907,0.08530699461698532,-0.06779986619949341,-0.11261288076639175,-0.05789092183113098,-0.1272491067647934,-0.26511362195014954,0.24805687367916107,-0.053626254200935364,0.0018648806726559997,-0.008342288434505463,0.0010680487612262368,0.22069025039672852,-0.29316946864128113,0.10301583260297775,0.003956058528274298,0.0626000389456749,0.1330064982175827,0.3206014335155487,0.040778253227472305,-0.2725030183792114,-0.01330726221203804,0.24313059449195862,-0.057692937552928925,-0.20889224112033844,0.13236872851848602,-0.10535836219787598,-0.07092190533876419,-0.14385859668254852,0.47733035683631897,0.6916806697845459,-0.0652877539396286,0.030068930238485336,0.5884627103805542,0.5330943465232849,-0.6129816174507141,0.004946608562022448,0.014768270775675774,-0.32047557830810547,0.1781422197818756,-0.164592444896698,0.01937102898955345,-0.07532291859388351,0.2986280918121338,-0.0844058096408844,-0.2365880161523819,-0.0882001593708992,-0.202576145529747,-0.018810216337442398,0.0855664312839508,-0.2643614113330841,0.27839523553848267,-0.328075110912323,0.020450886338949203,-0.4719506502151489,0.029515806585550308,0.33217957615852356,-0.02453881874680519,0.0056935520842671394,0.12180094420909882,0.12277142703533173,0.2224181890487671,0.32012468576431274,-0.055027369409799576,-0.052396342158317566,-0.17386777698993683,-0.08000655472278595,-0.32469654083251953,-0.35233548283576965,-0.060200415551662445,0.022257328033447266,-0.14799687266349792,0.2948668301105499,-0.036775507032871246,-0.2153843641281128,-0.0879904255270958,0.30240970849990845,0.309969425201416,0.21465091407299042,-0.04002220556139946,0.07924241572618484,0.06328868865966797,-0.19646944105625153,0.18357406556606293,-0.599668025970459,0.5639873743057251,0.09233248978853226,0.12979789078235626,-0.4561507999897003,0.28995513916015625,-0.15112152695655823,-0.15721473097801208,0.2615374028682709,0.1195952445268631,0.15965671837329865,-0.006358754355460405,-0.01253714133054018,0.24011045694351196,-0.0031602936796844006,-0.09891819208860397,-0.08105093985795975,-0.027421895414590836,0.13870246708393097,-0.053457677364349365,0.1063874214887619,-0.19682925939559937,-0.08270452171564102,-0.20037415623664856,-0.0017813320737332106,0.02121957205235958,0.06771406531333923,0.010212410241365433,0.03782852739095688,0.27147722244262695,0.030856048688292503,0.07856765389442444,0.04618542641401291,0.010497426614165306,-0.050000980496406555,0.14211127161979675,-0.09582224488258362,-0.05851718783378601,-0.005458543077111244,0.12517701089382172,0.1419944316148758,-0.14941276609897614,-0.1290002018213272,-0.12377157807350159,-0.07903488725423813,0.03534850850701332,0.08531826734542847,-0.19318564236164093,-0.08065834641456604,0.015506346710026264,-0.04443558305501938,-0.011930657550692558,0.12473984062671661,0.13244402408599854,0.004356689751148224,0.049785833805799484,-0.10969891399145126,-0.10941562056541443,-0.1117531955242157,-0.04286782443523407,0.004887473303824663,0.11797068268060684,0.10752777010202408,0.05180084705352783,0.10882482677698135,-0.15864500403404236,0.08070765435695648,0.11360375583171844,0.04425695165991783,0.07655467092990875,-0.09464406222105026,-0.11130621284246445,0.014936620369553566,0.1035347729921341,0.01854896731674671,0.01588515378534794,-0.05386701971292496,0.14834095537662506,0.0034943590871989727,-0.017522094771265984,0.04080212116241455,0.014016236178576946,0.024769559502601624,0.04893098399043083,0.074623242020607,-0.013759443536400795,-0.009671035222709179,0.12548282742500305,0.03771108016371727,-0.2897392213344574,-0.062387485057115555,-0.06526395678520203,-0.016543447971343994,0.026835409924387932,0.018784252926707268,-0.02495882287621498,0.037175823003053665,0.029767414554953575,0.059024177491664886,0.027853773906826973,-0.018234433606266975,0.1013261005282402,0.023240815848112106,0.029802830889821053,0.01514106523245573,-0.04719100147485733,-0.09450183808803558,0.06980020552873611,0.1679631769657135,0.02895556204020977,0.029137860983610153,-0.02088061161339283,0.019171003252267838,-0.03101417049765587,-0.07378531247377396,-0.0773511528968811,-0.060972608625888824,-0.04464305564761162,0.10390705615282059,-0.22619254887104034,0.07068373262882233,0.017416149377822876,0.06651099771261215,0.09716585278511047,0.022037245333194733,0.3296677768230438,0.0076776547357439995,-0.014985361136496067,-0.01555611751973629,0.0007726647891104221,0.02404068224132061,-0.4949409067630768,-0.03667837753891945,-0.02429240755736828,0.059204213321208954,0.03233080729842186,-0.058292824774980545,-0.00292073842138052,-0.036094121634960175,0.01665395125746727,0.0399668924510479,0.019011450931429863,-0.08673153072595596,0.10803227871656418,-0.006343132816255093,-0.10557679086923599,-0.06260000914335251,0.026974743232131004,0.07558809220790863,-0.34493488073349,-0.02113460563123226,0.19280600547790527,-0.008019647561013699,0.058084018528461456,0.0133525300770998,0.14745603501796722,0.01736992411315441,-0.011880715377628803,0.03657979145646095,0.059905219823122025,-0.02245963364839554,-0.026886025443673134,-0.027565207332372665,0.014277213253080845,0.031017795205116272,-0.018964342772960663,-0.21273741126060486,0.024278245866298676,0.011845911853015423,0.05320826172828674,0.03150918707251549,0.04431618005037308,-0.07227686047554016,0.00956194568425417,0.05653954669833183,0.040036775171756744,0.01228606142103672,-0.02805318683385849,-0.017598731443285942,-0.22790902853012085,0.03581526502966881,0.006947658956050873,0.014491674490272999,-0.004076526500284672,0.0837373435497284,-0.22773849964141846,0.03743298351764679,-0.03077257238328457,0.006444933358579874,-0.004159493371844292,-0.027812713757157326,0.09986233711242676,0.02860880456864834,0.003189047332853079,0.009785668924450874,-0.0521356575191021,-0.1664908528327942,-0.21958330273628235,0.042502984404563904,-0.029131626710295677,0.04201692342758179,0.06009155139327049,-0.12495698779821396,-0.1666402518749237,0.01206967793405056,0.043789565563201904,0.03524795174598694,0.022363051772117615,0.10126586258411407,0.3199096918106079,0.04807558283209801,-0.010083213448524475,0.011521532200276852,0.062216807156801224,0.23639138042926788,0.18942952156066895,-0.12847395241260529,0.013192188926041126,0.00839450117200613,-0.011522792279720306,-0.019710015505552292,-0.06301610916852951,-0.07009892910718918,-0.07820390164852142,-0.03555649146437645,0.03887953981757164,-0.04644637182354927,0.14952337741851807,0.030592313036322594,0.050409138202667236,0.09476035833358765,0.1763860136270523,0.07506301999092102,-0.030357645824551582,0.0855775773525238,-0.04944450780749321,-0.0018856882816180587,-0.046387605369091034,0.08223774284124374,-0.05965179204940796,-0.08560063689947128,-0.10377524793148041,-0.05577142909169197,0.0025385902263224125,0.05419553816318512,0.042210355401039124,-0.03364322707056999,-0.06888985633850098,0.17830392718315125,-0.07949181646108627,0.020380213856697083,-0.16401061415672302,-0.14899805188179016,0.029642930254340172,0.17507964372634888,-0.09015587717294693,0.40994325280189514,0.1861303150653839,0.05274636670947075,0.05867435038089752,0.047999560832977295,0.011138075962662697,-0.03282167762517929,-0.08091363310813904,-0.056513819843530655,-0.018578389659523964,-0.06122565641999245,-0.19171403348445892,-0.1623983383178711,-0.031975291669368744,0.09832325577735901,0.00888907816261053,0.09625604003667831,0.11687754094600677,0.17622201144695282,0.3151395618915558,-0.0696520283818245,-0.17520181834697723,-0.11808004230260849,-0.153603658080101,-0.2401236742734909,0.3832852244377136,0.08717450499534607,0.037107568234205246,0.162248894572258,-0.043033841997385025,-0.04840470105409622,-0.1924780011177063,-0.02887258119881153,0.03352872282266617,-0.04181598126888275,-0.04963193088769913,-0.04214140400290489,0.17790500819683075,0.050845153629779816,0.01203902717679739,-0.08473736047744751,-0.005347898695617914,-0.4078362286090851,0.06151663511991501,-0.09118106216192245,-0.13120302557945251,-0.16318055987358093,-0.08624953776597977,0.015183175913989544,-0.25607118010520935,-0.0013826134381815791,0.006776462774723768,0.012186584994196892,0.01969124563038349,0.14899222552776337,0.010023879818618298,-0.06474456191062927,0.10507401078939438,0.07709721475839615,-0.08611802756786346,0.06380809098482132,0.11812152713537216,-0.09893530607223511,-0.10371340811252594,-0.12250719964504242,0.07088659703731537,0.0522351898252964,0.1309436559677124,0.08094128221273422,0.12529590725898743,0.10593772679567337,0.033500101417303085,-0.056841891258955,0.007443287409842014,0.0013934447197243571,0.018962599337100983,-0.022006642073392868,-0.003074214793741703,0.07885050028562546,-0.09061997383832932,-0.05293113738298416,-0.21458682417869568,-0.23073352873325348,-0.13298045098781586,-0.09960216283798218,0.33608296513557434,-0.03027171641588211,-0.03590433672070503,-0.11359459906816483,0.11722904443740845,-0.12065298855304718,0.04694480821490288,-0.11229908466339111,0.07478932291269302,0.031194323673844337,0.05154531076550484,-0.03965515270829201,0.07938945293426514,0.1181349977850914,0.19106754660606384,0.20173430442810059,-0.004366956651210785,-0.003332657041028142,-0.09022556990385056,0.02036137506365776,0.014760022051632404,0.02797684632241726,-0.008730382658541203,0.15342198312282562,-0.11172810196876526,0.018546603620052338,0.049580205231904984,0.06066283583641052,0.08900877833366394,-0.18965481221675873,0.20472073554992676,-0.04114457592368126,-0.11346699297428131,-0.21037839353084564,-0.13354848325252533,-0.047088198363780975,0.1934516429901123,-0.023778541013598442,-0.06153619661927223,-0.01204066164791584,-0.004995894152671099,0.06892380863428116,-0.14946840703487396,-0.001693231170065701,-0.036306556314229965,-0.0846693217754364,-0.004986328538507223,-0.07391911745071411,-0.026385152712464333,0.051360853016376495,0.03249882534146309,0.1995869129896164,0.026868503540754318,-0.0028745068702846766,-0.038547221571207047,0.018422797322273254,0.054310958832502365,-0.05107970908284187,0.012872641906142235,0.02199343964457512,-0.058154504746198654,0.03905203193426132,-0.030593037605285645,-0.012768860906362534,-0.09955652803182602,-0.14963079988956451,0.09744701534509659,-0.14635075628757477,-0.09298098087310791,0.002794891595840454,-0.18378348648548126,-0.12021005153656006,0.1743936985731125,0.15929163992404938,-0.10217199474573135,-0.5759167671203613,-0.24274171888828278,-0.026958761736750603,0.0820205956697464,-0.09848316758871078,-0.6890469193458557,0.18753816187381744,0.1972195953130722,-0.13491179049015045,-0.06416300684213638,-0.08214270323514938,0.07557645440101624,0.3431847095489502,0.3310353457927704,-0.17664755880832672,0.019961362704634666,-0.10712602734565735,-0.14552508294582367,0.39761629700660706,0.09395820647478104,-0.10039298236370087,-0.12139733135700226,-0.23950505256652832,0.21896973252296448,-0.19113478064537048,-0.3033234477043152,0.11514083296060562,0.4098607003688812,0.24837557971477509,0.28266334533691406,-0.08228908479213715,0.22096240520477295,-0.22931480407714844,-0.08144917339086533,-0.03326699137687683,0.09536708146333694,0.06431739032268524,-0.2151687890291214,-0.2178678959608078,-0.14604561030864716,-0.10275708138942719,0.033236727118492126,0.27743929624557495,0.09541541337966919,-0.02205299399793148,0.10009746998548508,-0.05154584348201752,0.16090083122253418,0.1668378859758377,0.18244965374469757,-0.07331763952970505,0.019229823723435402,-0.11065398901700974,0.021664565429091454,0.17162325978279114,0.0854855626821518,0.2774188220500946,0.20769783854484558,-0.2968568205833435,-0.04120437055826187,0.4531097710132599,-0.260647714138031,-0.28807002305984497,-0.23190125823020935,0.31057026982307434,-0.020154407247900963,-0.12903457880020142,-0.2243019938468933,-0.10883864760398865,-0.09565135091543198,0.07969392091035843,-0.2614232301712036,0.10891402512788773,0.04647046700119972,-0.13756218552589417,0.09371965378522873,0.16816945374011993,0.009954378940165043,0.09995453804731369,-0.012524585239589214,-0.07901731878519058,-0.017187654972076416,-0.0977138802409172,-0.06440229713916779,0.021083233878016472,0.23409724235534668,0.003732087090611458,0.16096201539039612,0.06259412318468094,0.03072068840265274,0.09636113047599792,0.42167598009109497,-0.05838363617658615,-0.15476524829864502,-0.18933872878551483,-0.1641714721918106,-0.19986382126808167,0.17891688644886017,0.00948412250727415,0.06844436377286911,0.043962884694337845,0.051195111125707626,0.1393735259771347,-0.20907148718833923,0.11507689207792282,0.04672560840845108,0.13745853304862976,-0.00045809263247065246,0.088222935795784,0.32279011607170105,0.01771407201886177,0.052897728979587555,-0.015242711640894413,-0.07961060851812363,-0.12468116730451584,-0.014742815867066383,-0.09256317466497421,-0.14092202484607697,-0.1843564808368683,-0.15978065133094788,-0.1705845147371292,-0.13030415773391724,0.150304913520813,0.15560705959796906,0.23344556987285614,0.12455563247203827,0.2534025311470032,-0.1217958852648735,0.06929470598697662,0.017985200509428978,0.10333392024040222,0.05285611376166344,-0.08122192323207855,-0.1542881727218628,0.04832875356078148,-0.03152520954608917,0.07007227092981339,0.03872013837099075,0.18254218995571136,-0.20520330965518951,-0.04321438446640968,-0.07932089269161224,-0.019989168271422386,0.010024226270616055,-0.01238497905433178,-0.4767540693283081,0.0467643178999424,-0.06210581213235855,-0.12979574501514435,-0.14340537786483765,-0.11313984543085098,0.11098866909742355,0.027787605300545692,0.13145603239536285,0.10118569433689117,0.2087925523519516,0.06868554651737213,-0.19868062436580658,-0.07172884047031403,-0.06929460167884827,-0.1089114174246788,-0.09058559685945511,0.0195739958435297,0.09118515998125076,0.056573837995529175,0.05980934202671051,0.22174857556819916,0.15807242691516876,0.09803305566310883,0.31244876980781555,-0.14291086792945862,-0.14133480191230774,-0.13638567924499512,-0.09997696429491043,-0.017544768750667572,0.1313808709383011,0.02796308323740959,0.0031606885604560375,0.13323673605918884,0.0038086308632045984,0.03254313766956329,0.07327733933925629,-0.11450397968292236,0.028510762378573418,0.06199580430984497,0.053973183035850525,0.1699814647436142,-0.0036326388362795115,-0.07392231374979019,-0.04194050282239914,-0.0770246759057045,-0.014274765737354755,0.06975820660591125,-0.05982908606529236,-0.04225453361868858,-0.1109887957572937,-0.038675207644701004,0.02671794779598713,0.0532049722969532,0.007217607460916042,0.050159379839897156,0.030225174501538277,-0.027018046006560326,0.04344480112195015,0.01370509434491396,0.1522291898727417,-0.08434001356363297,-0.09866379201412201,-0.04372849687933922,-0.015785284340381622,0.05082464590668678,-0.08596962690353394,-0.019408265128731728,0.05372058227658272,0.04133505001664162,-0.014238589443266392,-0.01622651517391205,0.24987037479877472,0.028621351346373558,-0.053228817880153656,0.03741002827882767,0.026909111067652702,0.15159660577774048,-0.002115109236910939,-0.09489357471466064,-0.06380458921194077,-0.07656725496053696,-0.022377466782927513,-0.08670388907194138,0.10704363137483597,-0.2443302422761917,-0.06566089391708374,-0.10077181458473206,-0.04680825397372246,-0.026733338832855225,0.2857678234577179,-0.07894238084554672,-0.024798665195703506,-0.05132930725812912,0.00963915977627039,0.01928051933646202,0.33541184663772583,-0.17541880905628204,-0.04230787977576256,-0.1056433692574501,-0.033114101737737656,-0.015575891360640526,-0.13680365681648254,-0.005155404098331928,-0.027767116203904152,-0.03903801366686821,-0.07162937521934509,-0.03778769448399544,0.23636844754219055,-0.08699814230203629,0.04550386220216751,0.11096862703561783,0.13439838588237762,0.18399971723556519,-0.030326103791594505,-0.03327792137861252,-0.036870915442705154,-0.019170120358467102,-0.03031228482723236,-0.0913020521402359,-0.04615754634141922,0.005380645859986544,0.04671116918325424,0.0994773656129837,0.1292324960231781,0.20465633273124695,-0.15341581404209137,0.0009835640667006373,0.008153371512889862,-0.077553391456604,-0.048965662717819214,0.007683936506509781,-0.2309422492980957,0.07787630707025528,0.022137267515063286,0.021778589114546776,0.011824389919638634,0.06910254806280136,0.018189717084169388,-0.010927004739642143,-0.012043856084346771,0.05923128128051758,-0.0036446743179112673,-0.1472310572862625,-0.24264094233512878,-0.0874888151884079,-0.05454792454838753,-0.03294425085186958,0.010929946787655354,0.030242154374718666,0.1590552181005478,0.05989443510770798,0.07256343215703964,0.06460542976856232,-0.022298187017440796,-0.05505082756280899,-0.06054164469242096,0.08056387305259705,0.04432498291134834,0.03752061352133751,0.056714896112680435,0.11018559336662292,-0.29098275303840637,0.05377049744129181,0.013777686282992363,0.025470498949289322,-0.03256480023264885,-0.02529919520020485,0.10656790435314178,0.029065053910017014,0.10031966865062714,0.05771663412451744,0.016875287517905235,-0.07729718089103699,0.09467591345310211,-0.004895335994660854,-0.027506524696946144,-0.1989845335483551,-0.037409935146570206,-0.07618347555398941,-0.04812167212367058,0.07756238430738449,-0.023341616615653038,0.07633400708436966,0.1389874666929245,0.040970396250486374,0.29756927490234375,0.03661022335290909,0.05050735920667648,0.016470473259687424,-0.15261241793632507,-0.09919330477714539,-0.018848642706871033,0.10422974824905396,0.10330653190612793,0.12740778923034668,0.05152858793735504,0.14340803027153015,0.02877417765557766,0.006017108913511038,0.08235745131969452,-0.05981537699699402,-0.03525395691394806,-0.023936405777931213,0.19012245535850525,0.04434029757976532,0.0975315272808075,0.08223660290241241,-0.014826875180006027,0.07224298268556595,-0.1312800943851471,-0.0457901656627655,-0.06120144948363304,-0.18779557943344116,-0.09258025884628296,-0.09477460384368896,0.10295604914426804,0.1162562444806099,0.18306803703308105,0.15977178514003754,0.12536798417568207,0.1825762242078781,0.04723193123936653,0.12043680995702744,0.06853342801332474,-0.1573585867881775,-0.05003862455487251,-0.09454183280467987,-0.005234856624156237,0.13198119401931763,0.09942181408405304,0.060477908700704575,0.021115561947226524,0.051409073173999786,0.1822996437549591,0.07790646702051163,-0.054085616022348404,-0.07436327636241913,-0.023415973410010338,-0.04606812074780464,0.10642539709806442,0.08228462934494019,0.03732823207974434,0.10741658508777618,-0.10645320266485214,-0.05147751420736313,-0.08157557994127274,-0.005250185262411833,-0.10899750888347626,-0.31716686487197876,-0.07245894521474838,-0.09063511341810226,0.08537474274635315,-0.13080334663391113,0.027999630197882652,-0.16152216494083405,0.006271517835557461,-0.07427764683961868,0.06355853378772736,0.10543166846036911,0.17961092293262482,0.1995673030614853,0.028412027284502983,-0.003837966825813055,0.04873126000165939,-0.15628264844417572,-0.08564508706331253,0.40358343720436096,0.041184283792972565,-0.02240941673517227,-0.03485272079706192,-0.0066982051357626915,-0.13747580349445343,-0.07446244359016418,-0.03521436080336571,-0.08709562569856644,0.033067796379327774,0.06433550268411636,0.09632053226232529,0.04242122173309326,0.033541057258844376,0.03463584929704666,-0.009840593673288822,-0.041362833231687546,-0.025588413700461388,-0.023901108652353287,-0.028616882860660553,0.034307610243558884,0.02560633234679699,-0.03447531908750534,-0.06749075651168823,-0.041893359273672104,-0.043072838336229324,0.05517759174108505,-0.09703541547060013,-0.023797031491994858,0.0069596003741025925,-0.0018994056154042482,-0.044743385165929794,-0.1518259346485138,0.11209779232740402,-0.021982921287417412,-0.05071563273668289,-0.002668372355401516,0.013668060302734375,0.030588479712605476,0.01047690212726593,-0.025573715567588806,-0.028200311586260796,-0.011503057554364204,-0.014580178074538708,0.018537824973464012,0.34536734223365784,0.05848491191864014,0.045938048511743546,0.0677284449338913,0.03566356003284454,0.2537764012813568,-0.15173988044261932,0.03239656612277031,0.19546040892601013,0.11720342934131622,-0.13957571983337402,0.0343436636030674,0.12419610470533371,0.004949086811393499,-0.04261438548564911,0.03188124671578407,0.0630255937576294,0.557796835899353,-0.21656744182109833,0.6632403135299683,0.18924656510353088,-0.14977705478668213,-0.15743353962898254,-0.005400618072599173,0.30365192890167236,-0.24699977040290833,0.22241652011871338,0.1737501472234726,-0.1786586046218872,0.20656494796276093,0.2876013517379761,-0.1580922156572342,-0.003205777145922184,0.2020311951637268,-0.06603816896677017,-0.22421589493751526,-0.26895445585250854,-0.5121520161628723,0.04437609389424324,0.041440557688474655,0.30605340003967285,-0.18565137684345245,0.28448113799095154,0.2588437497615814,-0.05272223427891731,0.0722883865237236,-0.024363571777939796,-0.048031482845544815,0.015917856246232986,0.1398918181657791,-0.05825836956501007,-0.19733953475952148,-0.18061348795890808,-0.07651802152395248,0.24502672255039215,-0.24421288073062897,0.19813114404678345,-0.2651486396789551,0.21321681141853333,0.04287613555788994,0.3236347734928131,-0.21570537984371185,-0.03726013004779816,0.2577991783618927,-0.23527038097381592,0.023631401360034943,0.3783922791481018,0.27776074409484863,0.10753364115953445,-0.0017152205109596252,-0.24420265853405,-0.2733714282512665,0.28151214122772217,0.1221570372581482,-0.23350724577903748,0.3972783088684082,0.2241138517856598,0.02228413335978985,0.13725057244300842,-0.30380868911743164,0.2759268283843994,-0.11608781665563583,-0.32224002480506897,0.06542523205280304,-0.2565448582172394,-0.13754922151565552,0.2027130424976349,-0.04959491267800331,-0.044497791677713394,0.0009314154740422964,0.11391181498765945,-0.19610074162483215,-0.1393638551235199,-0.12217818945646286,0.2023412436246872,0.00874996092170477,0.17892831563949585,0.21973253786563873,0.10333362966775894,-0.0036020283587276936,0.054268572479486465,-0.26747792959213257,-0.12975387275218964,-0.04546225816011429,-0.15134523808956146,-0.20312955975532532,0.20596133172512054,-0.07676607370376587,0.04520696401596069,0.12764854729175568,-0.006788438651710749,-0.07055916637182236,0.16230788826942444,-0.0556129552423954,0.021187538281083107,0.09080489724874496,-0.1058548241853714,-0.12024309486150742,0.04301215335726738,-0.010858398862183094,0.06884978711605072,-0.011597839184105396,-0.04993003234267235,0.03178203105926514,0.18008756637573242,0.0033567799255251884,0.01466290932148695,0.04714672639966011,0.04106559604406357,0.05516231432557106,0.09106408804655075,0.16595736145973206,-0.045251522213220596,0.007190048228949308,0.028483467176556587,0.03922469541430473,-0.3339579403400421,0.2506271004676819,-0.031575169414281845,0.08743443340063095,0.1746072620153427,0.08633096516132355,-0.06835782527923584,0.013576832599937916,0.11192487180233002,0.19302500784397125,0.1502721756696701,0.056857477873563766,-0.12579217553138733,0.019575417041778564,-0.08335918188095093,0.10005827993154526,0.16324874758720398,0.1399616301059723,-0.058911360800266266,0.02031456120312214,-0.021380770951509476,-0.0038242104928940535,-0.02453271858394146,0.12083115428686142,0.1480371505022049,0.020831992849707603,0.01044448371976614,-0.0010049582924693823,-0.05295655503869057,-0.048528630286455154,-0.3463309705257416,-0.10834386944770813,-0.06939681619405746,-0.020746227353811264,0.25105786323547363,0.48327016830444336,0.24105289578437805,-0.07984194159507751,-0.11171643435955048,-0.0847819596529007,-0.06171127408742905,-0.01607554592192173,0.06160503998398781,-0.027926495298743248,-0.05382096394896507,0.021605735644698143,0.054292403161525726,0.11451686173677444,-0.18745358288288116,0.06149756535887718,0.06191246211528778,-0.03571692109107971,-0.03598518297076225,-0.055307626724243164,-0.03381268307566643,0.06661291420459747,0.01497921533882618,-0.003332318738102913,-0.06709002703428268,-0.027867045253515244,0.14644372463226318,-0.20681238174438477,-0.24794667959213257,-0.15466926991939545,-0.06414289027452469,0.01654904894530773,-0.12010257691144943,-0.06635300815105438,-0.08841520547866821,-0.05014551803469658,-0.14781321585178375,-0.13754558563232422,0.19273841381072998,-0.08075424283742905,-0.07280997186899185,-0.07618504017591476,-0.0778842344880104,0.008444667793810368,-0.06254244595766068,-0.08988678455352783,-0.09036809206008911,0.09326834231615067,0.09762057662010193,0.09881895780563354,-0.2201130986213684,-0.011171340011060238,0.0026796881575137377,0.046882111579179764,0.16833727061748505,0.11962602287530899,-0.06193196028470993,-0.023466411978006363,-0.006266591604799032,0.049511589109897614,0.05385097861289978,0.03552394360303879,-0.3347695469856262,0.04230073094367981,0.05927698314189911,-0.03923986107110977,-0.03845909610390663,-0.08313669264316559,0.09898689389228821,0.12255250662565231,-0.07615489512681961,0.1527685821056366,0.030125709250569344,-0.004796995315700769,-0.005992329213768244,0.12367970496416092,-0.0169085506349802,-0.11938810348510742,0.07761379331350327,0.09383591264486313,0.35339534282684326,-0.007006464526057243,-0.17002663016319275,-0.09740819036960602,0.009839768521487713,0.009167736396193504,0.040269553661346436,0.03050214797258377,0.06773936748504639,-0.14724823832511902,0.025715570896863937,-0.02992313541471958,0.12161435931921005,0.06609451770782471,-0.219548761844635,-0.032844725996255875,0.07185759395360947,-0.07771848142147064,0.234629824757576,-0.028333695605397224,0.007640690542757511,0.052773989737033844,0.0394597128033638,0.10509863495826721,-0.1188560500741005,-0.01347937062382698,0.15706756711006165,0.09990769624710083,0.0842030942440033,0.04526975378394127,-0.18990132212638855,0.01796354167163372,0.36366283893585205,-0.03752213343977928,-0.05649068206548691,0.02252792753279209,-0.07091888785362244,0.09978990256786346,0.06146666035056114,0.14554139971733093,0.11564107984304428,0.17900991439819336,-0.0016892091371119022,-0.0779026672244072,0.201293483376503,-0.01801574043929577,-0.16343452036380768,-0.18922285735607147,0.15375696122646332,-0.012103363871574402,0.004792245104908943,0.01575733907520771,0.0002697529271245003,-0.02124894969165325,0.038259055465459824,0.01097484678030014,0.11769212782382965,0.03322160989046097,-0.09842531383037567,-0.11027850210666656,-0.09551884233951569,0.1349267214536667,0.13895155489444733,-0.09778524190187454,-0.02154601737856865,-0.13500969111919403,-0.006167320068925619,-0.068166084587574,0.030924566090106964,0.059893764555454254,0.10376008599996567,0.14979510009288788,0.11574844270944595,-0.16315217316150665,-0.06379863619804382,0.03308695927262306,-0.009899341501295567,0.13183526694774628,-0.29346951842308044,-0.19498345255851746,0.015497127547860146,0.11462635546922684,0.13434970378875732,0.06327176094055176,-0.06988705694675446,0.06307711452245712,0.020603038370609283,0.16369764506816864,0.12856058776378632,0.20925861597061157,-0.42927297949790955,0.025441838428378105,0.009766926057636738,0.08915034681558609,0.0967717245221138,0.1576988846063614,-0.17054316401481628,0.028980419039726257,0.08847924321889877,-0.001532039139419794,0.14284779131412506,0.09084273874759674,-0.33738890290260315,0.04683995619416237,0.05113258957862854,-0.0346749871969223,0.018516909331083298,0.048984091728925705,0.1530105471611023,0.05508635193109512,0.06380968540906906,0.08967513591051102,0.09466147422790527,0.10909430682659149,-0.17072701454162598,-0.049065276980400085,-0.011996026150882244,-0.11467772722244263,-0.13744382560253143,-0.140737846493721,-0.12218943983316422,-0.015292873606085777,0.021824028342962265,0.009329711087048054,0.003494363510981202,0.01977522112429142,0.26327335834503174,0.012778976932168007,-0.030491238459944725,0.017088796943426132,-0.0006389492191374302,0.0005865030107088387,0.039093658328056335,0.1363842487335205,0.021871047094464302,-0.0001997420913539827,0.022831611335277557,0.162000373005867,0.10849602520465851,0.049959585070610046,0.06714069098234177,0.04963191598653793,0.07219389081001282,0.06845676898956299,-0.054090164601802826,-0.027925707399845123,-0.08290044218301773,-0.09118866920471191,-0.06536698341369629,-0.0018371533369645476,-0.13986989855766296,-0.07467205822467804,-0.09853287041187286,-0.034304991364479065,-0.1059354692697525,-0.11393044888973236,-0.13925011456012726,0.2250884473323822,0.13908345997333527,0.10774298757314682,0.11896487325429916,0.15821851789951324,0.2435172200202942,0.06998654454946518,0.03370969742536545,0.03052745759487152,0.02032504789531231,0.05166572704911232,0.3315240144729614,0.17335772514343262,0.09642931818962097,0.11875254660844803,0.1381002813577652,0.19583454728126526,0.17817264795303345,0.028025399893522263,0.0011781291104853153,-0.12487182766199112,0.00031205860432237387,-0.07293836027383804,-0.041928134858608246,-0.10261144489049911,-0.13571499288082123,-0.12359296530485153,-0.20262044668197632,-0.2599928677082062,0.07404579222202301,0.06980878859758377,-0.03596974164247513,-0.07774589955806732,-0.09893175214529037,-0.10681465268135071,0.08855098485946655,-0.010811607353389263,0.023526210337877274,0.015078293159604073,0.0026723616756498814,-0.07367035001516342,0.4039798080921173,-0.04761289805173874,-0.011722722090780735,-0.08660399168729782,-0.13468115031719208,-0.04126633331179619,-0.29264509677886963,-0.02433215267956257,-0.043206412345170975,-0.014856022782623768,-0.061827439814805984,-0.04117100313305855,0.23063036799430847,0.0893617793917656,0.1875460147857666,0.11063222587108612,0.09398588538169861,0.1690639853477478,0.3302757740020752,0.0722845122218132,0.06498604267835617,0.030872009694576263,0.03938967362046242,-0.008485491387546062,-0.4101208746433258,-0.05735045671463013,-0.03799533098936081,0.059634674340486526,0.008125074207782745,-0.03134823590517044,-0.39085906744003296,-0.04473203048110008,0.07536521553993225,-0.042608749121427536,-0.04755522683262825,-0.07193392515182495,0.15430787205696106,-0.23656988143920898,-0.2511853873729706,0.07094351202249527,0.24543562531471252,0.29782211780548096,0.019628524780273438,0.044421494007110596,0.5887854695320129,-0.33573633432388306,-0.26131656765937805,0.01103123277425766,0.37252503633499146,-0.33029043674468994,0.011802655644714832,0.08324690163135529,0.33112743496894836,0.48695510625839233,0.4124320447444916,-0.335156112909317,-0.23214314877986908,0.29318711161613464,-0.2807904779911041,-0.3806850016117096,-0.058894794434309006,-0.02838410809636116,0.4660887122154236,0.18218687176704407,-0.04281270503997803,0.15780843794345856,0.17734551429748535,0.15962359309196472,0.1111827939748764,0.03887252137064934,0.10159751027822495,0.06829237192869186,-0.018970100209116936,0.11997789144515991,-0.015111038461327553,0.07315779477357864,0.04974566772580147,0.33007165789604187,0.3384985029697418,-0.41907066106796265,-0.1300140619277954,-0.03772132843732834,-0.36054670810699463,-0.41840553283691406,-0.09122594445943832,0.21534401178359985,0.125010684132576,-0.07321484386920929,-0.3400280177593231,0.09328437596559525,-0.06872662901878357,-0.06893021613359451,0.03917010501027107,-0.17648892104625702,0.3988821506500244,0.09362760931253433,-0.14870890974998474,0.2580417990684509,0.17919914424419403,0.0897211804986,0.23345115780830383,0.36666375398635864,0.19250546395778656,-0.24066323041915894,0.17876945436000824,-0.19506362080574036,-0.27654480934143066,-0.2521628439426422,0.3551162779331207,-0.0979129821062088,0.3579557538032532,-0.22678792476654053,0.10223598778247833,-0.11553913354873657,-0.09434260427951813,-0.022175833582878113,0.10801775753498077,-0.01677750051021576,0.04684242233633995,0.12715518474578857,0.1319621354341507,0.06134020537137985,0.09719439595937729,0.020236235111951828,-0.07754655182361603,0.06806763261556625,0.18560202419757843,0.1811857670545578,0.372994601726532,0.165848970413208,-0.11859159171581268,-0.09223148226737976,-0.1738663613796234,-0.10193809121847153,-0.009518113918602467,0.009537847712635994,0.09081000089645386,0.04799642786383629,-0.11683078110218048,0.006118812598288059,-0.013926585204899311,-0.059058304876089096,-0.09210216253995895,0.22166183590888977,0.2084726095199585,0.15843205153942108,0.21808165311813354,0.14162465929985046,-0.1822115033864975,-0.003230685368180275,0.07539752870798111,-0.035270508378744125,-0.10261490195989609,-0.017243610695004463,0.054519955068826675,-0.2025837004184723,-0.02589142695069313,-0.047739334404468536,-0.036360129714012146,-0.10173498839139938,-0.06365470588207245,0.19820426404476166,0.08195750415325165,-0.01364540122449398,-0.04142700508236885,0.19172659516334534,-0.0004582471738103777,-0.057770054787397385,0.050398822873830795,0.23382242023944855,-0.13582231104373932,-0.2463824301958084,-0.19951891899108887,0.0005096147069707513,-0.14896461367607117,-0.25130584836006165,-0.3366563320159912,-0.10824548453092575,0.08170970529317856,0.06219441816210747,0.055179011076688766,-0.005185086280107498,0.021914225071668625,0.08376485854387283,-0.20906689763069153,0.1343969851732254,-0.03638262674212456,0.033065393567085266,0.03210039809346199,0.10107093304395676,-0.07945127785205841,-0.03784721717238426,0.03423305228352547,-0.11283916980028152,-0.052502140402793884,-0.16025954484939575,0.3275144398212433,0.0074865142814815044,-0.16990171372890472,-0.19291739165782928,-0.02040824107825756,-0.17892421782016754,-0.0007019198965281248,0.06303756684064865,0.014181090518832207,0.07983896136283875,0.05355013906955719,0.10021845996379852,0.03850356489419937,-0.1222325786948204,-0.010613927617669106,-0.04066326469182968,-0.0682673454284668,-0.2339039444923401,-0.12091688811779022,0.20931734144687653,0.11183728277683258,0.10716649889945984,0.14655661582946777,-0.1431749165058136,-0.06492473930120468,0.03091275319457054,0.06183699518442154,0.006772787310183048,0.050391584634780884,-0.15167070925235748,-0.031761284917593,0.019123362377285957,-0.001691912766546011,0.02571481093764305,0.09464311599731445,0.04568798094987869,-0.14031164348125458,0.021640906110405922,0.10457086563110352,-0.09205418080091476,0.03507969528436661,-0.02501756139099598,0.03271858021616936,-0.0877562016248703,-0.11815854907035828,0.037228427827358246,-0.0116733955219388,-0.18136568367481232,0.025233859196305275,-0.218551903963089,-0.06792379915714264,-0.11654572933912277,-0.17149682343006134,0.3193359971046448,0.09869799762964249,0.04553171992301941,0.10507600009441376,0.02400772087275982,-0.007702379487454891,-0.0005164559697732329,0.04043065011501312,-0.05265257880091667,-0.1183202788233757,0.04286583885550499,0.000997158233076334,0.24314846098423004,-0.021802471950650215,0.0374540351331234,0.03534848242998123,-0.05766836553812027,-0.04883524402976036,-0.10011656582355499,0.3335084319114685,0.0013575764605775476,-0.028517307713627815,-0.00880762841552496,0.03494887053966522,0.07432824373245239,0.025820285081863403,0.026344217360019684,0.027104496955871582,0.03306258097290993,0.08198156207799911,0.018302666023373604,0.28593558073043823,0.06758848577737808,-0.03179209679365158,0.06080026552081108,0.07915961742401123,0.014699711464345455,0.21326956152915955,0.020003700628876686,-0.007894028909504414,-0.05102131888270378,-0.14385604858398438,0.04824095219373703,0.1479138731956482,-0.036463815718889236,-0.013549884781241417,0.04804369434714317,0.01939123496413231,0.0902942344546318,0.5339733362197876,0.026112232357263565,0.020301269367337227,0.017243899405002594,0.08631568402051926,-0.003867523744702339,0.2474329173564911,-0.056475237011909485,0.016258778050541878,-0.02846067026257515,-0.06191715970635414,0.011363406665623188,-0.07392054796218872,-0.039524614810943604,0.08766169846057892,0.17262111604213715,0.13474127650260925,-0.1986313909292221,0.0004988190485164523,0.05102210491895676,0.045594874769449234,0.043977223336696625,-0.08329537510871887,-0.2314027100801468,0.21060746908187866,-0.027599990367889404,-0.00841592624783516,0.013282396830618382,0.010047960095107555,-0.11590597033500671,0.11474455147981644,-0.01777099445462227,-0.13532167673110962,-0.017056679353117943,-0.06241350993514061,-0.13734285533428192,-0.046807385981082916,-0.0635024905204773,0.07180579006671906,0.030077164992690086,-0.01999197155237198,-0.1099066287279129,0.15477122366428375,0.008348599076271057,-0.08704471588134766,-0.3363252282142639,-0.03990466892719269,0.24586425721645355,-0.13950543105602264,0.03527110815048218,0.049642372876405716,-0.03554944321513176,0.07883360236883163,0.1616588681936264,-0.14380167424678802,-0.052524738013744354,-0.018280457705259323,0.030367793515324593,0.05773787572979927,-0.05309053510427475,-0.22598622739315033,0.031960707157850266,-0.017448365688323975,-0.03093024715781212,0.07073085010051727,0.18464553356170654,-0.30274638533592224,-0.009313213638961315,0.07412030547857285,0.09173589199781418,0.16849510371685028,0.16397058963775635,-0.07129693776369095,-0.0077616190537810326,0.030911704525351524,-0.05234665423631668,-0.06828567385673523,0.07201441377401352,-0.10859525203704834,-0.06408761441707611,-0.11166512221097946,-0.0332273505628109,0.026777233928442,-0.04148691147565842,0.12513160705566406,0.16731172800064087,0.1176055446267128,0.07232782244682312,0.07956155389547348,0.27327093482017517,-0.224275603890419,0.0006475879345089197,0.060363978147506714,0.027766838669776917,-0.006957273930311203,-0.13762395083904266,-0.03238339349627495,-0.07261297851800919,0.003226109314709902,-0.049625225365161896,-0.021421611309051514,0.02281898818910122,0.26936328411102295,0.08206634968519211,0.011547986418008804,0.01846044696867466,-0.02804400585591793,-0.04565849155187607,0.114651620388031,0.09821603447198868,0.17521464824676514,0.1249881461262703,0.028766611590981483,-0.04346068575978279,-0.140515998005867,0.140470951795578,0.141696959733963,0.07463114708662033,0.0864296555519104,-0.06296870112419128,-0.06598677486181259,-0.11151684820652008,-0.10850755125284195,0.06559502333402634,-0.0411931648850441,-0.09434326738119125,-0.21925091743469238,0.021434348076581955,0.01726318709552288,0.03144870325922966,-0.15739275515079498,0.003239775076508522,0.20313772559165955,-0.09061352908611298,-0.062809519469738,0.0653446614742279,-0.0009704398107714951,-0.03402918204665184,-0.11605571210384369,-0.09800224751234055,-0.20823915302753448,-0.20918944478034973,-0.019809521734714508,0.03518017381429672,-0.313487708568573,-0.0020544417202472687,-0.0050272149965167046,-0.04574202001094818,0.032151348888874054,-0.07970543205738068,0.3051382005214691,-0.015193848870694637,-0.01767619326710701,0.04886911064386368,0.0003625386452767998,0.05081789568066597,0.1254144310951233,0.042094018310308456,0.15346460044384003,0.003991719800978899,-0.1366700530052185,-0.14645908772945404,0.18820825219154358,0.12715156376361847,0.05762249603867531,0.021833596751093864,0.01475261989980936,0.0786268338561058,0.038167499005794525,-0.03753582388162613,-0.02329724282026291,-0.06415553390979767,0.05695606768131256,0.006157371215522289,0.012429139576852322,0.07344181835651398,-0.031525809317827225,-0.0352213978767395,-0.021795811131596565,-0.028267158195376396,-0.2407006472349167,0.013078032992780209,0.014838640578091145,0.03656908869743347,0.09503839910030365,0.07571036368608475,