{"version":"0.7.0","architecture":"SlimmableContainer","config":{"submodels":[{"max_value":0.5,"model":{"version":"0.7.0","metadata":{"date":{"year":2026,"month":5,"day":14,"hour":18,"minute":24,"second":29},"loudness":-19.471094131469727,"gain":0.9697952374992906},"architecture":"WaveNet","config":{"layers":[{"input_size":1,"condition_size":1,"head":{"out_channels":1,"kernel_size":16,"bias":true},"channels":3,"kernel_sizes":[6,6,6,6,6,6,6,6,6,6,6,6,6,6,15,15,6,6,6,6,6,6,6],"dilations":[1,3,7,17,41,101,239,1,3,7,17,41,101,239,1,13,1,3,7,17,41,101,239],"activation":[{"type":"LeakyReLU","negative_slope":0.01},{"type":"LeakyReLU","negative_slope":0.01},{"type":"LeakyReLU","negative_slope":0.01},{"type":"LeakyReLU","negative_slope":0.01},{"type":"LeakyReLU","negative_slope":0.01},{"type":"LeakyReLU","negative_slope":0.01},{"type":"LeakyReLU","negative_slope":0.01},{"type":"LeakyReLU","negative_slope":0.01},{"type":"LeakyReLU","negative_slope":0.01},{"type":"LeakyReLU","negative_slope":0.01},{"type":"LeakyReLU","negative_slope":0.01},{"type":"LeakyReLU","negative_slope":0.01},{"type":"LeakyReLU","negative_slope":0.01},{"type":"LeakyReLU","negative_slope":0.01},{"type":"LeakyReLU","negative_slope":0.01},{"type":"LeakyReLU","negative_slope":0.01},{"type":"LeakyReLU","negative_slope":0.01},{"type":"LeakyReLU","negative_slope":0.01},{"type":"LeakyReLU","negative_slope":0.01},{"type":"LeakyReLU","negative_slope":0.01},{"type":"LeakyReLU","negative_slope":0.01},{"type":"LeakyReLU","negative_slope":0.01},{"type":"LeakyReLU","negative_slope":0.01}],"bottleneck":3,"head1x1":{"active":false,"out_channels":1,"groups":1},"layer1x1":{"active":true,"groups":1},"groups_input":1,"groups_input_mixin":1,"conv_pre_film":{"active":false,"shift":true,"groups":1},"conv_post_film":{"active":false,"shift":true,"groups":1},"input_mixin_pre_film":{"active":false,"shift":true,"groups":1},"input_mixin_post_film":{"active":false,"shift":true,"groups":1},"activation_pre_film":{"active":false,"shift":true,"groups":1},"activation_post_film":{"active":false,"shift":true,"groups":1},"layer1x1_post_film":{"active":false,"shift":true,"groups":1},"head1x1_post_film":{"active":false,"shift":true,"groups":1},"gating_mode":["none","none","none","none","none","none","none","none","none","none","none","none","none","none","none","none","none","none","none","none","none","none","none"],"secondary_activation":[null,null,null,null,null,null,null,null,null,null,null,null,null,null,null,null,null,null,null,null,null,null,null],"slimmable":null}],"head":null,"head_scale":0.011375604977673247},"weights":[4.52499532699585,4.995687484741211,-4.728311061859131,0.696875810623169,0.4282696545124054,-0.009669281542301178,-0.5324189066886902,-0.8606255054473877,-0.9646143317222595,0.7069398760795593,0.37012094259262085,-0.05425649881362915,-0.6699667572975159,-1.0070624351501465,-1.022241234779358,-0.604881763458252,-0.31390875577926636,0.11207286268472672,0.43974530696868896,0.8194819092750549,0.9529511332511902,-1.6329244375228882,-1.1915727853775024,0.700705349445343,0.8076116442680359,1.7698436975479126,3.1127052307128906,-1.741802453994751,-1.180316686630249,0.6420462727546692,0.7749582529067993,1.9153649806976318,2.9301493167877197,1.3488521575927734,0.8460001945495605,-0.8525307178497314,-0.9206448793411255,-1.5737426280975342,-2.843441963195801,-0.19999541342258453,-0.2051357477903366,-0.22702555358409882,-0.2154693454504013,-0.160755917429924,-0.23990418016910553,-0.2291218340396881,-0.22916999459266663,-0.24846400320529938,-0.2307855486869812,-0.17166970670223236,-0.25351211428642273,0.22159942984580994,0.22208049893379211,0.2401561141014099,0.22430691123008728,0.1598214954137802,0.2455625683069229,-1.002146601676941,2.5476512908935547,-0.1522165983915329,-0.34927093982696533,1.6199697256088257,-0.06661128997802734,-1.3864558935165405,0.7527958750724792,0.32878178358078003,-0.9479404091835022,0.4175546169281006,0.08238110691308975,1.6051104068756104,-0.7365955710411072,0.0936037227511406,0.446615606546402,0.6374597549438477,0.8539723753929138,0.21661381423473358,0.1618025153875351,-0.014624763280153275,-0.045071326196193695,0.06671834737062454,0.058234646916389465,0.1941586434841156,0.09133552759885788,-0.07015180587768555,0.24298366904258728,0.0960903987288475,-0.22678761184215546,0.022164512425661087,0.1028396338224411,-0.21746912598609924,-0.0024568424560129642,-0.01836467906832695,0.5019627213478088,0.2264798879623413,0.10298405587673187,0.1469060182571411,0.384189248085022,0.2769039273262024,-0.2069760113954544,0.0022196213249117136,0.36031144857406616,0.3315857946872711,0.1533096879720688,0.07050174474716187,-0.3709357976913452,0.07636100053787231,-0.28485557436943054,-0.19869007170200348,-0.1094735786318779,0.30228936672210693,0.9704020619392395,0.13182276487350464,0.010717369616031647,0.22571292519569397,0.2019532322883606,-0.09156466275453568,0.06626929342746735,-0.09756006300449371,0.015474652871489525,0.01161114126443863,0.08651009202003479,0.02608933299779892,-0.1432105004787445,0.31368622183799744,-0.18483376502990723,0.02886919490993023,-0.03035890683531761,-0.1987239569425583,-0.26502490043640137,0.3228980600833893,0.27089598774909973,0.10484535992145538,-1.2173351049423218,-1.5885887145996094,0.70627361536026,-0.28334274888038635,-0.630370557308197,-0.17730273306369781,-0.22933168709278107,0.13797250390052795,0.20222042500972748,0.3977360129356384,0.12328508496284485,-0.03502892702817917,-0.40856412053108215,-0.043380171060562134,0.44565072655677795,-0.20489169657230377,-0.10530276596546173,-0.09217672795057297,-0.06542008370161057,-0.03906270116567612,-0.4412287175655365,-0.04768276959657669,-0.19252793490886688,-0.24929256737232208,-0.3813572824001312,-0.575400173664093,-0.6872736215591431,-0.32810670137405396,-0.313532292842865,-0.3736862242221832,-0.24593542516231537,-0.36319711804389954,0.031089676544070244,0.0997418761253357,0.02109231986105442,-0.02711484394967556,0.037645019590854645,-0.11726798862218857,0.07368229329586029,-0.1905396729707718,0.16968002915382385,0.03626364842057228,0.04868678003549576,0.3730091452598572,0.46937188506126404,0.06921021640300751,0.3239641487598419,0.21613308787345886,0.2107238918542862,0.2896070182323456,0.05620666220784187,-0.10006936639547348,-0.008085670880973339,0.11188026517629623,0.01504419557750225,0.25738251209259033,-0.4104565680027008,0.19425296783447266,0.20930376648902893,0.30110976099967957,0.029887964949011803,0.1648116558790207,-0.25102025270462036,-0.08361848443746567,-0.0866103544831276,-0.05214373394846916,-0.14072076976299286,-0.05774373561143875,0.7184950709342957,-0.6811222434043884,0.32426685094833374,-0.3175922930240631,-0.05550513043999672,1.0764877796173096,-0.6725955009460449,1.433270812034607,0.5021435618400574,-0.36368635296821594,0.4437122344970703,-0.006731534376740456,-0.11823709309101105,-0.9768760800361633,-0.303070068359375,0.4003453850746155,-0.37664130330085754,-0.23761115968227386,-0.043954718858003616,0.08956311643123627,0.017821231856942177,0.0283052958548069,0.051982708275318146,-0.17586059868335724,-0.1624143421649933,0.0889027938246727,0.02223801799118519,0.5114195346832275,0.49888360500335693,0.5961124300956726,0.02635015733540058,0.11737170815467834,-0.05144562944769859,0.029920227825641632,-0.02667856216430664,-0.38097235560417175,0.000983485602773726,-0.029131310060620308,-0.07713787257671356,0.024768102914094925,0.10491981357336044,0.06418298929929733,0.0867876261472702,-0.031039636582136154,-0.06571009010076523,-0.4365096390247345,-0.29656192660331726,-0.91618412733078,-0.1756652593612671,0.005479705985635519,-0.016226043924689293,0.09333622455596924,0.2923567593097687,0.19264109432697296,-0.11151845753192902,-0.09343213587999344,0.0027835271321237087,0.0387345589697361,0.006044196896255016,-0.0020254896953701973,-0.28038734197616577,-0.2607516944408417,-0.11891089379787445,-0.06547824293375015,-0.0024583968333899975,-0.01394998375326395,0.17059940099716187,-0.15256550908088684,0.0036517467815428972,0.04748847335577011,0.08213424682617188,0.03247363492846489,-0.43096980452537537,0.06216049939393997,-0.23387180268764496,-0.4327860474586487,0.5863986611366272,-0.41265052556991577,0.10124058276414871,-0.11275067925453186,0.054470013827085495,0.5190451741218567,-0.6429070830345154,0.754449188709259,-0.5060061812400818,0.5234336256980896,-0.5292542576789856,0.5587797164916992,-0.1263989955186844,-0.01754448376595974,-0.60218346118927,0.037853460758924484,-0.05318703502416611,-0.02910209447145462,0.12064516544342041,0.010634674690663815,0.44220760464668274,2.4865674276952632e-05,-0.06416075676679611,-0.14513328671455383,0.0015351887559518218,0.0319782979786396,0.3758753836154938,0.020815091207623482,-0.09284041076898575,-0.1039329245686531,0.15943357348442078,0.2432771474123001,-0.32890021800994873,0.08494331687688828,0.017860136926174164,0.07508572190999985,0.1666525900363922,0.030042992904782295,0.300024151802063,0.05857420340180397,-0.047748710960149765,-0.04770389199256897,0.049181219190359116,0.39077940583229065,-0.21425749361515045,0.1124129667878151,-0.0021427697502076626,0.0692431777715683,0.23146164417266846,0.3900955319404602,0.23232713341712952,0.04584437608718872,-0.005029232706874609,-0.013611966744065285,0.03685641661286354,0.04705853760242462,0.11415745317935944,0.06566330790519714,0.07391984760761261,0.018592411652207375,0.13805153965950012,0.27999261021614075,0.5396216511726379,0.07246208190917969,0.03458927571773529,0.006959189660847187,0.13929209113121033,0.3182300627231598,-0.010466518811881542,0.48014870285987854,0.3022770583629608,-0.14896085858345032,-1.0528903007507324,0.25913092494010925,-0.0050237225368618965,-0.1156068742275238,-0.10068988054990768,0.3343185484409332,0.13762640953063965,0.6726439595222473,-0.6599227786064148,0.30710339546203613,-0.4568084180355072,-0.09746293723583221,-0.5583292245864868,-0.5382874011993408,-0.608201265335083,0.015261804684996605,-0.0038849401753395796,0.006521923001855612,0.010475643910467625,0.002347513334825635,-0.12978528439998627,0.00031966305687092245,-0.0339534655213356,-0.021597232669591904,0.01042210590094328,0.02553122490644455,0.24015389382839203,0.015742380172014236,-0.026127811521291733,-0.00477792602032423,0.019463252276182175,0.014094828628003597,0.39142948389053345,-0.004462117329239845,0.009170791134238243,0.001602335600182414,0.030889369547367096,-0.0047041852958500385,-0.31566208600997925,0.048243001103401184,0.044132865965366364,0.030894145369529724,0.00497820507735014,-0.022947579622268677,-0.43086493015289307,0.019715147092938423,0.03829284757375717,0.017547305673360825,0.036578692495822906,-0.014662922360002995,1.020490050315857,-0.03170456364750862,-0.015305424109101295,-0.050295013934373856,-0.015694882720708847,0.023926088586449623,0.0639788880944252,-0.0034930934198200703,0.02391785755753517,-0.042002562433481216,-0.034179411828517914,0.02252703532576561,-0.7400873899459839,-0.0411238893866539,-0.0013728794874623418,-0.07748108357191086,-0.043964918702840805,0.01665630005300045,-0.29709935188293457,-0.9734329581260681,-0.7893171310424805,0.30235370993614197,1.1895288228988647,-0.3455257713794708,0.7085776925086975,0.8512806296348572,0.21969079971313477,-0.4101592004299164,-0.38686737418174744,0.6426522731781006,0.13016435503959656,-0.602288007736206,-0.45269015431404114,-0.02642110548913479,0.25250184535980225,-0.01188839040696621,-0.4462801516056061,0.02748526632785797,0.030559198930859566,0.0017860392108559608,-0.0037464851047843695,-0.012224681675434113,-0.6182434558868408,0.041572969406843185,0.03842957690358162,0.01523702871054411,0.011269629932940006,0.0021266613621264696,-0.07538165152072906,0.05158938840031624,0.05128970742225647,0.00014851317973807454,-0.008579554967582226,-0.018761688843369484,-0.08863049000501633,-0.02239048480987549,-0.06461334973573685,-0.01710631512105465,0.010565281845629215,0.028916845098137856,-0.37547269463539124,-0.03902840241789818,-0.058421917259693146,-0.025433983653783798,-0.010316522791981697,0.014501919969916344,-0.38797906041145325,-0.03999195620417595,-0.10419541597366333,-0.025480439886450768,-0.0005291207926347852,0.06273344159126282,-0.015192757360637188,0.03884117305278778,0.15154488384723663,0.07394112646579742,0.018505876883864403,-0.10524873435497284,-0.16127784550189972,-0.3689015209674835,-0.4697643220424652,-0.1613345444202423,-0.13062652945518494,-0.10969869047403336,-0.028132330626249313,0.26894044876098633,0.24042677879333496,0.19571878015995026,0.23399175703525543,-0.049652308225631714,-0.19123484194278717,-0.07154451310634613,-0.10055200010538101,-0.2889159619808197,0.05211720988154411,0.11386668682098389,-0.16680632531642914,0.47768434882164,0.10621459782123566,0.6661811470985413,0.11984072625637054,0.5719894766807556,-0.06986554712057114,0.356952965259552,0.1446342021226883,0.333524614572525,0.1435423344373703,-0.4354710578918457,0.08385490626096725,0.19189047813415527,-0.46377885341644287,-0.5994737148284912,-0.21199215948581696,0.20418326556682587,0.2988559603691101,-0.3543701469898224,-0.015583625994622707,0.13986177742481232,-0.1422826498746872,-0.09611448645591736,-0.27991750836372375,-0.12506331503391266,0.3066292405128479,0.5024568438529968,0.05515044927597046,-0.03633079677820206,0.30439335107803345,-0.02754390425980091,0.0902874693274498,0.12756727635860443,0.3220941424369812,-0.5254526138305664,0.1475600302219391,0.5742272734642029,0.09498133510351181,-0.2814781367778778,-0.23387522995471954,-0.08421379327774048,-0.4449763894081116,-0.053453996777534485,0.0691835880279541,-0.11450818926095963,-0.5522356629371643,0.18068763613700867,-0.1663712114095688,-0.25847163796424866,-0.01243208535015583,0.5109405517578125,-0.4030817747116089,-0.08896325528621674,-0.26236972212791443,0.4372422695159912,-0.36045899987220764,-0.41857635974884033,0.13014312088489532,-0.03886789456009865,0.4470694363117218,-0.060724496841430664,-0.26145511865615845,-0.7439596056938171,0.30789875984191895,-0.10583238303661346,-0.45519348978996277,0.32900431752204895,0.12787024676799774,0.27977651357650757,0.06677509844303131,-0.44984182715415955,-0.17278891801834106,-0.07350265234708786,0.2309928983449936,0.7220593094825745,0.6705286502838135,0.9987800121307373,-0.786843478679657,-0.4345424771308899,-0.27056246995925903,0.46177583932876587,-0.2994579076766968,-0.6034958958625793,0.0517684705555439,-0.03927149623632431,-0.07765288650989532,-0.16675442457199097,-0.21749979257583618,0.11753378808498383,-0.19809870421886444,-0.10671280324459076,0.026318609714508057,-0.2592824399471283,-0.07584402710199356,-0.034063670784235,0.5318098664283752,-0.16861790418624878,-0.05337205156683922,-0.20917874574661255,0.518753170967102,-0.004567587282508612,-0.40291696786880493,0.013992642052471638,-0.09407506138086319,-0.05724933370947838,-0.2048312872648239,-0.9763627052307129,-0.02205505408346653,0.025225723162293434,-0.04762297868728638,-0.2019893378019333,-0.23320594429969788,0.07736898213624954,-0.3305252492427826,-0.013624082319438457,-0.04582687094807625,-0.2951079308986664,-0.44516056776046753,0.2600734531879425,-0.30075803399086,0.021686246618628502,0.065519779920578,-0.01745389774441719,-0.0029352460987865925,-0.150631383061409,-0.38511455059051514,0.052580587565898895,0.019361699000000954,-0.08880436420440674,0.18336419761180878,-0.14614103734493256,0.8609663844108582,0.05980236083269119,0.03359747305512428,-0.18917199969291687,-0.1179860457777977,-0.46969282627105713,-0.22956153750419617,-0.44751468300819397,0.4069369435310364,0.19583752751350403,0.3442144989967346,-0.1341213881969452,0.4419865906238556,0.4066165089607239,-0.28986459970474243,0.613998293876648,-0.5337477326393127,0.7363832592964172,-0.49977219104766846,-0.1765894889831543,-0.21621987223625183,-0.18581348657608032,-0.3273414075374603,-0.28293731808662415,0.405180424451828,0.058186620473861694,-0.006033515557646751,0.025534549728035927,-0.011368151754140854,-0.06429827958345413,-0.44027572870254517,-0.011249573901295662,-0.1797916740179062,-0.13917692005634308,-0.16203640401363373,-0.34629181027412415,0.06853634864091873,-0.02710578963160515,-0.17205891013145447,-0.13405178487300873,-0.26557034254074097,-0.37105321884155273,-0.4430811107158661,-0.002584884874522686,0.004978623241186142,0.009263401851058006,0.02853478118777275,0.00826965644955635,0.7291832566261292,0.08356722444295883,0.07835041731595993,0.12237654626369476,0.1482568234205246,0.04207026585936546,0.09993486851453781,0.05519666150212288,0.07289126515388489,0.094269298017025,0.10925712436437607,0.042034320533275604,-0.06889022141695023,-0.0501997284591198,-0.10591185837984085,-0.0843760296702385,-0.1416962891817093,-0.12189051508903503,0.1715128868818283,-0.019119631499052048,-0.01305166631937027,0.009036070667207241,-0.10796336084604263,0.01722945272922516,-0.1385904848575592,-0.13731412589550018,-0.2069585770368576,-0.2001730054616928,-0.2866257131099701,-0.18833747506141663,-0.03441862016916275,-0.24115456640720367,-0.19236312806606293,0.4451709985733032,-0.760334312915802,-1.2735079526901245,0.2724305987358093,0.23061080276966095,-1.1294758319854736,-0.6971811652183533,0.7714616060256958,-0.21081838011741638,0.0694003477692604,0.3387269973754883,0.6923048496246338,0.31986427307128906,0.37730899453163147,-0.5136774182319641,-0.22247959673404694,-0.061920467764139175,-0.011369471438229084,-0.013623358681797981,0.01183986384421587,0.14513172209262848,-0.24360689520835876,-0.1182241439819336,-0.16340765357017517,-0.1908738762140274,-0.18459664285182953,-0.10654152184724808,-0.22736124694347382,-0.05585088953375816,-0.03687230125069618,-0.03865785524249077,-0.11190962791442871,0.06363669037818909,0.04825389012694359,0.056152235716581345,-0.06191100925207138,-0.04217861592769623,-0.024124987423419952,-0.15237174928188324,0.7079449892044067,0.04716022312641144,0.02944212406873703,0.012788387015461922,0.05362122878432274,0.008566484786570072,0.4977191686630249,-0.002948368899524212,0.0031348213087767363,0.007440228946506977,0.006327048409730196,0.018129779025912285,0.7795421481132507,0.001835929579101503,0.039119161665439606,0.035040292888879776,0.03500039502978325,0.11460508406162262,-0.12269991636276245,0.00026719729066826403,5.798197162221186e-05,0.008678514510393143,0.008264386095106602,0.019808832556009293,0.40764135122299194,0.005975960288196802,0.003968806006014347,0.001632177154533565,0.01801176369190216,0.043762318789958954,0.0023363714572042227,0.12019931524991989,0.20060023665428162,-0.8717724680900574,-1.3102200031280518,-0.06304339319467545,1.902809500694275,0.4919392764568329,-0.15113303065299988,0.3411937952041626,0.15652312338352203,-0.42430368065834045,-1.3115215301513672,0.033543333411216736,-0.7714780569076538,0.6229116320610046,0.5062268972396851,0.1962386965751648,-0.3331693708896637,0.15279822051525116,0.21655425429344177,0.2366161346435547,0.19397972524166107,0.10839100927114487,-0.5684791207313538,0.06122086942195892,0.07744509726762772,0.09348811954259872,0.062332458794116974,0.060457900166511536,-0.407518208026886,0.0851636752486229,0.08708890527486801,0.11728523671627045,0.11887018382549286,0.03923337534070015,-0.5599474906921387,-0.10199249535799026,-0.057995520532131195,-0.12344075739383698,-0.08839879930019379,-0.17149560153484344,0.006502023432403803,-0.08241313695907593,-0.016788886860013008,-0.07123096287250519,-0.03306109085679054,-0.04209836572408676,0.2849428355693817,-0.07696424424648285,-0.04564559459686279,-0.08817245811223984,-0.06013576686382294,-0.16300494968891144,-0.08074704557657242,-0.03337922692298889,0.04411165788769722,0.09649741649627686,0.08532556146383286,0.2679307460784912,-0.07138894498348236,-0.01985735446214676,0.013791831210255623,0.041020285338163376,0.0130336694419384,0.10532774776220322,0.8557385802268982,-0.038489118218421936,0.03030519001185894,0.02963545173406601,-0.025797540321946144,0.09336002171039581,-0.062210813164711,0.3572884798049927,0.30750685930252075,0.4634709358215332,0.4192214012145996,0.3346945345401764,-1.3383793830871582,0.5915015339851379,-0.6624791622161865,-0.3655366599559784,0.8299476504325867,-0.4574768543243408,0.603669285774231,0.4647216200828552,0.003947500139474869,0.22714759409427643,0.17236603796482086,-0.17934280633926392,-0.13515248894691467,-0.037752728909254074,-0.04807097837328911,-0.07882203161716461,-0.09485281258821487,-0.2020978033542633,0.3962631821632385,-0.02705242857336998,-0.025147298350930214,-0.054179318249225616,-0.06713301688432693,-0.13444572687149048,-0.8650879263877869,-0.03047679364681244,-0.04154736548662186,-0.07510083168745041,-0.0859488919377327,-0.14535513520240784,-0.04195563122630119,0.36562708020210266,-0.11640270054340363,-0.2291901707649231,-0.1611410230398178,0.14725267887115479,-0.8742759823799133,0.31936079263687134,0.02676047943532467,-0.09880286455154419,-0.16164757311344147,0.20517611503601074,0.18715287744998932,0.34708061814308167,0.19834637641906738,0.06597084552049637,-0.15555383265018463,0.19332705438137054,0.33041656017303467,-0.039059244096279144,-0.09966646134853363,-0.19164158403873444,-0.18339185416698456,-0.23794318735599518,0.29435667395591736,-0.023849787190556526,-0.05909787118434906,-0.1348765641450882,-0.13242347538471222,-0.14399564266204834,-0.607898473739624,-0.02164916694164276,-0.09752839803695679,-0.18315300345420837,-0.16987551748752594,-0.13522008061408997,0.08503494411706924,-0.7882347702980042,-0.25871220231056213,0.5628666281700134,0.2593773901462555,-0.3109835684299469,0.6768922209739685,-0.45048072934150696,-0.25862374901771545,0.290923148393631,1.6230108737945557,-0.16474612057209015,-0.8083899021148682,0.6984363198280334,0.874367356300354,-0.1562315821647644,0.4247048795223236,-0.4755496084690094,0.30930161476135254,0.017793014645576477,0.03537226840853691,0.08755925297737122,0.11446268111467361,0.18220806121826172,-0.9302637577056885,0.014053869061172009,0.006592083256691694,0.05366110801696777,0.06711655855178833,0.10569663345813751,-0.07018246501684189,0.03300224989652634,0.05586933717131615,0.046752966940402985,0.020191995427012444,0.1398693174123764,-0.4531382620334625,-0.06279207766056061,-0.14972084760665894,-0.26688864827156067,-0.08232870697975159,-0.3159850239753723,0.3469853699207306,-0.13230955600738525,-0.04009309038519859,-0.12619130313396454,-0.016080789268016815,-0.2960500419139862,0.09116548299789429,0.006226745899766684,-0.2367086410522461,-0.2661091089248657,-0.16831174492835999,-0.09478098154067993,-0.14725685119628906,0.08121981471776962,0.04492415860295296,0.02831871062517166,0.1457507163286209,0.0019317277474328876,0.009040595963597298,-0.04359067976474762,0.04360293596982956,0.018943749368190765,0.06401222199201584,0.0726814866065979,-0.15073543787002563,0.15959709882736206,-0.02067297324538231,-0.013140914030373096,-0.03640696778893471,0.09306665509939194,0.595790684223175,0.422661691904068,0.13347327709197998,0.2694069743156433,0.20218758285045624,0.26287737488746643,-0.12397921830415726,-0.06811530143022537,-0.16332757472991943,-0.043753717094659805,0.6192958950996399,-0.04950309917330742,0.08357280492782593,0.43979984521865845,-0.7084808349609375,-0.7277980446815491,0.1642051786184311,-0.1864132434129715,0.0063010030426084995,-0.13675110042095184,0.07609923928976059,0.006641163025051355,-0.029611947014927864,-0.1473207175731659,-0.24992193281650543,-0.07302066683769226,-0.04211375117301941,0.04415801167488098,0.03377733379602432,-0.07126852869987488,0.05303705483675003,0.1399397850036621,0.24754971265792847,0.09058988094329834,0.09141324460506439,0.07920581102371216,-0.09971249848604202,-0.16286395490169525,-0.1472199261188507,-0.0386677086353302,0.0673525407910347,0.26984044909477234,0.48873236775398254,0.35255110263824463,0.243441641330719,-0.0047577121295034885,-0.39668548107147217,-0.3516782224178314,-0.3049452602863312,0.2857062816619873,0.03179109841585159,-0.047779373824596405,0.057813070714473724,-0.0908975899219513,-0.07054920494556427,-0.014189477078616619,0.003868350526317954,-0.09010874480009079,0.05809648334980011,-0.06485091894865036,-0.14944422245025635,-0.22765164077281952,-0.2612658441066742,0.5194637775421143,-0.15853767096996307,-0.09510093182325363,0.060921646654605865,-0.0007731041987426579,-0.0219018142670393,0.1377415955066681,0.05481664463877678,0.11311695724725723,-0.06733296066522598,-0.08329201489686966,0.0861588791012764,0.11792577803134918,0.30249303579330444,0.4812070429325104,0.311156302690506,-0.03414201736450195,0.04979333654046059,-0.04387599974870682,0.09268926829099655,-0.04746071621775627,-0.06081920489668846,-0.15388084948062897,-0.13511991500854492,-0.20756575465202332,-0.10604512691497803,-0.3119862675666809,-0.33768144249916077,-0.4852569103240967,-0.29568377137184143,-0.04428565502166748,-0.14334282279014587,-0.045604363083839417,0.08282904326915741,0.03071272000670433,0.0023095787037163973,-0.1112077534198761,-0.13968436419963837,-0.016331780701875687,0.05738728493452072,0.0028247360605746508,-0.057300787419080734,-0.07991311699151993,0.15728965401649475,-0.012319959700107574,0.19912312924861908,-0.25341591238975525,-0.17246858775615692,-0.1617603302001953,-0.27082276344299316,-0.12837468087673187,-0.19794610142707825,-0.1670306771993637,-0.06529506295919418,-0.10370868444442749,-0.17198020219802856,-0.297689825296402,-0.13956943154335022,0.010232151485979557,-0.16305430233478546,-0.2586674988269806,-0.07007697224617004,-0.015863453969359398,-0.1073804646730423,-0.023457270115613937,-0.062129344791173935,-0.20270605385303497,-0.126345694065094,0.09262920916080475,-0.0908571407198906,-0.0445643849670887,0.0056841373443603516,-8.21039157017367e-06,0.08178600668907166,-0.09431898593902588,-0.25099310278892517,-0.08581579476594925,-0.05777610093355179,0.014183609746396542,-0.07906421273946762,-0.1268863081932068,-0.14764533936977386,-0.155180886387825,-0.138849139213562,-0.1480821669101715,0.01723189651966095,-0.0033470443449914455,-0.15240277349948883,-0.2911481261253357,-0.10584047436714172,0.07654443383216858,-0.2895152270793915,-0.14551270008087158,0.28326448798179626,0.0860348492860794,-0.4891872704029083,-0.02853553742170334,-0.13542477786540985,-0.28351983428001404,0.39880988001823425,-0.18089817464351654,-0.2980809211730957,0.27367666363716125,-0.1801934391260147,-0.1397601068019867,-0.41046610474586487,0.5442602634429932,-0.21874086558818817,0.4432803988456726,-0.029730796813964844,-0.0884581059217453,-0.11256395280361176,-0.02721860259771347,-0.10331394523382187,0.009813733398914337,0.036568790674209595,-0.019457345828413963,0.021389959380030632,0.0719122365117073,0.12401068955659866,0.19466765224933624,0.14451166987419128,0.24035511910915375,-0.590802788734436,-0.03957371413707733,-0.00015164853539317846,-0.018901336938142776,-0.017507875338196754,-0.02435615286231041,-0.033390335738658905,0.03828646242618561,0.01618324965238571,0.010207658633589745,-0.023345526307821274,-0.0166243277490139,-0.029860887676477432,0.03372308239340782,-0.09428109973669052,-0.035177748650312424,-0.12678898870944977,-0.16700862348079681,-0.13886773586273193,-0.10641291737556458,-0.08526941388845444,-0.08736028522253036,-0.10200845450162888,-0.06722347438335419,-0.021773407235741615,0.04088551178574562,0.10189023613929749,0.1580100655555725,0.13310234248638153,0.20839515328407288,0.1654367595911026,0.0917169451713562,0.11630823463201523,0.09746657311916351,0.09078915417194366,0.14112602174282074,0.14427489042282104,0.07530822604894638,0.13146132230758667,0.08539583534002304,-0.0031855537090450525,0.07880555093288422,0.026452546939253807,0.025638522580266,0.10169601440429688,-0.2539510726928711,-0.007250689901411533,-0.00028629638836719096,0.002844319213181734,-0.022475827485322952,-0.014583985321223736,0.009091761894524097,-0.01936686411499977,-0.005820473190397024,0.003226683707907796,-0.01864376850426197,0.012227465398609638,0.03873109072446823,0.0606667697429657,0.0623311921954155,0.2926087975502014,-0.005802565719932318,0.0035543907433748245,-0.007378194015473127,0.025262972339987755,0.027892883867025375,0.032982584089040756,0.07417015731334686,0.056236930191516876,0.08777598291635513,0.11115849018096924,0.17171025276184082,0.16815921664237976,0.18030206859111786,0.15734422206878662,-0.16829119622707367,0.09018664062023163,0.09972809255123138,0.1020854040980339,0.0740908607840538,0.1198955774307251,0.05849123001098633,-0.012859368696808815,0.10273126512765884,0.04880719631910324,0.06813570111989975,0.0786486342549324,0.036014921963214874,0.009175659157335758,0.033504076302051544,0.055163487792015076,-0.027439648285508156,-0.002515641273930669,0.002487368183210492,-0.011339889839291573,-0.02218545414507389,0.011885996907949448,-0.03897041082382202,-0.0159478560090065,-0.007855402305722237,-0.005562204867601395,-0.0010206167353317142,0.0006173583096824586,-0.032371390610933304,0.07572977989912033,-0.2812170684337616,0.1489865779876709,0.12281288951635361,0.10884951800107956,0.08208402246236801,0.10867012292146683,0.07022470235824585,0.09801317751407623,0.11731238663196564,0.09088217467069626,0.03795267269015312,0.05949242785573006,0.05859226733446121,0.02670956216752529,-9.415071690455079e-05,-0.24957183003425598,-1.2557289600372314,-0.19947324693202972,0.6902871131896973,-0.5637240409851074,0.5592437386512756,-0.2453259974718094,0.8407624959945679,-0.08722969144582748,-0.7342824935913086,0.43432992696762085,0.4714244604110718,0.18764294683933258,-0.5850733518600464,0.32485756278038025,0.01804935932159424,0.36729949712753296,0.6679023504257202,-0.960629403591156,0.07005918771028519,0.026270266622304916,-0.221214160323143,-0.14982643723487854,-0.12254761904478073,0.04474790021777153,-0.44417351484298706,-0.47802209854125977,-0.20013917982578278,0.17064689099788666,0.14710655808448792,-0.2736540734767914,-0.19729234278202057,-0.08586706966161728,-0.18694840371608734,0.0003535388095770031,0.15968821942806244,-0.004032127559185028,-0.2149198204278946,0.08473870158195496,0.17250144481658936,0.23322813212871552,-0.07272161543369293,-0.4623998701572418,-0.002659052377566695,0.055481232702732086,-0.0403955914080143,-0.19452722370624542,0.13926063477993011,1.136923909187317,0.08317241072654724,-0.036134786903858185,0.19864381849765778,-0.1147192195057869,0.047086816281080246,-0.006117030046880245,0.13615615665912628,0.08087258785963058,0.5209875106811523,0.1162789911031723,-0.2515805661678314,-0.2915882170200348,0.09604717791080475,0.025655047968029976,-0.2152910679578781,-0.9408785104751587,-0.5738806128501892,-0.20722441375255585,0.1622724086046219,-0.18293678760528564,-0.296133816242218,-0.10532226413488388,0.04258958622813225,-0.41192498803138733,0.34715884923934937,-0.382289320230484,-0.18099579215049744,0.15070754289627075,-0.4236675500869751,-0.3081246018409729,0.45634663105010986,0.2228665053844452,0.3112606108188629,0.5176288485527039,-0.9520929455757141,-0.683832585811615,-0.35613563656806946,-0.24131366610527039,0.3965522050857544,0.20376621186733246,0.30458953976631165,-0.9191722869873047,0.3312591314315796,0.22158312797546387,0.21304327249526978,0.27973031997680664,0.06267227232456207,-0.09890198707580566,-0.2699519693851471,-0.04945099726319313,-0.03402826562523842,-0.49856051802635193,-0.09700308740139008,0.07479313015937805,-0.35609182715415955,-0.2824263274669647,-0.2859487533569336,0.04076683148741722,0.020570510998368263,0.39152735471725464,0.22914741933345795,0.24106408655643463,0.22782069444656372,0.14808303117752075,0.19067443907260895,-0.09934874624013901,0.09627665579319,-0.2641177773475647,-0.0912388265132904,-0.02619978040456772,-0.5462560057640076,-0.11145053803920746,-0.24325208365917206,-0.06925471127033234,-0.10993984341621399,0.06528075784444809,-0.15345928072929382,0.049233328551054,-0.013037487864494324,0.032312896102666855,0.007149352226406336,-0.08164791762828827,0.17659002542495728,-0.22852082550525665,0.009269041940569878,-0.04792929068207741,-0.1282501071691513,-0.15041202306747437,0.11126518249511719,0.18814028799533844,0.09675487130880356,0.23227658867835999,0.08067572861909866,0.07543975114822388,0.27574461698532104,-0.5529855489730835,1.0941263437271118,-0.19428180158138275,0.49930861592292786,-1.0510127544403076,0.33931413292884827,-0.20018042623996735,-0.2747113108634949,0.699979305267334,-0.13312874734401703,0.6370880603790283,-0.45457491278648376,0.8369243144989014,-0.9371895790100098,-0.08089400827884674,0.12915997207164764,-0.7485761642456055,1.2236888408660889,-1.0038514137268066,0.2656000852584839,0.12565019726753235,0.1277877539396286,0.1690199077129364,0.05105379968881607,-0.20884937047958374,0.12051291763782501,-0.03926477208733559,-0.10123741626739502,0.050793860107660294,0.245610773563385,-0.274792343378067,-0.30423563718795776,-0.4035407304763794,-0.29397648572921753,-0.2992568910121918,-0.19831550121307373,0.2890506684780121,-0.272379994392395,0.0026550209149718285,-0.03281880542635918,-0.04849006608128548,-0.29911187291145325,-0.46480461955070496,0.07516511529684067,0.202378049492836,0.210752934217453,0.25757530331611633,0.34206682443618774,1.0143686532974243,0.00017120705160778016,-0.036699119955301285,-0.19605256617069244,-0.10820198804140091,0.011575055308640003,-0.31064602732658386,0.04863503947854042,-0.10901101678609848,-0.39815494418144226,-0.022793900221586227,-0.2042713612318039,0.14548657834529877,0.109187051653862,0.19386805593967438,0.016685213893651962,-0.0383283868432045,1.0528082847595215,-0.10741037875413895,0.015825970098376274,-0.018500076606869698,-0.16847284138202667,-0.33089151978492737,-0.36818748712539673,-0.11634329706430435,-0.1307441145181656,0.8280952572822571,0.36009082198143005,-0.579075813293457,0.04893847927451134,-0.8538186550140381,0.5608229041099548,-0.7937780022621155,0.09087865054607391,0.5104139447212219,0.6874237060546875,-0.8795320391654968,-0.5993593335151672,-0.04037470370531082,-0.4059014320373535,0.14074625074863434,0.335517555475235,-0.2652829587459564,0.25241222977638245,0.03749222680926323,0.13014446198940277,0.1527281552553177,0.41654136776924133,0.18745574355125427,0.05420820042490959,0.058376461267471313,0.13576740026474,0.1264147311449051,-0.02958119660615921,-0.2656685411930084,-0.22961509227752686,0.1985843926668167,0.0623474158346653,-0.23684518039226532,-0.051994286477565765,0.03407970443367958,0.43641766905784607,0.25823965668678284,0.07837562263011932,-0.012326272204518318,0.17777778208255768,-0.5087029337882996,0.17619821429252625,0.07021377980709076,-0.13884200155735016,-0.1300218403339386,0.2647401690483093,0.21357984840869904,-0.4141586124897003,-0.1740293800830841,-0.1434534341096878,0.02713930606842041,-0.09265898168087006,-0.037060562521219254,-0.33052143454551697,-0.27478376030921936,-0.388656347990036,-0.13891734182834625,-0.2720164954662323,-0.10592076182365417,0.07988885790109634,0.23093566298484802,0.1003822609782219,0.14751744270324707,0.020866869017481804,-0.2174442559480667,0.08521056175231934,-0.18289844691753387,-0.1407575011253357,-0.009565286338329315,-0.10782782733440399,-0.5033411383628845,0.06188828870654106,0.2923934757709503,0.4911419153213501,-0.08124662190675735,-0.2651152014732361,-0.2752019464969635,0.16249395906925201,0.6214055418968201,0.298950731754303,-0.6110628247261047,0.13847455382347107,0.27004629373550415,-0.2081056386232376,-0.4382205903530121,0.9760376214981079,0.5722358822822571,0.05752243101596832,0.14301708340644836,-0.1293228566646576,-0.08485966920852661,-0.27127605676651,0.13547074794769287,0.08849923312664032,-0.4421164393424988,-0.14556854963302612,-0.24038946628570557,-0.31123149394989014,-0.14028926193714142,-0.02208884432911873,-0.1806705892086029,-0.2880655527114868,-0.21479228138923645,-0.33969396352767944,-0.352722704410553,-0.23300737142562866,-0.09439162164926529,0.10812285542488098,-0.1558016687631607,-0.06161922961473465,0.3883725106716156,0.2826876640319824,0.2386755347251892,0.05282434821128845,-0.037274159491062164,-0.02314130775630474,0.12914104759693146,0.23460711538791656,0.98796546459198,-0.03244277089834213,0.057914961129426956,0.02014542743563652,-0.034407924860715866,-0.48872506618499756,0.19558782875537872,0.29534873366355896,0.08414730429649353,-0.0895402655005455,-0.07851908355951309,0.010329308919608593,0.2720890939235687,0.18835841119289398,0.16082227230072021,0.13089358806610107,0.1393623650074005,0.03356282040476799,0.22772713005542755,0.14352472126483917,0.22454768419265747,0.22224509716033936,0.2675081491470337,0.16142354905605316,0.06322534382343292,-0.10375747084617615,-0.09459412097930908,0.2140287160873413,0.14790117740631104,0.04145446792244911,0.0874009057879448,0.5604866743087769,-0.19300489127635956,-0.7362564206123352,0.6477493643760681,0.2770184874534607,0.014349122531712055,0.43342292308807373,-0.7694793343544006,-0.6041334867477417,0.33784133195877075,-0.10450100898742676,-0.14405278861522675,-0.14570391178131104,0.2216409295797348,-0.1311492770910263,-0.37041914463043213,-0.8741971850395203,-0.023812636733055115,-0.038418807089328766,0.02045217715203762,-0.3408699035644531,-0.23164823651313782,-0.03393850475549698,-0.3181305229663849,-0.058006398379802704,-0.22275350987911224,-0.3720911145210266,-0.2564457058906555,0.11791341006755829,0.12556545436382294,0.19163231551647186,-0.05631396546959877,-0.17533205449581146,-0.07975279539823532,0.2553587257862091,-0.10843037068843842,0.16964851319789886,0.009524855762720108,0.029138972982764244,0.036261141300201416,0.33834946155548096,0.8356760740280151,0.11643336713314056,0.0379813015460968,0.016166621819138527,0.059756696224212646,-0.08555468171834946,-0.2924094796180725,-0.028704965487122536,-0.13990993797779083,0.015908418223261833,0.39365261793136597,0.24116183817386627,0.03767494112253189,0.00018691759032662958,0.04437955096364021,0.0540875568985939,0.06253710389137268,0.29076266288757324,-0.29241836071014404,0.047899819910526276,0.08155708014965057,-0.12361280620098114,-0.2815513610839844,-0.1546914279460907,-0.12251400947570801,0.6295018792152405,-0.013022284023463726,0.6999663710594177,-0.0009728961158543825,-0.10575105994939804,-0.10131610184907913,0.5850068926811218,0.7250869274139404,-0.3440219759941101,0.9322550296783447,0.31185826659202576,0.20799213647842407,-1.1676901578903198,0.5357138514518738,0.5661437511444092,0.09985397011041641,-0.17194239795207977,0.0011384395183995366,0.2024451196193695,-0.08303915709257126,0.23394714295864105,0.17419812083244324,-0.40550532937049866,0.22663971781730652,0.05382755026221275,0.0834321677684784,-0.008558130823075771,0.05186762288212776,0.23627805709838867,-0.20161236822605133,0.16747316718101501,-0.10872340947389603,0.05935855582356453,-0.14643147587776184,0.1167859360575676,-0.009250042960047722,0.16161401569843292,-0.06570059806108475,0.11210605502128601,0.03672531619668007,-0.2685200572013855,-0.06337496638298035,0.05664871260523796,0.10165873169898987,0.0680871531367302,0.14123420417308807,0.2653575539588928,0.8544000387191772,0.11808591336011887,-0.026765303686261177,-0.10334537923336029,-0.10404545813798904,0.1056809350848198,-0.201351135969162,0.030807921662926674,0.14952202141284943,-0.15713076293468475,-0.0044572059996426105,0.4594704210758209,-0.006516981404274702,0.04658371955156326,0.01965179108083248,0.1120934933423996,0.13303673267364502,-0.019165271893143654,-0.09324914216995239,0.001590643310919404,0.06308150291442871,-0.12296535819768906,-0.049108073115348816,-0.05434783920645714,0.08528729528188705,0.09340129047632217,-0.0805688127875328,0.5357738137245178,0.054737500846385956,-0.02571723982691765,-0.05934108421206474,-5.060338185803564e-39,1.0521428114225526e-38,-1.293497274113541e-38,1.371145744359015e-38,1.6052931889181345e-38,1.3306594291277423e-38,-1.8768446526063977e-38,-7.389320055585304e-39,-1.5031098042503367e-39,-1.393795912346822e-38,-1.1099798641092486e-38,-1.6739790943156333e-38,-0.004078804049640894,-0.008791210129857063,-0.009991589933633804,-0.003518335986882448,0.009436295367777348,0.022105859592556953,0.02732943743467331,0.021812522783875465,0.008919226936995983,-0.005067978985607624,-0.014492391608655453,-0.017870968207716942,-0.015895232558250427,-0.011008859612047672,-0.005291497800499201,-0.0013968567363917828,0.0019569171126931906,0.002813806291669607,-0.001366840093396604,-0.013404477387666702,-0.030774421989917755,-0.0459538996219635,-0.05137839540839195,-0.0445735789835453,-0.03001905232667923,-0.014314154163002968,-0.0029146873857825994,0.002625879365950823,0.0039306459948420525,0.002809671452268958,0.0010133942123502493,0.00016529632557649165,0.0024220910854637623,0.006561432033777237,0.014655033126473427,0.026267539709806442,0.03821297734975815,0.046751704066991806,0.049019452184438705,0.04453183710575104,0.036756280809640884,0.02911965921521187,0.023152513429522514,0.018612122163176537,0.014836116693913937,0.010575059801340103,0.006107189692556858,0.002615666016936302,0.15139175951480865,0.011375605128705502],"sample_rate":48000.0}},{"max_value":1.0,"model":{"version":"0.7.0","metadata":{"date":{"year":2026,"month":5,"day":15,"hour":18,"minute":45,"second":6},"loudness":-19.409814834594727,"gain":0.8242321687980392},"architecture":"WaveNet","config":{"layers":[{"input_size":1,"condition_size":1,"head":{"out_channels":1,"kernel_size":16,"bias":true},"channels":8,"kernel_sizes":[6,6,6,6,6,6,6,6,6,6,6,6,6,6,15,15,6,6,6,6,6,6,6],"dilations":[1,3,7,17,41,101,239,1,3,7,17,41,101,239,1,13,1,3,7,17,41,101,239],"activation":[{"type":"LeakyReLU","negative_slope":0.01},{"type":"LeakyReLU","negative_slope":0.01},{"type":"LeakyReLU","negative_slope":0.01},{"type":"LeakyReLU","negative_slope":0.01},{"type":"LeakyReLU","negative_slope":0.01},{"type":"LeakyReLU","negative_slope":0.01},{"type":"LeakyReLU","negative_slope":0.01},{"type":"LeakyReLU","negative_slope":0.01},{"type":"LeakyReLU","negative_slope":0.01},{"type":"LeakyReLU","negative_slope":0.01},{"type":"LeakyReLU","negative_slope":0.01},{"type":"LeakyReLU","negative_slope":0.01},{"type":"LeakyReLU","negative_slope":0.01},{"type":"LeakyReLU","negative_slope":0.01},{"type":"LeakyReLU","negative_slope":0.01},{"type":"LeakyReLU","negative_slope":0.01},{"type":"LeakyReLU","negative_slope":0.01},{"type":"LeakyReLU","negative_slope":0.01},{"type":"LeakyReLU","negative_slope":0.01},{"type":"LeakyReLU","negative_slope":0.01},{"type":"LeakyReLU","negative_slope":0.01},{"type":"LeakyReLU","negative_slope":0.01},{"type":"LeakyReLU","negative_slope":0.01}],"bottleneck":8,"head1x1":{"active":false,"out_channels":1,"groups":1},"layer1x1":{"active":true,"groups":1},"groups_input":1,"groups_input_mixin":1,"conv_pre_film":{"active":false,"shift":true,"groups":1},"conv_post_film":{"active":false,"shift":true,"groups":1},"input_mixin_pre_film":{"active":false,"shift":true,"groups":1},"input_mixin_post_film":{"active":false,"shift":true,"groups":1},"activation_pre_film":{"active":false,"shift":true,"groups":1},"activation_post_film":{"active":false,"shift":true,"groups":1},"layer1x1_post_film":{"active":false,"shift":true,"groups":1},"head1x1_post_film":{"active":false,"shift":true,"groups":1},"gating_mode":["none","none","none","none","none","none","none","none","none","none","none","none","none","none","none","none","none","none","none","none","none","none","none"],"secondary_activation":[null,null,null,null,null,null,null,null,null,null,null,null,null,null,null,null,null,null,null,null,null,null,null],"slimmable":null}],"head":null,"head_scale":0.011375604977673247},"weights":[-2.919006109237671,2.44622802734375,-2.2866621017456055,-2.0308616161346436,-2.0897674560546875,0.9198431372642517,1.3080395460128784,1.6824665069580078,-0.02463320642709732,-0.04554450884461403,-0.049301501363515854,-0.009639850817620754,0.024928586557507515,0.03847692161798477,0.02363836206495762,0.04222986847162247,0.04561910033226013,0.009000555612146854,-0.02250009961426258,-0.035268791019916534,-0.023091739043593407,-0.040838245302438736,-0.04403189942240715,-0.008580682799220085,0.021613197401165962,0.03416737541556358,-0.02253839746117592,-0.03899684548377991,-0.0416623093187809,-0.007963813841342926,0.02035975642502308,0.032459817826747894,-0.02267429046332836,-0.039432767778635025,-0.04239144176244736,-0.008512518368661404,0.019947344437241554,0.032028745859861374,0.015654031187295914,0.02367699146270752,0.024558283388614655,0.004564411472529173,-0.010518231429159641,-0.018786536529660225,0.0185879934579134,0.030032463371753693,0.031525857746601105,0.005728737451136112,-0.01469505112618208,-0.024616045877337456,0.020791081711649895,0.03503786027431488,0.03725024685263634,0.0071639916859567165,-0.017440909519791603,-0.028429605066776276,0.0697736144065857,0.04769410565495491,0.018483854830265045,-0.030021341517567635,-0.08326342701911926,-0.24013341963291168,-0.0632040873169899,-0.04284032806754112,-0.0152792539447546,0.02516593411564827,0.07559705525636673,0.22252176702022552,0.06857241690158844,0.05368928238749504,0.01177912950515747,-0.029703833162784576,-0.07431657612323761,-0.2163797914981842,0.061663925647735596,0.04665520042181015,0.01673164963722229,-0.028686221688985825,-0.07027649879455566,-0.21154271066188812,0.041186198592185974,0.03286450728774071,0.013006038963794708,-0.0208690594881773,-0.06071997061371803,-0.19380098581314087,-0.013334753923118114,-0.008903206326067448,0.0014384464593604207,0.015873970463871956,0.03789142146706581,0.1209239736199379,-0.023428987711668015,-0.01673581637442112,-0.00271453894674778,0.018562091514468193,0.04827021062374115,0.15219682455062866,-0.045441798865795135,-0.03316083550453186,-0.007079704664647579,0.02403922565281391,0.05976683273911476,0.18529774248600006,0.060386721044778824,-0.1012343093752861,-0.10356707870960236,-0.20034196972846985,0.25819191336631775,0.4622208774089813,-0.08751031011343002,0.12202726304531097,0.06303133815526962,0.2068869024515152,-0.22755734622478485,-0.4696796238422394,0.06836646050214767,-0.09027375280857086,-0.07704608142375946,-0.16295908391475677,0.2628767788410187,0.44118690490722656,0.05136789381504059,-0.07320503890514374,-0.11624004691839218,-0.18450136482715607,0.23490530252456665,0.4124496579170227,0.03541732579469681,-0.1246970146894455,-0.08566807955503464,-0.15326647460460663,0.2311878651380539,0.4204929769039154,-0.015730692073702812,0.07834465056657791,0.050242599099874496,0.09358726441860199,-0.17464657127857208,-0.28917187452316284,-0.021226346492767334,0.09744758903980255,0.06842346489429474,0.12230643630027771,-0.21060627698898315,-0.35374099016189575,-0.039941560477018356,0.08760733902454376,0.0559236966073513,0.12462953478097916,-0.2563980519771576,-0.42207440733909607,0.06572790443897247,0.16906510293483734,0.08271505683660507,0.04789981245994568,-0.18691858649253845,-0.6710829734802246,-0.017514321953058243,-0.10184915363788605,-0.05205998942255974,-0.10777246206998825,0.13175223767757416,0.46528130769729614,0.002936731558293104,0.08165276050567627,0.008412826806306839,0.11748482286930084,-0.2512803375720978,-0.52504962682724,0.065515898168087,0.04301070421934128,0.09246315807104111,0.10628686100244522,-0.24009928107261658,-0.4542732834815979,-0.015358398668467999,0.031107794493436813,0.07644481211900711,0.04914303496479988,-0.1587114781141281,-0.4390028119087219,0.02736542373895645,-0.012828909792006016,-0.020720580592751503,-0.04907440394163132,0.09033744037151337,0.21874989569187164,-0.03979463502764702,-0.048548515886068344,-0.027371618896722794,-0.05946899205446243,0.1178627610206604,0.33309406042099,-0.04370817169547081,-0.08984808623790741,-0.06510324776172638,-0.05765986815094948,0.1352872997522354,0.43699854612350464,-0.4437788426876068,-0.4038473963737488,-0.20975972712039948,-0.17739740014076233,0.1997746080160141,0.8638885617256165,0.32160353660583496,0.46702712774276733,0.15457849204540253,0.10764066874980927,-0.2758592665195465,-0.7879562377929688,-0.3497817814350128,-0.3990890383720398,-0.11138235777616501,-0.06872048228979111,0.1922321617603302,0.7124961614608765,-0.2654261291027069,-0.4592675268650055,-0.11850942671298981,0.02672947198152542,0.31879010796546936,0.762714684009552,-0.42243248224258423,-0.30228838324546814,-0.18239900469779968,-0.1188284233212471,0.23895402252674103,0.7128243446350098,0.26796743273735046,0.34588301181793213,0.10482168942689896,0.14086167514324188,-0.19925819337368011,-0.643162190914154,0.3872241675853729,0.34670981764793396,0.13188163936138153,0.14825820922851562,-0.19169948995113373,-0.6052995920181274,0.3117220103740692,0.3546367883682251,0.16445012390613556,-0.023040004074573517,-0.19704096019268036,-0.8209657073020935,-0.27860137820243835,-0.30279770493507385,-0.12604115903377533,-0.12259921431541443,0.29749518632888794,0.5357583165168762,0.17144367098808289,0.21411378681659698,-0.00012591472477652133,0.16684748232364655,-0.25431138277053833,-0.537324070930481,-0.2773466408252716,-0.189037024974823,-0.03374456614255905,-0.05260908603668213,0.24422211945056915,0.44805288314819336,-0.23766538500785828,-0.2050570398569107,-0.007758010178804398,-0.09217360615730286,0.16814783215522766,0.41914358735084534,-0.2712918519973755,-0.20365919172763824,-0.12121423333883286,-0.18022951483726501,0.2610253393650055,0.39090946316719055,0.10891053080558777,0.1384182572364807,0.05092938616871834,0.046467896550893784,-0.16055725514888763,-0.2355838418006897,0.19321632385253906,0.22500784695148468,0.05736953020095825,0.10183021426200867,-0.1862197071313858,-0.3699694871902466,0.14504790306091309,0.23825639486312866,0.09696409851312637,0.1041603833436966,-0.2102607786655426,-0.4631327986717224,0.20158398151397705,0.20074960589408875,0.07739001512527466,0.011295349337160587,-0.5216617584228516,-1.1821988821029663,-0.13673682510852814,-0.17387685179710388,-0.031187744811177254,-0.0902574360370636,0.45305660367012024,1.0609345436096191,0.1342354118824005,0.1854201853275299,-0.023426344618201256,0.017668303102254868,-0.4130188524723053,-1.0578557252883911,0.12309342622756958,0.24156425893306732,0.00035123806446790695,0.025200381875038147,-0.3970566689968109,-0.9778251647949219,0.07984287291765213,0.17599287629127502,-0.005391651764512062,0.03130001947283745,-0.3639056086540222,-0.8574044108390808,-0.005252784583717585,-0.08336006850004196,-0.012362443841993809,-0.019196033477783203,0.23910410702228546,0.5013586282730103,-0.05848665162920952,-0.14019440114498138,-0.07124648988246918,-0.012928868643939495,0.3486557602882385,0.738857626914978,-0.009910308755934238,-0.10773228853940964,-0.05613540858030319,-0.04439564421772957,0.4474179148674011,0.9241527915000916,0.10055050253868103,0.29438990354537964,0.13344524800777435,0.13695232570171356,-0.3282444179058075,-0.6526574492454529,-0.11673320084810257,-0.11564908921718597,-0.09498611092567444,-0.059477292001247406,0.2682914435863495,0.5883990526199341,0.06453689932823181,0.21106158196926117,0.026863664388656616,0.1001000627875328,-0.3009924590587616,-0.6189561486244202,0.0240824893116951,0.2199733555316925,0.11328268051147461,0.14115452766418457,-0.19033722579479218,-0.5793926119804382,0.030144833028316498,0.1386447697877884,0.035243645310401917,0.11153613775968552,-0.2735639810562134,-0.5112461447715759,-0.05956839397549629,-0.09108307957649231,-0.02127162739634514,-0.02347889170050621,0.15190385282039642,0.2738182544708252,-0.049298953264951706,-0.1433715671300888,-0.05076449736952782,-0.03483152762055397,0.1982824206352234,0.41252583265304565,-0.04153140261769295,-0.1044570654630661,-0.09061968326568604,-0.04023151844739914,0.22708845138549805,0.4513436257839203,-0.10445772111415863,-0.16444645822048187,0.3201908767223358,0.8846775889396667,0.4012918174266815,0.5025993585586548,0.7874984741210938,0.6198643445968628,-0.020456042140722275,0.1427699327468872,-0.3750424087047577,0.5618945360183716,-0.4166962206363678,-0.6072221398353577,0.9713591933250427,0.5411396622657776,0.08479779958724976,-0.49632102251052856,0.2766772508621216,-0.10801529884338379,0.7432593703269958,-0.03161042928695679,-0.1748318076133728,-0.28398966789245605,-0.024440350010991096,0.08116048574447632,-0.3970993161201477,0.2958438992500305,-0.38041943311691284,-0.13430863618850708,0.02841866761445999,0.13758419454097748,0.01972435787320137,-0.1603076159954071,0.0010440071346238256,-0.24651263654232025,0.17416410148143768,0.08194244652986526,-0.25232353806495667,0.036590710282325745,0.05394040048122406,-0.1563180387020111,-0.02020333893597126,-0.012502530589699745,0.30170148611068726,-0.207988902926445,0.08336008340120316,-0.11509811133146286,0.023833133280277252,-0.30477336049079895,0.010002569295465946,0.30188703536987305,-0.11992985755205154,0.1659017950296402,-0.15651582181453705,0.18393811583518982,0.053788479417562485,-0.10666218400001526,0.042968980967998505,0.2705896496772766,0.8219736814498901,0.18400144577026367,-0.2684389054775238,0.2694503366947174,0.016499966382980347,0.07617687433958054,0.0008993271039798856,-0.11747924238443375,-0.12378021329641342,0.1552927941083908,0.17841164767742157,-0.14232246577739716,0.02479131519794464,0.0032089201267808676,-0.03792925551533699,-0.21553829312324524,-0.55185866355896,-0.09348113089799881,0.02483520284295082,0.1373908966779709,0.06377159059047699,-0.0466875359416008,0.051168423146009445,-0.3737298548221588,-0.3334910273551941,0.0682862251996994,-0.31207433342933655,0.5064821839332581,-0.06628048419952393,-0.041291337460279465,-0.08891061693429947,-0.007836430333554745,0.004610218573361635,0.18688678741455078,0.07672708481550217,0.05232938006520271,0.02590278908610344,-0.0843711867928505,-0.19492560625076294,-0.3173564672470093,0.13702920079231262,0.062323518097400665,0.17644044756889343,0.019225886091589928,0.03458431735634804,0.23814895749092102,0.08385910838842392,0.07919619977474213,-0.04318435117602348,0.08893021196126938,0.11143052577972412,0.17191268503665924,0.09126989543437958,-0.03967041149735451,0.05536438524723053,0.1522006243467331,0.08403582125902176,0.03414615988731384,-0.016830172389745712,0.05242927744984627,-0.04250006005167961,-0.12947948276996613,-0.011065592058002949,-0.11307323724031448,-0.060746803879737854,0.0035810237750411034,0.016399547457695007,0.028594356030225754,0.03841931372880936,-0.016805697232484818,-0.015688136219978333,-0.04041791334748268,-0.06198595091700554,-0.11146712303161621,-0.11078498512506485,-0.09408935904502869,0.0670911893248558,-0.013352777808904648,0.2104785293340683,0.16888561844825745,0.022313056513667107,-0.40800970792770386,-0.06755653023719788,0.0019808767829090357,-0.11690661311149597,-0.1276710480451584,-0.13832901418209076,0.4138162434101105,-0.011960630305111408,0.029379239305853844,-0.005542189814150333,-0.019141575321555138,0.1506700962781906,-0.009766882285475731,-0.049175284802913666,-0.057044077664613724,-0.1297905594110489,-0.014699222519993782,-0.008648192510008812,-0.06527530401945114,0.13346180319786072,-0.05709896236658096,0.019847063347697258,-0.018173061311244965,-0.10621888190507889,-0.32446879148483276,-0.06755901873111725,-0.03001834638416767,-0.026605457067489624,-0.06640269607305527,-0.05644260346889496,0.3347793221473694,-0.1360599547624588,0.021116210147738457,-0.05427530035376549,-0.11498997360467911,-0.0830511823296547,-0.031689517199993134,0.1334497630596161,0.11797353625297546,0.015355088748037815,0.021732209250330925,0.12194113433361053,0.45750024914741516,0.05884935334324837,-0.04102876037359238,0.13349495828151703,-0.06494001299142838,0.1901920735836029,-0.38074517250061035,0.03253631293773651,0.028831269592046738,-0.05276583135128021,-0.06667125225067139,-0.1053440049290657,0.20511694252490997,0.19660569727420807,0.06844428181648254,0.11321519315242767,-0.14249619841575623,0.04879670962691307,-0.2891131341457367,0.00821626465767622,0.058922406286001205,0.12728631496429443,0.06638598442077637,0.16378039121627808,-0.004518899600952864,0.024409443140029907,0.03996485471725464,0.018853330984711647,-0.0035962420515716076,0.005348109640181065,0.06148875877261162,-0.11636430770158768,-0.05686023458838463,0.009753764607012272,-0.00950301717966795,0.03120250068604946,0.022899214178323746,0.014415310695767403,0.048957835882902145,0.049348436295986176,0.18803338706493378,0.06253750622272491,0.13435707986354828,0.07438579201698303,-0.041319072246551514,-0.1367691457271576,-0.16597208380699158,-0.17864499986171722,-0.06316260993480682,0.08700530976057053,0.030546678230166435,-0.02695622481405735,-0.0427895151078701,-0.054825086146593094,0.16908518970012665,0.07805221527814865,0.06214183568954468,0.0010931863216683269,-0.06581799685955048,-0.0611155703663826,-0.18163351714611053,-0.03570570424199104,-0.048050012439489365,-0.11805961281061172,-0.14501985907554626,-0.028134660795331,-0.0505845732986927,0.1074228435754776,0.05077286437153816,0.10271536558866501,0.19889290630817413,0.2639778256416321,0.31495755910873413,-0.11044050753116608,-0.03302539139986038,0.02307487279176712,0.046040263026952744,0.09721381217241287,0.3915393054485321,0.00913912896066904,0.04843607172369957,0.010479861870408058,-0.07190020382404327,-0.2640727460384369,0.26605403423309326,0.2316831797361374,0.2211550623178482,0.24342131614685059,0.22548870742321014,0.1440422385931015,0.026451947167515755,-0.058843016624450684,-0.05133434385061264,-0.13891273736953735,-0.1934661865234375,-0.203071728348732,-0.5509796738624573,-0.02442104183137417,-0.03419666737318039,-0.17145206034183502,-0.04545598477125168,0.07555800676345825,0.1870506852865219,-0.042611442506313324,0.060353901237249374,0.1858077347278595,0.0695074275135994,-0.007303740829229355,-0.17927131056785583,0.083539217710495,-0.045689657330513,-0.14022895693778992,-0.027313588187098503,0.05481073632836342,0.18412227928638458,0.014123058877885342,0.023832004517316818,0.01874358206987381,0.002186212223023176,0.05154016613960266,0.07435137778520584,0.1213616356253624,-0.013774401508271694,-0.07697778195142746,-0.04107349365949631,-0.030889350920915604,-0.12996093928813934,-0.045607130974531174,0.15730708837509155,0.016612399369478226,-0.08423491567373276,0.03173376992344856,-0.13306593894958496,-0.02579663135111332,0.003577612340450287,0.002614679979160428,0.03973744809627533,0.032494254410266876,0.06956763565540314,-0.03846331313252449,-0.07490220665931702,0.0044020842760801315,0.03616239130496979,-0.035136256366968155,0.016375169157981873,0.0930536687374115,-0.026130925863981247,0.006153916008770466,-0.13527104258537292,-0.08878619223833084,0.06219508498907089,0.19145649671554565,-0.05128630995750427,0.0994390919804573,0.042892441153526306,0.05185660719871521,0.03919641301035881,-0.14828699827194214,0.0033604796044528484,-0.07783694565296173,-0.006427908316254616,-0.09934040158987045,-0.1913754791021347,0.03147676959633827,-0.02749510668218136,-0.03831140697002411,0.031223736703395844,0.09504558891057968,-0.007628205232322216,-0.12977094948291779,-0.047590676695108414,-0.08945024013519287,-0.12849117815494537,-0.08125072717666626,-0.021897371858358383,0.012278581038117409,0.020962780341506004,0.0753396525979042,0.10379156470298767,0.030059220269322395,0.020151712000370026,-0.015443368814885616,0.04591045156121254,-0.06630256772041321,-0.08741318434476852,-0.01922549679875374,-0.030266152694821358,-0.0778464525938034,0.06869950890541077,0.04521042853593826,-0.03529005125164986,0.03782528266310692,0.13345639407634735,-0.11106467247009277,-0.11311445385217667,-0.15244735777378082,-0.23992088437080383,0.10941813141107559,0.5632593035697937,0.20174482464790344,0.12037977576255798,0.4249853193759918,0.1250973343849182,0.1095537319779396,-0.5669062733650208,-0.2414449155330658,-0.07447417080402374,-0.2400950789451599,-0.18591146171092987,-0.07551327347755432,0.2971770763397217,-0.19442877173423767,-0.2626454532146454,-0.17057830095291138,-0.13529478013515472,-0.09791048616170883,0.07295927405357361,0.001259388285689056,-0.05225636437535286,-0.13489079475402832,-0.06854961812496185,-0.02203480713069439,0.10441118478775024,0.28966978192329407,0.23785069584846497,0.22007222473621368,0.13088302314281464,0.25660082697868347,0.23542772233486176,-0.13703958690166473,-0.08338900655508041,-0.051830094307661057,-0.1701442152261734,-0.14334635436534882,-0.3382175862789154,0.058285608887672424,0.11593306064605713,0.23251864314079285,0.10800223052501678,0.034650009125471115,-0.2106078714132309,0.07339824736118317,0.22060318291187286,0.1629834622144699,0.07908376306295395,0.056682437658309937,-0.29696622490882874,0.02575662173330784,-0.11525268107652664,-0.15232399106025696,-0.007756045088171959,0.07881239056587219,0.3163771629333496,0.1027606949210167,0.04838443547487259,0.14516644179821014,-0.04762829467654228,-0.027448691427707672,-0.19499708712100983,-0.06573238968849182,0.003918029833585024,-0.05832766741514206,-0.1466149091720581,-0.1130867451429367,-0.1322084665298462,0.04891064390540123,0.08970721811056137,0.06409373879432678,0.06830435991287231,-0.029408873990178108,-0.15124733746051788,-0.08471810817718506,-0.007162316702306271,0.1004539430141449,0.03192698583006859,-0.05402786657214165,0.4082963764667511,-0.14107970893383026,-0.13044573366641998,-0.0814352035522461,-0.25623106956481934,-0.15023979544639587,-0.13290253281593323,0.043613214045763016,-0.11775050312280655,0.038582026958465576,0.10013008117675781,0.1559506356716156,0.2484598457813263,0.06799677759408951,-0.014146499335765839,-0.34360647201538086,-0.5496153235435486,-0.07839857786893845,0.05304127186536789,0.16487973928451538,0.14995811879634857,-0.3945735692977905,0.8566638827323914,0.014409043826162815,-0.03847109526395798,-0.012070856057107449,-0.11303027719259262,-0.6645580530166626,0.4343612492084503,0.106269970536232,-0.304097980260849,0.40990737080574036,-0.4314912259578705,0.23921549320220947,0.29676228761672974,0.1641034632921219,-0.22935576736927032,-0.12346064299345016,0.16220253705978394,-0.3365529179573059,0.6650829911231995,-0.02067125402390957,0.006075018551200628,-0.10386825352907181,0.1328662484884262,0.1874459832906723,-0.1782153993844986,0.331859290599823,-0.27742457389831543,-0.01147017627954483,0.2588586211204529,0.15102288126945496,0.11618099361658096,0.16378329694271088,-0.11014372855424881,0.001278600306250155,-0.247970849275589,0.13554394245147705,-0.048795804381370544,0.25473496317863464,0.16634322702884674,0.3005671799182892,0.11021370440721512,0.1504412293434143,0.32615628838539124,0.12340380251407623,-0.048582255840301514,-0.08826367557048798,0.0601397342979908,0.5895006060600281,-0.2761514186859131,0.20377707481384277,-0.24750962853431702,0.32247447967529297,-0.11590488255023956,-0.06481774151325226,-0.19351179897785187,0.20504654943943024,-0.040422745048999786,0.0898471400141716,-0.0015066138003021479,-0.09744029492139816,0.13022035360336304,0.31473031640052795,0.06693251430988312,0.2375023066997528,0.11849766969680786,-0.03276582434773445,0.2874452471733093,-0.06844718754291534,-0.15740662813186646,-0.22413046658039093,0.24432790279388428,-0.14909866452217102,-0.23916669189929962,-0.3132473826408386,-0.2286614179611206,0.11559649556875229,-0.16754324734210968,-0.28285589814186096,0.030692098662257195,-0.14940597116947174,-0.24429458379745483,-0.21022114157676697,-0.10487159341573715,-0.011288302019238472,0.4343304932117462,0.08106137812137604,0.051370371133089066,0.040694691240787506,0.060143109411001205,0.03430722653865814,-0.6702951788902283,-0.13573671877384186,-0.04737010598182678,-0.17112550139427185,-0.21905024349689484,-0.015445168130099773,0.3444209694862366,-0.03561731427907944,-0.05089987441897392,-0.0494396798312664,-0.0687490701675415,-0.050957340747117996,-0.02371777594089508,-0.12500117719173431,-0.03685915470123291,-0.24692684412002563,-0.030052421614527702,0.031054938212037086,0.23993565142154694,0.05916561931371689,-0.0440395325422287,-0.0001095006664399989,-0.10376574099063873,-0.05069788917899132,0.2549881935119629,0.16847024857997894,0.2248626947402954,0.1253584921360016,0.15233822166919708,0.06143892556428909,-0.21030832827091217,-0.16946202516555786,-0.16893963515758514,-0.10872630774974823,-0.1315453052520752,-0.04230803623795509,0.038318175822496414,0.0005169016076251864,0.010246407240629196,-0.024427926167845726,-0.10475442558526993,-0.039673760533332825,0.04703659564256668,-0.2884262502193451,-0.10094908624887466,0.031894948333501816,0.08412965387105942,0.1814701408147812,0.06949213147163391,0.19417095184326172,0.15310798585414886,0.09131217002868652,-0.056176893413066864,-0.050627682358026505,-0.04295043647289276,0.1363367736339569,0.2052907943725586,0.24908572435379028,0.11924153566360474,0.007806458510458469,-0.16167354583740234,0.1355835497379303,-0.0042992085218429565,-0.05927469581365585,-0.2070736587047577,-0.35834312438964844,-0.19633132219314575,0.004693770781159401,0.11028791218996048,0.09690965712070465,0.16772791743278503,-0.020858867093920708,-0.0870959684252739,-0.28819704055786133,-0.18988929688930511,0.017887620255351067,0.11573711782693863,0.07576914876699448,0.04251500591635704,0.1323409527540207,-0.06165684014558792,-0.21769759058952332,-0.286409467458725,-0.3286098539829254,-0.13716734945774078,0.02247431129217148,0.07675838470458984,0.15995144844055176,0.15339888632297516,0.15054455399513245,-0.14736908674240112,-0.10436350852251053,0.03219461813569069,0.004632694646716118,0.045027632266283035,0.08091431856155396,0.18572400510311127,-0.02973301149904728,-0.0437224842607975,0.1531665027141571,0.15078788995742798,0.10800888389348984,-0.0009737504879012704,0.009874526411294937,0.04695776477456093,0.13294635713100433,0.1542903482913971,0.23929336667060852,0.20733153820037842,0.10255247354507446,0.10806380212306976,0.14439210295677185,0.0759032815694809,0.05833706259727478,0.044514261186122894,0.0341920480132103,0.005745219066739082,-0.04335912689566612,-0.0038624827284365892,0.001533891772851348,-0.23088262975215912,-0.10483852028846741,0.04211479797959328,-0.0514899380505085,0.09732653945684433,0.08177588135004044,0.20682008564472198,0.020528772845864296,-0.04324273765087128,0.08369837701320648,-0.021590925753116608,-0.15537074208259583,-0.17026327550411224,-0.038075048476457596,-0.19932614266872406,-0.21337878704071045,-0.025546593591570854,-0.09146740287542343,0.08511122316122055,0.1495274156332016,0.11344403028488159,0.007531470153480768,0.0036045850720256567,-0.1578242927789688,-0.33362308144569397,-0.092096246778965,-0.1680561602115631,-0.3340160846710205,-0.18437038362026215,-0.1497351974248886,0.1289510875940323,-0.10564618557691574,-0.10997771471738815,-0.01610933430492878,-0.10567305237054825,-0.16074557602405548,-0.10250554233789444,-0.07646642625331879,-0.11399991810321808,-0.06390728056430817,0.08480475097894669,0.013941535726189613,0.3027256429195404,-0.009416269138455391,0.04139992222189903,0.061694882810115814,-0.019817521795630455,-0.06970233470201492,0.25524649024009705,0.13249234855175018,0.16250614821910858,-0.06490977853536606,-0.161737322807312,-0.1514638513326645,-0.2724246084690094,-0.09041758626699448,-0.0714300200343132,0.10316146165132523,0.2958369553089142,0.3617206811904907,0.6762414574623108,-0.03031473606824875,-0.12052697688341141,-0.03294535353779793,-0.002187233418226242,-0.23297962546348572,0.029837707057595253,-0.016845036298036575,-0.13132469356060028,-0.104251928627491,-0.12599219381809235,0.18967846035957336,-0.002294087316840887,-0.043644074350595474,-0.07297902554273605,-0.01740432158112526,0.09105951339006424,-0.06595463305711746,0.0504692867398262,0.032593876123428345,0.020866885781288147,0.02237810008227825,0.08287002891302109,-0.08577258139848709,-0.11396569013595581,0.0209194403141737,0.09973732382059097,0.07150008529424667,0.22361460328102112,0.023481525480747223,-0.1495172083377838,0.026117295026779175,0.09909927099943161,0.019069379195570946,-0.00020706179202534258,-0.12178094685077667,-0.04583799093961716,0.16260361671447754,0.12318496406078339,0.06630564481019974,-0.00910241436213255,-0.14347386360168457,-0.29401686787605286,0.05746172368526459,0.08568892627954483,0.05178070440888405,0.1337970644235611,0.1380193680524826,-0.081069216132164,0.1838347464799881,0.213547945022583,0.1682104915380478,-0.010088224895298481,0.08651915192604065,-0.2846119701862335,-0.0649930089712143,-0.1308397650718689,-0.07170319557189941,0.06438060849905014,0.12910784780979156,0.1321002095937729,-0.006301654502749443,0.01435617171227932,0.027938496321439743,0.12079364061355591,-0.028702134266495705,-0.293220579624176,-0.02019469253718853,-0.031974099576473236,0.08359507471323013,-0.0483400821685791,-0.2008598893880844,-0.028259919956326485,0.1623738706111908,0.1590701788663864,-0.013073066249489784,0.07560192048549652,0.091910719871521,-0.2611549496650696,-0.005089861340820789,0.004378877580165863,0.037012241780757904,0.12904174625873566,-0.09218191355466843,-0.00015403194993268698,-0.07684062421321869,-0.14284871518611908,0.06158687174320221,0.15770982205867767,-0.01868593879044056,0.162894144654274,0.17806224524974823,0.08253412693738937,0.12549257278442383,-0.024545840919017792,0.1143154501914978,-0.2852109968662262,0.026353564113378525,0.17647328972816467,0.2792074978351593,0.08557334542274475,0.13654330372810364,-0.4100876450538635,-0.15735194087028503,-0.1261872500181198,-0.026565926149487495,-0.10969880223274231,0.007208376191556454,0.44049158692359924,0.019099270924925804,-0.11305920779705048,0.1405261904001236,0.05993777886033058,0.10924781113862991,-0.46491289138793945,0.06467941403388977,0.1273891180753708,-0.044391389936208725,0.10746075212955475,0.1260528266429901,-0.07464919984340668,0.13040710985660553,0.10386373102664948,0.03915533795952797,0.10709632933139801,0.0318165197968483,-0.23089833557605743,-0.00032733994885347784,0.056818634271621704,-0.04230126738548279,0.03053387627005577,0.10014981776475906,-0.18650273978710175,-0.09019002318382263,-0.02886263281106949,0.04102084040641785,0.12358108907938004,-0.037145718932151794,0.13035625219345093,0.05938306078314781,0.07725200802087784,0.0772678554058075,-0.2051069736480713,-0.28389856219291687,-0.13478729128837585,0.036060068756341934,0.030677080154418945,0.27338507771492004,0.15929104387760162,-0.05217421427369118,-0.3657398521900177,-0.23087723553180695,-0.2591720223426819,-0.1474248468875885,-0.1828746199607849,0.07025379687547684,0.16274960339069366,0.04086931422352791,0.08676190674304962,0.16287517547607422,0.09044409543275833,-0.047408025711774826,-0.3466072976589203,-0.09457021951675415,-0.13534477353096008,-0.11746246367692947,-0.010237199254333973,0.035067394375801086,-0.045021139085292816,0.12274952977895737,0.040099307894706726,0.13869121670722961,0.16270190477371216,-0.11775481700897217,-0.3830016553401947,0.09969735145568848,0.03111017309129238,0.059300053864717484,0.07452093809843063,0.06325111538171768,-0.20117050409317017,-0.2155645489692688,0.06757538765668869,0.013319439254701138,0.04787971451878548,0.13007110357284546,0.23420202732086182,0.04486576095223427,0.06844823807477951,0.20678235590457916,0.1510295569896698,-0.015264851972460747,-0.12170013040304184,0.18259800970554352,-0.03208620101213455,-0.3504365086555481,0.14081138372421265,-0.09648089855909348,0.086781807243824,0.05822518840432167,0.2498275339603424,-0.6755449175834656,0.029432404786348343,-0.02054521255195141,-0.6844427585601807,0.03283475339412689,0.789181113243103,-0.07593278586864471,0.8492488265037537,0.6953213810920715,0.5734974145889282,-0.09700866043567657,0.3946271240711212,-0.048833172768354416,-0.17501741647720337,-0.2998722493648529,-0.40180665254592896,-0.017831576988101006,0.0978715792298317,-0.054161351174116135,0.2364247739315033,0.056170735508203506,0.13438178598880768,-0.03690879046916962,0.054096754640340805,0.15459920465946198,0.29846182465553284,-0.07790280133485794,0.12576180696487427,-0.12120596319437027,-0.05032174289226532,-0.22723890841007233,-0.1926213800907135,0.4440299868583679,0.5103148818016052,0.004363717511296272,0.09364920109510422,0.11320243030786514,-0.1381210833787918,-0.22419685125350952,-0.3192802965641022,0.15835194289684296,-0.057073213160037994,0.2042618691921234,-0.1469067633152008,-0.00022165138216223568,0.0882454663515091,-0.05926903709769249,0.07386679202318192,0.38837769627571106,-0.011619031429290771,0.42662984132766724,-0.5381990671157837,-0.07945112884044647,-0.021947035565972328,0.05908169597387314,0.07468616217374802,0.07921002060174942,0.41799333691596985,0.01724517159163952,0.10224755853414536,-0.1843094825744629,0.011217771098017693,0.05812956392765045,-0.04041800647974014,-0.18594138324260712,-0.23139438033103943,-0.025006204843521118,-0.15721087157726288,0.17780892550945282,0.30279165506362915,0.34884724020957947,0.22601068019866943,0.18223924934864044,-0.1992408037185669,-0.2105003297328949,0.04606639966368675,-0.05363946035504341,-0.3110996186733246,-0.21343374252319336,-0.09107289463281631,0.07133878022432327,0.0697997510433197,0.045596297830343246,0.12080304324626923,0.19581338763237,-0.06541075557470322,0.15427759289741516,0.031534962356090546,-0.12914493680000305,0.10240129381418228,0.06798291206359863,0.13409513235092163,-0.023512577638030052,-0.13943462073802948,-0.027606895193457603,0.0023865923285484314,-0.05652850493788719,0.1423214077949524,0.13707715272903442,-0.04772106185555458,0.014425062574446201,0.005748463794589043,0.02588963881134987,0.045755501836538315,-0.09735872596502304,-0.0430230088531971,-0.027020949870347977,-0.06357894837856293,0.007982421666383743,-0.24478919804096222,0.011671269312500954,0.047861143946647644,0.004533795639872551,-0.001998811960220337,0.05106247588992119,-0.29333195090293884,0.05556256324052811,0.06204087659716606,0.013106557540595531,-0.0173630528151989,-0.03997501730918884,-0.3294863998889923,0.1372891515493393,0.010172843001782894,0.16169580817222595,0.17336584627628326,0.2484598010778427,-0.13254016637802124,0.04217185452580452,0.023865729570388794,-0.0787612646818161,0.04713986814022064,0.05567147955298424,0.003459321102127433,-0.010537189431488514,-0.16172629594802856,-0.21156595647335052,-0.10677255690097809,-0.21938875317573547,0.30074185132980347,-0.04733859375119209,-0.039940282702445984,0.02274412475526333,-0.1076490581035614,-0.005744288209825754,0.055325429886579514,-0.03989507257938385,-0.015442833304405212,0.02930733747780323,-0.10828296095132828,-0.1583017259836197,0.20924358069896698,-0.03281714767217636,0.11109834164381027,0.14119009673595428,0.030764268711209297,0.07939578592777252,-0.5422995686531067,-0.012628988362848759,-0.07545216381549835,-0.01746225729584694,0.012368305586278439,0.12349752336740494,-0.24223074316978455,0.037007853388786316,0.009638293646275997,-0.06447258591651917,-0.004903736989945173,-0.09746582806110382,-0.0768037959933281,0.015999045222997665,0.04789178445935249,0.05109941586852074,-0.0007908595725893974,0.04764994978904724,-0.08103016018867493,-0.03344162553548813,-0.029876839369535446,-0.08620800077915192,-0.046957142651081085,-0.02179677039384842,0.007074316963553429,0.012133238837122917,0.11781806498765945,0.042980629950761795,0.14258410036563873,0.11886783689260483,0.15941758453845978,0.1488301157951355,0.15548130869865417,0.14016905426979065,0.15106157958507538,0.0527738556265831,0.033555857837200165,-0.05234622210264206,0.04737067222595215,-0.019227689132094383,0.05503537133336067,0.029343796893954277,0.4299631118774414,-0.0659930408000946,-0.05147871375083923,-0.12575295567512512,0.010813125409185886,0.11023249477148056,0.24608761072158813,0.06517944484949112,0.0243542343378067,0.17230960726737976,0.0072344643995165825,-0.011300323531031609,0.6041222214698792,0.009787731803953648,-0.007430618163198233,-0.10368062555789948,-0.07957618683576584,-0.06696198880672455,0.31594616174697876,0.03766905143857002,0.05902225896716118,-0.02024345099925995,-0.002635342301800847,-0.041434146463871,-0.2649243175983429,0.00869322195649147,-0.020009836181998253,-0.04166070371866226,-0.0992007777094841,0.006172820460051298,-0.32283827662467957,0.1501389890909195,0.1551116555929184,0.18197818100452423,0.07621488720178604,0.1828901618719101,-0.05487774312496185,0.053548574447631836,-0.028235528618097305,0.05325036495923996,0.16284197568893433,0.13150498270988464,0.006242442410439253,0.12924906611442566,0.08447646349668503,0.09085246920585632,0.0274057537317276,0.06013020500540733,0.033124715089797974,-0.027100447565317154,-0.02067660354077816,0.05734765902161598,0.10699088126420975,0.15083906054496765,0.18938404321670532,-0.022806843742728233,0.04991670697927475,-0.01142827607691288,-0.007690968923270702,0.17777666449546814,0.2637510597705841,-0.0525655522942543,-0.039838582277297974,0.01955007016658783,-0.04229224473237991,-0.08048292994499207,0.002073918469250202,0.055744826793670654,-0.016721680760383606,-0.05069531872868538,-0.06247711554169655,0.15719915926456451,0.21879693865776062,-0.05064228177070618,-0.04696599021553993,-0.05936144292354584,-0.05335710570216179,-0.04590567201375961,-0.1377006471157074,-0.09245500713586807,-0.014346899464726448,-0.02991865947842598,-0.07510484755039215,-0.07640895247459412,0.1398794800043106,0.03754104673862457,0.08508028835058212,0.07629100233316422,0.11633578687906265,0.06053270399570465,-0.035581231117248535,-0.09952989965677261,-0.07711243629455566,-0.026218198239803314,-0.04024949297308922,-0.06075586751103401,0.023975005373358727,-0.010046414099633694,-0.038861967623233795,0.007803412154316902,-0.026781516149640083,-0.0308604184538126,0.0998961329460144,0.008469142951071262,-0.027127353474497795,-0.035936467349529266,-0.129421666264534,-0.0420222133398056,0.029734428972005844,0.0744209960103035,0.04137808457016945,-0.00015974797133821994,-0.1258586198091507,-0.12237416207790375,0.02095915377140045,-0.024812836199998856,-0.05600336194038391,-0.06717026978731155,-0.039823949337005615,0.046053070574998856,0.043294377624988556,-0.08660192042589188,0.014175433665513992,0.03613875433802605,-0.040354155004024506,-0.04086657613515854,-0.10119661688804626,-0.11623558402061462,0.018052494153380394,-0.06979447603225708,-0.09195389598608017,0.11812634766101837,0.04989613592624664,0.1176147535443306,0.02088470757007599,-0.03564957156777382,0.0076381550170481205,-0.0566999725997448,0.12425408512353897,-0.056123171001672745,-0.05513684079051018,-0.0766354501247406,-0.10203050076961517,-0.03475499153137207,-0.02971513383090496,-0.025010913610458374,0.06437955051660538,0.058972276747226715,-0.003463565371930599,-0.14363276958465576,-0.3582111597061157,0.12164457142353058,0.040647268295288086,0.024868400767445564,0.04688267037272453,-0.16479404270648956,-0.21501880884170532,0.04263196140527725,-0.0547017939388752,-0.003215625649318099,0.07740860432386398,0.14425943791866302,-0.036210641264915466,0.06505797803401947,0.030548645183444023,0.01583152264356613,0.021675463765859604,0.02116718888282776,-0.03432069718837738,-0.022166766226291656,-0.027738412842154503,0.06290590763092041,0.08269704133272171,0.11894053220748901,0.122055783867836,0.03844134509563446,-0.13845877349376678,-0.035360269248485565,-0.11558409035205841,-0.13892140984535217,0.007512459997087717,0.1061936691403389,0.10597294569015503,0.1533927470445633,-0.07626859843730927,-0.043757498264312744,-0.14632095396518707,-0.0666726753115654,0.024706298485398293,-0.05153951048851013,-0.00554092088714242,-0.01441232580691576,0.004933015443384647,-0.06300798803567886,-0.03956997022032738,0.05082470178604126,-0.0892331600189209,-0.04979502037167549,-0.12845419347286224,0.008782366290688515,0.01552528701722622,0.009171552956104279,0.007635367102921009,0.13256774842739105,-0.04327334463596344,-0.07273679226636887,-0.07530935853719711,-0.07076218724250793,0.13468095660209656,0.026666095480322838,0.09420297294855118,-0.09540823847055435,0.012806084007024765,0.0621693916618824,-0.012498720549046993,0.1046215295791626,-0.15464523434638977,-0.03664874657988548,-0.0677567794919014,-0.11061335355043411,0.04183220863342285,0.01215654332190752,-0.011913328431546688,-0.047610245645046234,-0.025434883311390877,0.000966215564403683,0.08299668878316879,-0.02530137449502945,0.014135067351162434,0.06967447698116302,0.07906642556190491,-0.002363599371165037,0.0390072762966156,0.05147583782672882,-0.0019771219231188297,-0.01812794990837574,-0.018902281299233437,-0.01270910445600748,0.09821167588233948,0.04412848874926567,-0.029778044670820236,-0.08859830349683762,-0.0053543876856565475,0.06295081973075867,-0.11829505115747452,0.026389559730887413,-0.11279593408107758,-0.05074867978692055,0.026104357093572617,0.11829856038093567,-0.22971098124980927,-0.03002728894352913,-0.1118340790271759,-0.1642918884754181,-0.08381178975105286,0.1605071872472763,0.10836613923311234,-0.11127934604883194,-0.15778470039367676,-0.008131125010550022,-0.06338007003068924,-0.06928563117980957,-0.14252065122127533,0.1090342178940773,-0.040483247488737106,-0.14159229397773743,0.28482064604759216,-0.4354167580604553,-0.2241855412721634,-0.07799622416496277,0.0918414443731308,-0.006096239201724529,-0.08354780077934265,0.01703767478466034,0.432355672121048,0.04976287856698036,-0.06073063611984253,0.00929405726492405,0.05913843959569931,-0.04321371391415596,0.022253485396504402,-0.14144201576709747,-0.11444999277591705,-0.40442973375320435,0.6273033022880554,0.04387827590107918,0.2221166342496872,-0.22976109385490417,-0.13235145807266235,0.02344963513314724,0.11078926175832748,0.07307451218366623,-0.12176453322172165,-0.08689717203378677,-0.011448348872363567,0.12954728305339813,0.04522327333688736,0.06164112687110901,-0.19290587306022644,-0.3276301920413971,0.3103039264678955,0.11238960921764374,-0.27757367491722107,0.1633889377117157,0.2283553034067154,-0.05678946524858475,-0.19177375733852386,-0.391179621219635,0.2936687171459198,-0.1954490691423416,-0.15645219385623932,0.1274806410074234,-0.05488037317991257,0.08576815575361252,-0.010506583377718925,-0.23513466119766235,-0.11770595610141754,-0.20964933931827545,0.16415227949619293,0.061406608670949936,-0.12156026810407639,0.19575908780097961,-0.2210930734872818,-0.3775292634963989,-0.0761173889040947,0.05890893563628197,0.16002842783927917,-0.01325808372348547,0.11296457052230835,-0.20277707278728485,0.20040014386177063,-0.1385863870382309,0.28156578540802,0.09794885665178299,-0.039846256375312805,-0.13872942328453064,0.12019664794206619,0.14357617497444153,-0.12231407314538956,0.3298109173774719,-0.3612883388996124,-0.024278635159134865,-0.0850466787815094,0.1197410449385643,0.12137022614479065,-0.21223893761634827,0.018676064908504486,0.00924886018037796,0.30881038308143616,0.27250635623931885,-0.11068646609783173,-0.3946645259857178,-0.09268088638782501,-0.08083634823560715,-0.04543958231806755,-0.006502009462565184,0.034996792674064636,0.13248494267463684,-0.030070798471570015,-0.14277537167072296,-0.04743267968297005,-0.03652757406234741,0.03789491206407547,0.33386626839637756,-0.3136208951473236,-0.0024183010682463646,-0.04673086479306221,-0.006313703488558531,-0.13489948213100433,-0.0959133505821228,0.1842663735151291,0.04801627993583679,0.05134623870253563,-0.048575062304735184,-0.013410513289272785,-0.10610586404800415,0.1767273247241974,-0.009566985070705414,0.0031883292831480503,0.033613599836826324,-0.04685171693563461,-0.059540458023548126,0.14585617184638977,0.0009320791577920318,0.0423189252614975,0.021453313529491425,-0.027381649240851402,-0.23520039021968842,-0.08204294741153717,0.04260646551847458,-0.04825016111135483,0.02369290217757225,-0.008435271680355072,0.11238273978233337,-0.23566412925720215,0.007974394597113132,-0.026864798739552498,-0.02454397827386856,-0.059721387922763824,-0.16692617535591125,-0.08512940257787704,0.005695025902241468,0.0052282484248280525,0.054659873247146606,-0.013324558734893799,0.03235788270831108,-0.01413167454302311,0.03717148303985596,0.02520248480141163,0.04697316139936447,0.06011708453297615,0.1180841401219368,0.15709491074085236,0.013503247871994972,0.01633898913860321,-0.02126891352236271,0.02723214589059353,-0.07994750887155533,0.11294665932655334,0.0017916365759447217,-0.008520360104739666,-0.029411738738417625,-0.017680557444691658,-0.010356220416724682,0.07144898921251297,-0.02340008318424225,0.0303483959287405,-0.006429094821214676,0.042227085679769516,0.010319262742996216,0.02476806566119194,0.04702287167310715,0.008783298544585705,0.011723830364644527,0.06987684220075607,0.005801692139357328,-0.17877890169620514,-0.009420543909072876,0.04120370373129845,-0.00225961790420115,0.06483937799930573,0.007484116591513157,-0.37660977244377136,0.007947761565446854,-0.0028796729166060686,0.03929723799228668,-0.0034699593670666218,-0.06141755357384682,0.1940736323595047,0.027570417150855064,0.004598043859004974,-0.02623959816992283,-0.06703051179647446,-0.04993518814444542,-0.46679869294166565,0.064956434071064,0.0360114686191082,0.04946884885430336,-0.015757111832499504,-0.13183172047138214,0.545812726020813,0.05279220640659332,0.00690713245421648,0.08172179758548737,0.10961811244487762,0.25509950518608093,-0.17630599439144135,-0.03279361128807068,0.0005506783491000533,-0.03441017121076584,0.06228768825531006,0.006174882408231497,-0.6463636755943298,-0.050206493586301804,0.008912586607038975,0.0012915419647470117,-0.08316948264837265,-0.10816981643438339,-0.2350694090127945,0.009345239028334618,0.009254556149244308,0.10346981137990952,0.10909083485603333,0.21272605657577515,-0.4594523012638092,-0.02718023769557476,-0.020673217251896858,-0.0028596443589776754,-0.04812422767281532,-0.17775572836399078,-0.08532101660966873,0.010729175992310047,-0.0026089129969477654,-0.014279145747423172,0.04433077573776245,0.21118853986263275,0.4131599962711334,0.01695086434483528,0.011768750846385956,-0.0899943858385086,-0.11320745199918747,-0.21743875741958618,0.02225802280008793,-0.05868402123451233,-0.06830918043851852,-0.1898517608642578,-0.152551531791687,-0.19329695403575897,-0.0816572904586792,0.06446821987628937,0.029777340590953827,0.021918438374996185,0.10542120784521103,0.19177894294261932,0.17089605331420898,-0.10486292839050293,-0.06201203167438507,-0.0008891600300557911,0.0010070310672745109,-0.004417702555656433,0.030186444520950317,0.018024444580078125,0.07095710188150406,-0.0681578740477562,-0.04910380393266678,-0.05343017354607582,-0.02296803891658783,-0.01717463880777359,0.011210707016289234,0.15100350975990295,0.24043190479278564,0.28886476159095764,0.1204770877957344,0.055033016949892044,0.045716315507888794,-0.042785923928022385,-0.04994421452283859,-0.08417955785989761,-0.11137712746858597,-0.0059354533441364765,0.028292713686823845,0.030559184029698372,0.1001259908080101,0.08446779102087021,0.2346520572900772,0.02850259654223919,0.04080510511994362,-0.07444299757480621,-0.029897049069404602,-0.00032323069171980023,-0.11155983805656433,-0.012585778720676899,-0.05653693154454231,-0.03384816274046898,-0.016167273744940758,-0.10816631466150284,0.02779640071094036,0.007345384918153286,-0.002105322666466236,0.0647917315363884,0.06658869981765747,0.0677507221698761,0.03524649515748024,-0.10220576822757721,-0.0829215943813324,-0.03219166770577431,0.012192036025226116,0.03052772954106331,0.11942548304796219,-0.002337323036044836,-0.025636978447437286,-0.013200022280216217,-0.04503094032406807,-0.08971264958381653,-0.01212751492857933,0.028052719309926033,-0.0336611233651638,0.10136456787586212,0.043413762003183365,0.125082328915596,0.2268914133310318,0.002041594125330448,-0.06346814334392548,-0.005790896248072386,0.016245948150753975,-0.005944405682384968,0.05336110666394234,-0.021993109956383705,0.014673322439193726,-0.006216325331479311,0.03418082371354103,-0.08278317749500275,0.07698085904121399,-0.005197468679398298,0.0046874466352164745,-0.0025807716883718967,-0.004148736596107483,0.014167959801852703,0.23651151359081268,-0.03700627386569977,-0.005386823322623968,-0.007365227676928043,-0.008982867002487183,0.00350232794880867,0.3523581624031067,0.014400306157767773,0.09836158156394958,0.2054899036884308,0.2938481271266937,0.2590043544769287,-0.06543073058128357,-0.06964375823736191,-0.08727076649665833,-0.12970717251300812,-0.1664000302553177,-0.12117332220077515,0.2115892618894577,-0.016468999907374382,-0.009797392413020134,-0.15987777709960938,-0.19435246288776398,-0.004484068136662245,-0.5220597982406616,0.038656171411275864,0.03268008306622505,0.08583605289459229,0.10462897270917892,0.010733848437666893,0.023042738437652588,0.005806260742247105,0.02397698536515236,-0.006527577061206102,0.0032988591119647026,0.11164754629135132,0.7084947824478149,-0.015301215462386608,0.014616153202950954,0.07056766748428345,0.10543367266654968,0.13637812435626984,-0.23157955706119537,-0.024046819657087326,0.011185592040419579,0.03859416022896767,0.013157660141587257,-0.07753793150186539,-0.771700382232666,0.0017093592323362827,0.08190793544054031,0.04705291986465454,-0.07409481704235077,-0.3289693295955658,0.21492233872413635,-0.10051850229501724,-0.12968596816062927,-0.13044719398021698,-0.1976141333580017,0.25880515575408936,-0.3787517845630646,0.09536676853895187,0.09702275693416595,0.023268338292837143,0.1350860297679901,0.04336608573794365,-0.35317373275756836,-0.001981151755899191,-0.003452034667134285,0.07024216651916504,0.10332333296537399,0.2872879207134247,-0.22713445127010345,0.007622529752552509,0.008214835077524185,-0.015035873278975487,-0.057692382484674454,0.017052477225661278,-0.3074245750904083,-0.05236841365695,-0.04471035674214363,0.026389412581920624,-0.0451807864010334,-0.4006732106208801,-0.1414462774991989,-0.03306210786104202,-0.03797031566500664,-0.052419956773519516,-0.0069586485624313354,0.11941172182559967,0.12705980241298676,-0.024795828387141228,0.03161182999610901,0.04554497078061104,0.03338351473212242,0.05587252974510193,0.26894479990005493,0.09323794394731522,0.052380483597517014,0.08994894474744797,0.0804959088563919,0.09655880182981491,-0.3231584131717682,0.028416553512215614,0.021475577726960182,-0.05533807724714279,-0.1486014425754547,-0.14597809314727783,-0.03629586845636368,0.06373876333236694,0.0015372778289020061,-0.009550204500555992,0.05748821049928665,0.04606524854898453,-0.07593835890293121,-0.0015556621365249157,-0.045071136206388474,0.008565069176256657,0.16364167630672455,0.03412444144487381,0.1090778037905693,0.026802541688084602,-0.06967422366142273,-0.08812285959720612,-0.1364831179380417,-0.07146012783050537,0.11352353543043137,-0.0233614444732666,-0.042220789939165115,0.053803522139787674,0.11746305227279663,0.17731636762619019,-0.06631581485271454,-0.0206900667399168,-0.010594923049211502,-0.04291543364524841,-0.08246656507253647,-0.10084566473960876,-0.0630187839269638,0.11371753364801407,-0.1667574942111969,-0.1902349591255188,-0.04347826912999153,-0.06380631029605865,-0.8225606083869934,-0.009116925299167633,0.07098838686943054,-0.43945765495300293,-0.014944173395633698,0.06456408649682999,-0.010542319156229496,0.021082205697894096,0.3602306842803955,0.2771971523761749,-0.16185787320137024,0.2549675703048706,-0.22234001755714417,0.49217066168785095,-0.3081158399581909,-0.08508326858282089,-0.6838477253913879,-0.318704217672348,0.10814985632896423,-0.13987696170806885,-0.14365780353546143,-0.21361573040485382,0.10341621935367584,-0.01549316942691803,-0.18121536076068878,0.018540240824222565,0.1455904096364975,-0.06706023961305618,0.05552474409341812,0.1700637936592102,-0.07957881689071655,-0.023131318390369415,-0.24182847142219543,-0.10758426040410995,0.05376230925321579,0.045274246484041214,-0.09132609516382217,0.5403127670288086,-0.011304634623229504,-0.1312631517648697,-0.42501100897789,-0.17302614450454712,0.20869092643260956,0.0005823716637678444,0.030326901003718376,0.14548808336257935,-0.30058079957962036,-0.14556670188903809,0.16394904255867004,0.08444328606128693,0.1910599172115326,-0.0449947826564312,0.4263193905353546,0.13336791098117828,-0.10314135998487473,-0.08621156215667725,0.24950313568115234,0.14091618359088898,0.12020161747932434,0.16503939032554626,0.2208443433046341,-0.14854009449481964,-0.05950688198208809,-0.07704175263643265,-0.2809310555458069,-0.024183720350265503,0.3256329596042633,-0.12934136390686035,-0.12373796850442886,-0.4305790662765503,-0.2341039776802063,0.06333821266889572,0.5556849241256714,0.32229718565940857,0.1321222484111786,-0.022850483655929565,0.05915175750851631,0.32865872979164124,-0.27023452520370483,-0.34076830744743347,-0.01998913660645485,-0.11865635961294174,0.015109524130821228,0.05275879427790642,-0.03109697438776493,-0.11936116963624954,-0.03366747125983238,-0.027249716222286224,-0.10322733968496323,0.07948257029056549,0.08734823763370514,-0.12302623689174652,-0.09682527929544449,0.019230738282203674,-0.019749809056520462,0.09178528934717178,0.09112681448459625,0.20951876044273376,-0.033183686435222626,0.16558517515659332,0.09870527684688568,-0.20202600955963135,0.09900543838739395,-0.030291808769106865,0.013383989222347736,-0.14045120775699615,-0.07633515447378159,-0.0328453965485096,0.005324326455593109,0.010493166744709015,0.026599949225783348,-0.1378878802061081,-0.031032893806695938,-0.1800432801246643,-0.17157872021198273,0.04081591218709946,-0.013763858005404472,-0.19841110706329346,-0.001619519549421966,0.039288707077503204,0.060511209070682526,-0.17850762605667114,-0.09170660376548767,-0.09771394729614258,0.10761116445064545,0.0293941181153059,-0.04085111245512962,-0.11356199532747269,-0.09018081426620483,-0.09292745590209961,-0.12709353864192963,-0.0014096548547968268,-0.006461079232394695,-0.04076031595468521,-0.01337707694619894,-0.010707803070545197,0.048375945538282394,-0.05591033771634102,0.07035756856203079,0.002389830769971013,0.05416923388838768,0.03581630811095238,-0.01994812861084938,0.011781342327594757,-0.04018186032772064,0.019897617399692535,-0.07044348120689392,0.04669872671365738,0.07988322526216507,-0.08740556240081787,0.0033603087067604065,0.048951324075460434,-0.03541814908385277,0.034958384931087494,-0.050535060465335846,0.01016466785222292,-0.03803493082523346,0.024585871025919914,-0.012450025416910648,-0.03929467871785164,0.030709674581885338,-0.06686114519834518,-0.052056778222322464,-0.05384089797735214,0.007472439203411341,-0.04645035043358803,-0.059625063091516495,-0.0005441950052045286,0.09252996742725372,0.004603179637342691,0.09224283695220947,-0.023653723299503326,-0.03203614056110382,-0.024562837556004524,-0.054985783994197845,-0.08370815962553024,-0.04742831364274025,-0.06970090419054031,0.03034054860472679,0.02256063185632229,-0.016902411356568336,-0.005664790514856577,-0.006162536796182394,0.068157859146595,0.4624570608139038,-0.0400138720870018,0.07997292280197144,-0.02802141383290291,0.08160997927188873,0.2202122062444687,0.21982799470424652,-0.07022591680288315,0.03858907148241997,0.007506476249545813,0.06250892579555511,0.05384592339396477,0.23496879637241364,-0.07979437708854675,0.03681355342268944,-0.04747556522488594,-0.030789969488978386,0.002583366585895419,0.1254141628742218,0.02578471228480339,-0.020624911412596703,0.03265988826751709,-0.02268984168767929,0.04565953090786934,0.38397863507270813,0.02276494912803173,0.02901284396648407,0.019661972299218178,0.07881413400173187,-0.02661551535129547,0.3680945634841919,0.025840263813734055,-0.007936547510325909,0.023490259423851967,0.07365093380212784,0.0363171249628067,0.030212193727493286,-0.024018840864300728,0.006095194723457098,-0.023783382028341293,0.038604795932769775,0.07678774744272232,-0.005287648644298315,0.004468157421797514,0.04233277216553688,0.00014617072883993387,0.015366335399448872,-0.039847344160079956,0.01113857701420784,-0.11227867007255554,-0.08138089627027512,-0.08920571208000183,-0.06038682907819748,0.044034652411937714,-0.2592378854751587,-0.03420792892575264,-0.05713662505149841,0.014889378100633621,-0.00807597953826189,-0.09683992713689804,0.10618741810321808,-0.042584698647260666,-0.09383519738912582,-0.08613511174917221,-0.040028687566518784,0.023138461634516716,-0.09202924370765686,0.005730089731514454,0.046368930488824844,-0.029196934774518013,-0.06546499580144882,-0.22570191323757172,-0.07959188520908356,-0.12361257523298264,-0.08284693956375122,-0.030649561434984207,-0.031032303348183632,-0.13134533166885376,-0.09500941634178162,-0.04091999679803848,0.024764737114310265,0.13287784159183502,0.09611507505178452,0.03898334503173828,-0.1669178158044815,-0.011449110694229603,0.005004992242902517,0.059746723622083664,0.09744970500469208,0.026171211153268814,0.006666283123195171,0.032556526362895966,0.010282513685524464,-0.04771041125059128,-0.0035830207634717226,0.0322139635682106,0.5327942967414856,-0.022008538246154785,-0.0252351313829422,0.016243837773799896,0.04085879400372505,0.07604780048131943,0.12583932280540466,-0.04747501388192177,-0.03164330869913101,0.050614386796951294,0.007754742167890072,0.013049356639385223,0.16857106983661652,-0.04713887348771095,-0.05427630990743637,0.04611419141292572,0.03882765397429466,-0.02304181456565857,0.3716537356376648,-0.03411128371953964,0.03882472217082977,0.07978517562150955,-0.013956552371382713,0.02757638320326805,-0.0233099777251482,0.04942356050014496,0.014058217406272888,-0.05661313608288765,0.030744057148694992,-0.06220562756061554,0.09630489349365234,-0.07876317203044891,-0.012005154974758625,0.04905659332871437,-0.04897013306617737,0.017652491107583046,-0.004310404881834984,-0.014050240628421307,-0.042858563363552094,-0.032485999166965485,-0.01875581592321396,0.033426832407712936,-0.24761547148227692,-0.0053954096511006355,-0.06094135716557503,-0.050786253064870834,-0.02953663468360901,-0.04929851368069649,-0.3032762408256531,-0.08142203092575073,-0.040711041539907455,0.030468665063381195,0.009244628250598907,0.022562328726053238,0.3195975720882416,-0.07654974609613419,0.024435125291347504,0.06699924170970917,0.04794909060001373,0.012482134625315666,0.11673162132501602,-0.049329157918691635,0.014900920912623405,0.005045173689723015,-0.021353190764784813,-0.0259223822504282,-0.037735141813755035,0.020903950557112694,-0.11864056438207626,0.02069433033466339,0.1091822162270546,-0.025911353528499603,-0.25569701194763184,0.034170448780059814,0.09601237624883652,0.025060715153813362,-0.06273442506790161,0.09842807054519653,-0.20879533886909485,-0.04712716117501259,-0.053832825273275375,0.01719832979142666,0.06907163560390472,0.02867046743631363,0.20151053369045258,-0.07464197278022766,-0.042689062654972076,-0.020142311230301857,-0.04059666022658348,-0.08028843253850937,0.16986128687858582,-0.007653952110558748,-0.023749729618430138,-0.042186953127384186,-0.001692502642981708,0.0778263509273529,0.3059076964855194,0.08880036324262619,-0.03981248661875725,-0.052468571811914444,0.05504702404141426,-0.05949218571186066,0.08129656314849854,0.07842717319726944,0.009825603105127811,0.06629937887191772,0.028871184214949608,-0.0024234966840595007,-0.2807685434818268,0.04965458810329437,-0.02810734137892723,0.0017366359243169427,0.029279500246047974,-0.0354592390358448,0.06627947837114334,0.06498243659734726,-0.030484123155474663,-0.04949713125824928,-0.07382892072200775,-0.09324567764997482,0.2157333344221115,-0.0034825413022190332,0.06783811002969742,0.06158798933029175,0.023598669096827507,0.034794919192790985,0.2594766318798065,-0.020796338096261024,-0.07223537564277649,-0.07627829164266586,-0.026601608842611313,0.04863196238875389,-0.059078462421894073,0.014576259069144726,-0.03752877190709114,-0.0047613829374313354,0.0709681585431099,0.1191091537475586,-0.0011418104404583573,0.019207999110221863,-0.04132869839668274,0.03449371084570885,0.04705965891480446,-0.06351888924837112,-0.06852999329566956,-0.0036784301046282053,0.02096114307641983,0.03998503461480141,-0.026436153799295425,-0.13445457816123962,-0.15398672223091125,-0.08685187995433807,0.01384309958666563,-0.033035896718502045,-0.07428835332393646,0.13720914721488953,0.3268204927444458,0.03450147435069084,0.05489753559231758,0.060380708426237106,-0.022215526551008224,-0.07459581643342972,-0.007397294044494629,0.038785919547080994,0.027784617617726326,-0.019075747579336166,-0.012899134308099747,-0.09406983852386475,-0.05633484199643135,-0.048350684344768524,-0.02884947508573532,-0.02812866121530533,0.023136837407946587,0.05834241211414337,-0.053343188017606735,0.04355116933584213,0.021214153617620468,-0.09874274581670761,-0.0867321789264679,-0.06019445136189461,-0.2464667558670044,-0.0070402733981609344,-0.039636630564928055,0.007840546779334545,-0.02112962305545807,-0.03697293624281883,-0.017287956550717354,-0.13727888464927673,-0.05720619112253189,-0.18313127756118774,0.19431054592132568,